{"learner":{"attributes":{"scikit_learn":"{\"_estimator_type\": \"regressor\"}"},"feature_names":["distance_nm","takeoff_weight_klbs","headwind_kt","month","day_of_week","origin","dest","aircraft_type"],"feature_types":["int","float","float","int","int","c","c","c"],"gradient_booster":{"model":{"cats":{"enc":[{"offsets":[],"values":[]},{"offsets":[],"values":[]},{"offsets":[],"values":[]},{"offsets":[],"values":[]},{"offsets":[],"values":[]},{"offsets":[0,3,6,9,12,15,18,21,24],"values":[65,84,76,66,79,83,68,70,87,74,70,75,76,65,88,79,82,68,83,69,65,83,70,79]},{"offsets":[0,3,6,9,12,15,18,21,24],"values":[68,69,78,68,70,87,76,65,88,76,72,82,77,73,65,79,82,68,83,69,65,83,70,79]},{"offsets":[0,4,8,12,16,20],"values":[65,51,50,48,65,51,50,49,66,55,51,55,66,55,51,56,66,55,56,57]}],"feature_segments":[0,0,0,0,0,0,8,16,21],"sorted_idx":[0,1,2,3,4,5,6,7,0,1,2,3,4,5,6,7,0,1,2,3,4]},"gbtree_model_param":{"num_parallel_tree":"1","num_trees":"300"},"iteration_indptr":[0,1,2,3,4,5,6,7,8,9,10,11,12,13,14,15,16,17,18,19,20,21,22,23,24,25,26,27,28,29,30,31,32,33,34,35,36,37,38,39,40,41,42,43,44,45,46,47,48,49,50,51,52,53,54,55,56,57,58,59,60,61,62,63,64,65,66,67,68,69,70,71,72,73,74,75,76,77,78,79,80,81,82,83,84,85,86,87,88,89,90,91,92,93,94,95,96,97,98,99,100,101,102,103,104,105,106,107,108,109,110,111,112,113,114,115,116,117,118,119,120,121,122,123,124,125,126,127,128,129,130,131,132,133,134,135,136,137,138,139,140,141,142,143,144,145,146,147,148,149,150,151,152,153,154,155,156,157,158,159,160,161,162,163,164,165,166,167,168,169,170,171,172,173,174,175,176,177,178,179,180,181,182,183,184,185,186,187,188,189,190,191,192,193,194,195,196,197,198,199,200,201,202,203,204,205,206,207,208,209,210,211,212,213,214,215,216,217,218,219,220,221,222,223,224,225,226,227,228,229,230,231,232,233,234,235,236,237,238,239,240,241,242,243,244,245,246,247,248,249,250,251,252,253,254,255,256,257,258,259,260,261,262,263,264,265,266,267,268,269,270,271,272,273,274,275,276,277,278,279,280,281,282,283,284,285,286,287,288,289,290,291,292,293,294,295,296,297,298,299,300],"tree_info":[0,0,0,0,0,0,0,0,0,0,0,0,0,0,0,0,0,0,0,0,0,0,0,0,0,0,0,0,0,0,0,0,0,0,0,0,0,0,0,0,0,0,0,0,0,0,0,0,0,0,0,0,0,0,0,0,0,0,0,0,0,0,0,0,0,0,0,0,0,0,0,0,0,0,0,0,0,0,0,0,0,0,0,0,0,0,0,0,0,0,0,0,0,0,0,0,0,0,0,0,0,0,0,0,0,0,0,0,0,0,0,0,0,0,0,0,0,0,0,0,0,0,0,0,0,0,0,0,0,0,0,0,0,0,0,0,0,0,0,0,0,0,0,0,0,0,0,0,0,0,0,0,0,0,0,0,0,0,0,0,0,0,0,0,0,0,0,0,0,0,0,0,0,0,0,0,0,0,0,0,0,0,0,0,0,0,0,0,0,0,0,0,0,0,0,0,0,0,0,0,0,0,0,0,0,0,0,0,0,0,0,0,0,0,0,0,0,0,0,0,0,0,0,0,0,0,0,0,0,0,0,0,0,0,0,0,0,0,0,0,0,0,0,0,0,0,0,0,0,0,0,0,0,0,0,0,0,0,0,0,0,0,0,0,0,0,0,0,0,0,0,0,0,0,0,0,0,0,0,0,0,0,0,0,0,0,0,0,0,0,0,0,0,0,0,0,0,0,0,0],"trees":[{"base_weights":[6.7414955E1,-3.6852524E3,1.5183262E4,3.6960163E1,-4.60283E3,2.8463062E4,1.1749572E4,-1.4016243E3,4.5283447E3,-5.425685E3,-2.0466438E3,1.0681742E3,1.7417073E3,7.834189E3,1.5397994E4,-2.9459232E2,-6.020757E2,2.9550762E3,2.9662827E2,-3.9567792E2,-4.8991255E3,-2.873406E3,-1.1816344E3,7.1462964E3,8.642759E3,6.687829E2,1.56336875E4,-8.9203735E1,5.9572926E0,1.3129567E2,1.6891954E2,-2.7737894E2,-2.2195238E2,-1.6065942E2,-1.3095024E2,-7.211303E1,-3.5669994E1,3.8840002E2,3.2519427E2,4.561589E2,4.0306155E2,8.1144574E2,7.489138E2],"categories":[0,1,2,3,0,1,2,3,0,2,4,0,2,4,0,2,4],"categories_nodes":[1,2,23,24,26],"categories_segments":[0,4,8,11,14],"categories_sizes":[4,4,3,3,3],"default_left":[0,1,1,0,0,0,0,0,0,0,0,0,0,0,0,0,0,0,0,0,0,0,0,1,1,0,1,0,0,0,0,0,0,0,0,0,0,0,0,0,0,0,0],"id":0,"left_children":[1,3,5,7,9,11,13,15,17,19,21,-1,-1,23,25,-1,27,29,-1,-1,31,33,35,37,39,-1,41,-1,-1,-1,-1,-1,-1,-1,-1,-1,-1,-1,-1,-1,-1,-1,-1],"loss_changes":[5.1880375E11,2.5024946E10,8.260967E10,9.37514E9,1.2352504E10,1.6127328E10,2.0549698E10,3.942028E9,7.6011264E8,5.785559E9,1.0214241E9,0E0,0E0,3.275858E8,1.4742323E8,0E0,7.9643174E8,1.45376E7,0E0,0E0,1.0708664E9,5.4859776E7,8.463898E7,1.0284237E8,1.5017984E7,0E0,1.5958016E7,0E0,0E0,0E0,0E0,0E0,0E0,0E0,0E0,0E0,0E0,0E0,0E0,0E0,0E0,0E0,0E0],"parents":[2147483647,0,0,1,1,2,2,3,3,4,4,5,5,6,6,7,7,8,8,9,9,10,10,13,13,14,14,16,16,17,17,20,20,21,21,22,22,23,23,24,24,26,26],"right_children":[2,4,6,8,10,12,14,16,18,20,22,-1,-1,24,26,-1,28,30,-1,-1,32,34,36,38,40,-1,42,-1,-1,-1,-1,-1,-1,-1,-1,-1,-1,-1,-1,-1,-1,-1,-1],"split_conditions":[2.145E3,1E-45,1E-45,8.9E2,8.9E2,3.02E3,3.02E3,5.6E2,1.09E3,5.6E2,1.09E3,1.0681742E3,1.7417073E3,1.21E1,-9.1E0,-2.9459232E2,6.8E2,1.31E1,2.9662827E2,-3.9567792E2,6.8E2,5.3E0,1.36E1,1E-45,1E-45,6.687829E2,1E-45,-8.9203735E1,5.9572926E0,1.3129567E2,1.6891954E2,-2.7737894E2,-2.2195238E2,-1.6065942E2,-1.3095024E2,-7.211303E1,-3.5669994E1,3.8840002E2,3.2519427E2,4.561589E2,4.0306155E2,8.1144574E2,7.489138E2],"split_indices":[0,7,7,0,0,0,0,0,0,0,0,0,0,2,2,0,0,2,0,0,0,2,2,7,7,0,7,0,0,0,0,0,0,0,0,0,0,0,0,0,0,0,0],"split_type":[0,1,1,0,0,0,0,0,0,0,0,0,0,0,0,0,0,0,0,0,0,0,0,1,1,0,1,0,0,0,0,0,0,0,0,0,0,0,0,0,0,0,0],"sum_hessian":[9.144E3,7.326E3,1.818E3,1.449E3,5.877E3,3.72E2,1.446E3,1.098E3,3.51E2,4.445E3,1.432E3,1.78E2,1.94E2,6.99E2,7.47E2,1.65E2,9.33E2,1.67E2,1.84E2,7.74E2,3.671E3,7.31E2,7.01E2,3.83E2,3.16E2,8.4E1,6.63E2,3.53E2,5.8E2,9.8E1,6.9E1,1.519E3,2.152E3,3.08E2,4.23E2,4.49E2,2.52E2,1.89E2,1.94E2,1.65E2,1.51E2,3.35E2,3.28E2],"tree_param":{"num_deleted":"0","num_feature":"8","num_nodes":"43","size_leaf_vector":"1"}},{"base_weights":[2.115502E1,1.4437687E4,-3.498349E3,2.7098752E4,1.1262449E4,-7.064759E0,-4.370433E3,1.6589006E3,1.0169841E3,1.4644905E4,7.410088E3,7.357044E2,-2.797434E2,-3.8970388E3,-3.756815E2,6.521623E2,7.473444E2,6.852961E3,8.184273E3,2.0964553E3,2.1927702E2,-3.1900806E3,-4.183852E3,3.725925E2,3.1278424E2,4.3143115E2,3.8120297E2,7.311599E1,1.2374689E2,5.7919335E0,4.2970192E1,-1.6660312E2,-1.3144481E2,-2.1933568E2,-1.9751227E2],"categories":[0,1,4,5,6,7,0,1,2,3,0,1,2,3,0,1,2,4,5,6,7,0,1,2,4,5,6,7,7,7,0,1,2,3,5,6,7,0,1,5,6,0,2,4,0,2,4],"categories_nodes":[0,1,2,3,4,5,6,11,13,17,18],"categories_segments":[0,6,10,14,21,28,29,30,37,41,44],"categories_sizes":[6,4,4,7,7,1,1,7,4,3,3],"default_left":[1,1,1,1,1,1,1,0,0,0,0,1,0,1,0,0,0,1,1,0,0,0,0,0,0,0,0,0,0,0,0,0,0,0,0],"id":1,"left_children":[1,3,5,7,9,11,13,-1,-1,15,17,19,-1,21,-1,-1,-1,23,25,27,29,31,33,-1,-1,-1,-1,-1,-1,-1,-1,-1,-1,-1,-1],"loss_changes":[4.67763E11,7.242003E10,2.2561145E10,1.4199767E10,1.8759565E10,6.1550807E9,8.7929E9,0E0,0E0,1.7747149E8,2.3677747E8,9.1941274E8,0E0,1.0319053E9,0E0,0E0,0E0,9.682125E7,3.66592E6,8.2784E7,6.2803424E7,1.1011994E8,1.5630336E8,0E0,0E0,0E0,0E0,0E0,0E0,0E0,0E0,0E0,0E0,0E0,0E0],"parents":[2147483647,0,0,1,1,2,2,3,3,4,4,5,5,6,6,9,9,10,10,11,11,13,13,17,17,18,18,19,19,20,20,21,21,22,22],"right_children":[2,4,6,8,10,12,14,-1,-1,16,18,20,-1,22,-1,-1,-1,24,26,28,30,32,34,-1,-1,-1,-1,-1,-1,-1,-1,-1,-1,-1,-1],"split_conditions":[1E-45,1E-45,1E-45,1E-45,1E-45,1E-45,1E-45,1.6589006E3,1.0169841E3,-2.5E0,1.36E1,1E-45,-2.797434E2,1E-45,-3.756815E2,6.521623E2,7.473444E2,1E-45,1E-45,2.7E0,2.73E1,2.34E1,9.6E0,3.725925E2,3.1278424E2,4.3143115E2,3.8120297E2,7.311599E1,1.2374689E2,5.7919335E0,4.2970192E1,-1.6660312E2,-1.3144481E2,-2.1933568E2,-1.9751227E2],"split_indices":[6,7,7,6,6,6,6,0,0,2,2,6,0,6,0,0,0,7,7,2,2,2,2,0,0,0,0,0,0,0,0,0,0,0,0],"split_type":[1,1,1,1,1,1,1,0,0,0,0,1,0,1,0,0,0,1,1,0,0,0,0,0,0,0,0,0,0,0,0,0,0,0,0],"sum_hessian":[9.217E3,1.808E3,7.409E3,3.61E2,1.447E3,1.481E3,5.928E3,1.88E2,1.73E2,7.69E2,6.78E2,1.308E3,1.73E2,5.154E3,7.74E2,1.29E2,6.4E2,4E2,2.78E2,3.59E2,9.49E2,1.491E3,3.663E3,1.94E2,2.06E2,1.47E2,1.31E2,1.36E2,2.23E2,8.18E2,1.31E2,1.186E3,3.05E2,1.951E3,1.712E3],"tree_param":{"num_deleted":"0","num_feature":"8","num_nodes":"35","size_leaf_vector":"1"}},{"base_weights":[-2.8778316E1,-3.3606243E3,1.3530435E4,-8.250141E1,-4.1642183E3,2.5515582E4,1.0631597E4,-1.3504574E3,4.132943E3,-4.926018E3,-1.7627264E3,9.6556976E2,1.5735929E3,7.107427E3,1.3903963E4,-2.6634766E2,-6.21056E2,2.773545E3,2.754195E2,-3.568669E2,-4.451601E3,-2.5468623E3,-9.492714E2,3.8054095E2,6.5600874E3,7.2761017E2,6.6014734E2,-8.859799E1,4.991018E0,1.2086434E2,1.5265936E2,-2.5389505E2,-2.0074683E2,-1.0799336E2,-1.3333868E2,-3.3614704E1,-6.1534847E1,3.0791705E2,3.4352036E2],"categories":[0,1,2,3,0,1,2,3,0,2,4,0,2,4,0,2,3,0,2],"categories_nodes":[1,2,13,14,21,22],"categories_segments":[0,4,8,11,14,17],"categories_sizes":[4,4,3,3,3,2],"default_left":[0,1,1,0,0,0,0,0,0,0,0,0,0,1,1,0,0,0,0,0,0,1,1,0,0,0,0,0,0,0,0,0,0,0,0,0,0,0,0],"id":2,"left_children":[1,3,5,7,9,11,13,15,17,19,21,-1,-1,23,25,-1,27,29,-1,-1,31,33,35,-1,37,-1,-1,-1,-1,-1,-1,-1,-1,-1,-1,-1,-1,-1,-1],"loss_changes":[4.1477226E11,1.9414295E10,6.2648287E10,7.7665183E9,1.0819863E10,1.2399985E10,1.6738451E10,3.236507E9,6.1296794E8,4.681777E9,9.0780774E8,0E0,0E0,1.4431846E8,1.5140454E8,0E0,7.842052E8,9.655424E6,0E0,0E0,9.920512E8,2.7930112E7,5.389248E7,0E0,7.00416E5,0E0,0E0,0E0,0E0,0E0,0E0,0E0,0E0,0E0,0E0,0E0,0E0,0E0,0E0],"parents":[2147483647,0,0,1,1,2,2,3,3,4,4,5,5,6,6,7,7,8,8,9,9,10,10,13,13,14,14,16,16,17,17,20,20,21,21,22,22,24,24],"right_children":[2,4,6,8,10,12,14,16,18,20,22,-1,-1,24,26,-1,28,30,-1,-1,32,34,36,-1,38,-1,-1,-1,-1,-1,-1,-1,-1,-1,-1,-1,-1,-1,-1],"split_conditions":[2.145E3,1E-45,1E-45,8.9E2,8.9E2,3.02E3,3.02E3,5.6E2,1.09E3,5.6E2,1.09E3,9.6556976E2,1.5735929E3,1E-45,1E-45,-2.6634766E2,6.8E2,3E0,2.754195E2,-3.568669E2,6.8E2,1E-45,1E-45,3.8054095E2,3E0,7.2761017E2,6.6014734E2,-8.859799E1,4.991018E0,1.2086434E2,1.5265936E2,-2.5389505E2,-2.0074683E2,-1.0799336E2,-1.3333868E2,-3.3614704E1,-6.1534847E1,3.0791705E2,3.4352036E2],"split_indices":[0,7,7,0,0,0,0,0,0,0,0,0,0,7,7,0,0,3,0,0,0,7,7,0,3,0,0,0,0,0,0,0,0,0,0,0,0,0,0],"split_type":[0,1,1,0,0,0,0,0,0,0,0,0,0,1,1,0,0,0,0,0,0,1,1,0,0,0,0,0,0,0,0,0,0,0,0,0,0,0,0],"sum_hessian":[9.179E3,7.369E3,1.81E3,1.451E3,5.918E3,3.51E2,1.459E3,1.116E3,3.35E2,4.492E3,1.426E3,1.74E2,1.77E2,7.04E2,7.55E2,1.72E2,9.44E2,1.7E2,1.65E2,7.91E2,3.701E3,7.25E2,7.01E2,3.6E2,3.44E2,3.82E2,3.73E2,3.63E2,5.81E2,7.9E1,9.1E1,1.516E3,2.185E3,1.76E2,5.49E2,3.55E2,3.46E2,1.59E2,1.85E2],"tree_param":{"num_deleted":"0","num_feature":"8","num_nodes":"39","size_leaf_vector":"1"}},{"base_weights":[-3.77796E1,1.2838952E4,-3.1751729E3,2.4320004E4,1.0017274E4,1.2187793E0,-3.957235E3,1.4897513E3,9.160805E2,1.3200405E4,6.6671323E3,4.0217969E3,-1.2810208E3,-1.679887E3,-4.668661E3,5.796686E2,1.3494861E4,6.1077896E3,7.43853E3,5.226446E3,2.702047E3,-6.0888965E2,-2.5230656E2,-9.0897723E2,-2.420667E3,-4.2350977E3,-3.3917712E2,7.0385785E2,6.426718E2,3.329211E2,2.7810214E2,4.094038E2,3.5642587E2,1.9054375E2,2.6558884E2,1.17237144E2,1.5640666E2,5.3907814E0,-8.6202835E1,-5.7574623E1,-2.4687117E1,-1.4219966E2,-1.1175873E2,-1.905628E2,-2.4170775E2],"categories":[0,1,4,5,6,7,0,1,2,3,0,1,2,3,0,1,2,4,5,6,7,0,1,2,4,5,6,7,0,1,2,4,5,7,0,1,2,4,5,7,0,1,2,4,5,6,7,4,6,4,0,2,4,0,2,4,0,2,3,4,0,2,0,2],"categories_nodes":[0,1,2,3,4,5,6,11,12,13,14,16,17,18,21,25],"categories_segments":[0,6,10,14,21,28,34,40,47,48,49,50,53,56,60,62],"categories_sizes":[6,4,4,7,7,6,6,7,1,1,1,3,3,4,2,2],"default_left":[1,1,1,1,1,1,1,0,0,0,0,1,1,1,1,0,1,1,1,0,0,1,0,0,0,1,0,0,0,0,0,0,0,0,0,0,0,0,0,0,0,0,0,0,0],"id":3,"left_children":[1,3,5,7,9,11,13,-1,-1,15,17,19,21,23,25,-1,27,29,31,33,35,37,-1,39,41,43,-1,-1,-1,-1,-1,-1,-1,-1,-1,-1,-1,-1,-1,-1,-1,-1,-1,-1,-1],"loss_changes":[3.717958E11,5.8166084E10,1.838261E10,1.1112808E10,1.536403E10,7.54742E9,9.612689E9,0E0,0E0,1.9467469E8,2.6005504E8,5.486797E8,2.8059464E9,8.058701E8,4.1194947E9,0E0,5.09952E7,8.797594E7,9.716736E6,1.983488E6,1.8698752E7,7.53875E8,0E0,6.941843E7,5.0258944E7,9.354977E8,0E0,0E0,0E0,0E0,0E0,0E0,0E0,0E0,0E0,0E0,0E0,0E0,0E0,0E0,0E0,0E0,0E0,0E0,0E0],"parents":[2147483647,0,0,1,1,2,2,3,3,4,4,5,5,6,6,9,9,10,10,11,11,12,12,13,13,14,14,16,16,17,17,18,18,19,19,20,20,21,21,23,23,24,24,25,25],"right_children":[2,4,6,8,10,12,14,-1,-1,16,18,20,22,24,26,-1,28,30,32,34,36,38,-1,40,42,44,-1,-1,-1,-1,-1,-1,-1,-1,-1,-1,-1,-1,-1,-1,-1,-1,-1,-1,-1],"split_conditions":[1E-45,1E-45,1E-45,1E-45,1E-45,1E-45,1E-45,1.4897513E3,9.160805E2,-5.1E0,1.38E1,1E-45,1E-45,1E-45,1E-45,5.796686E2,1E-45,1E-45,1E-45,-1.97E1,1.31E1,1E-45,-2.5230656E2,1.36E1,-9E-1,1E-45,-3.3917712E2,7.0385785E2,6.426718E2,3.329211E2,2.7810214E2,4.094038E2,3.5642587E2,1.9054375E2,2.6558884E2,1.17237144E2,1.5640666E2,5.3907814E0,-8.6202835E1,-5.7574623E1,-2.4687117E1,-1.4219966E2,-1.1175873E2,-1.905628E2,-2.4170775E2],"split_indices":[6,7,7,6,6,5,5,0,0,2,2,5,5,5,5,0,7,7,7,2,2,5,0,2,2,5,0,0,0,0,0,0,0,0,0,0,0,0,0,0,0,0,0,0,0],"split_type":[1,1,1,1,1,1,1,0,0,0,0,1,1,1,1,0,1,1,1,0,0,1,0,0,0,1,0,0,0,0,0,0,0,0,0,0,0,0,0,0,0,0,0,0,0],"sum_hessian":[9.201E3,1.802E3,7.399E3,3.54E2,1.448E3,1.462E3,5.937E3,1.83E2,1.71E2,7.41E2,7.07E2,3.53E2,1.109E3,1.414E3,4.523E3,1.21E2,6.2E2,4.15E2,2.92E2,1.83E2,1.7E2,9.42E2,1.67E2,6.94E2,7.2E2,3.756E3,7.67E2,3.14E2,3.06E2,2.01E2,2.14E2,7.8E1,2.14E2,1.3E1,1.7E2,9.6E1,7.4E1,5.74E2,3.68E2,4.37E2,2.57E2,2.15E2,5.05E2,2.204E3,1.552E3],"tree_param":{"num_deleted":"0","num_feature":"8","num_nodes":"45","size_leaf_vector":"1"}},{"base_weights":[-3.639528E1,-3.023013E3,1.2186419E4,-6.3478804E0,-3.7730986E3,2.316661E4,9.557274E3,-1.1980846E3,3.7889453E3,-4.446424E3,-1.6000011E3,8.744253E2,1.4276715E3,6.381685E3,1.2513817E4,-2.4068352E2,-5.645758E2,2.5215933E3,4.958881E3,-3.2209763E2,-4.0241914E3,-2.2933145E3,-8.6361505E2,5.8217515E3,7.1181895E3,1.1501799E4,6.4493756E2,-7.967318E1,4.301332E0,1.104157E2,1.4251723E2,1.9434416E2,2.540994E2,-2.2924658E2,-1.8090373E2,-1.3557239E2,-1.0539524E2,-5.4107277E1,-2.4364944E1,3.141364E2,2.6894034E2,3.896606E2,3.4052512E2,6.105781E2,5.290927E2],"categories":[0,1,2,3,0,1,2,3,0,2,4,0,2,3,4,0,2,4],"categories_nodes":[1,2,23,24,25],"categories_segments":[0,4,8,11,15],"categories_sizes":[4,4,3,4,3],"default_left":[0,1,1,0,0,0,0,0,0,0,0,0,0,0,0,0,0,0,0,0,0,0,0,1,1,1,0,0,0,0,0,0,0,0,0,0,0,0,0,0,0,0,0,0,0],"id":4,"left_children":[1,3,5,7,9,11,13,15,17,19,21,-1,-1,23,25,-1,27,29,31,-1,33,35,37,39,41,43,-1,-1,-1,-1,-1,-1,-1,-1,-1,-1,-1,-1,-1,-1,-1,-1,-1,-1,-1],"loss_changes":[3.355531E11,1.6714969E10,5.188626E10,6.6623816E9,8.649179E9,1.0144891E10,1.3608968E10,2.5649388E9,5.0941286E8,3.779158E9,7.132946E8,0E0,0E0,2.492969E8,1.4535885E8,0E0,6.394112E8,1.1316992E7,4.265984E6,0E0,8.328233E8,5.0180864E7,5.5475744E7,4.9106944E7,9.232384E6,1.2468224E7,0E0,0E0,0E0,0E0,0E0,0E0,0E0,0E0,0E0,0E0,0E0,0E0,0E0,0E0,0E0,0E0,0E0,0E0,0E0],"parents":[2147483647,0,0,1,1,2,2,3,3,4,4,5,5,6,6,7,7,8,8,9,9,10,10,13,13,14,14,16,16,17,17,18,18,20,20,21,21,22,22,23,23,24,24,25,25],"right_children":[2,4,6,8,10,12,14,16,18,20,22,-1,-1,24,26,-1,28,30,32,-1,34,36,38,40,42,44,-1,-1,-1,-1,-1,-1,-1,-1,-1,-1,-1,-1,-1,-1,-1,-1,-1,-1,-1],"split_conditions":[2.145E3,1E-45,1E-45,8.9E2,8.9E2,3.02E3,3.02E3,5.6E2,1.09E3,5.6E2,1.09E3,8.744253E2,1.4276715E3,1.32E1,3.8E0,-2.4068352E2,6.8E2,9.4E0,-1.34E1,-3.2209763E2,6.8E2,-8E-1,1.38E1,1E-45,1E-45,1E-45,6.4493756E2,-7.967318E1,4.301332E0,1.104157E2,1.4251723E2,1.9434416E2,2.540994E2,-2.2924658E2,-1.8090373E2,-1.3557239E2,-1.0539524E2,-5.4107277E1,-2.4364944E1,3.141364E2,2.6894034E2,3.896606E2,3.4052512E2,6.105781E2,5.290927E2],"split_indices":[0,7,7,0,0,0,0,0,0,0,0,0,0,2,2,0,0,2,2,0,0,2,2,7,7,7,0,0,0,0,0,0,0,0,0,0,0,0,0,0,0,0,0,0,0],"split_type":[0,1,1,0,0,0,0,0,0,0,0,0,0,0,0,0,0,0,0,0,0,0,0,1,1,1,0,0,0,0,0,0,0,0,0,0,0,0,0,0,0,0,0,0,0],"sum_hessian":[9.19E3,7.386E3,1.804E3,1.471E3,5.915E3,3.47E2,1.457E3,1.12E3,3.51E2,4.515E3,1.4E3,1.71E2,1.76E2,7.04E2,7.53E2,1.66E2,9.54E2,1.7E2,1.81E2,7.86E2,3.729E3,7.2E2,6.8E2,4.05E2,2.99E2,2.16E2,5.37E2,3.69E2,5.85E2,9.1E1,7.9E1,2.2E1,1.59E2,1.562E3,2.167E3,2.17E2,5.03E2,4.29E2,2.51E2,1.92E2,2.13E2,8.6E1,2.13E2,1.15E2,1.01E2],"tree_param":{"num_deleted":"0","num_feature":"8","num_nodes":"45","size_leaf_vector":"1"}},{"base_weights":[-1.1922757E1,7.9437075E3,-3.2920244E3,1.6235681E4,5.7948228E3,-6.812431E2,-3.940444E3,1.3972852E4,1.9323213E4,4.963582E3,7.5704673E3,6.219897E2,-2.4517307E3,-3.5601023E3,-3.06127E2,1.2533393E4,1.6695734E4,1.944278E4,1.897541E2,3.9847134E3,5.6335537E3,8.506005E3,6.4583066E3,2.3907961E3,1.1074156E2,-1.521628E3,-2.2822949E2,-2.1807778E3,-3.8215916E3,8.908833E2,6.065635E2,5.8363885E2,9.1539307E2,8.122792E2,1.01361115E3,1.5664185E2,2.3340482E2,2.5742743E2,3.3655652E2,3.7423093E2,4.7163742E2,3.5072818E2,2.5121007E2,1.06840675E2,1.4632918E2,1.480102E1,-1.7406303E1,-6.619683E1,-8.456173E1,-1.2586959E2,-9.99728E1,-1.7214294E2,-2.1755058E2],"categories":[0,1,2,4,5,6,7,0,1,2,3,0,1,2,3,0,2,4,4,0,1,2,3,4,5,7,4,0,1,2,5,7,3,4,7,2,0,2],"categories_nodes":[0,1,2,5,6,11,12,13,22,24,25,28],"categories_segments":[0,7,11,15,18,19,26,27,32,34,35,36],"categories_sizes":[7,4,4,3,1,7,1,5,2,1,1,2],"default_left":[1,1,1,0,0,1,1,0,0,0,0,1,1,1,0,0,0,0,0,0,0,0,1,0,1,1,0,0,1,0,0,0,0,0,0,0,0,0,0,0,0,0,0,0,0,0,0,0,0,0,0,0,0],"id":5,"left_children":[1,3,5,7,9,11,13,15,17,19,21,23,25,27,-1,29,31,33,-1,35,37,39,41,43,45,47,-1,49,51,-1,-1,-1,-1,-1,-1,-1,-1,-1,-1,-1,-1,-1,-1,-1,-1,-1,-1,-1,-1,-1,-1,-1,-1],"loss_changes":[2.3911108E11,4.7570403E10,1.0980729E10,3.572613E9,3.100369E9,2.9826307E9,4.2914202E9,1.0488955E9,3.5323904E8,9.2914074E8,6.484214E8,6.7343795E8,1.0699707E9,1.5887483E9,0E0,2.3858586E8,6.608425E8,2.7529216E8,0E0,3.3059533E8,4.226171E8,2.7394867E8,2.144471E8,1.6471872E7,4.9328736E7,1.056928E7,0E0,3.817984E7,7.311155E8,0E0,0E0,0E0,0E0,0E0,0E0,0E0,0E0,0E0,0E0,0E0,0E0,0E0,0E0,0E0,0E0,0E0,0E0,0E0,0E0,0E0,0E0,0E0,0E0],"parents":[2147483647,0,0,1,1,2,2,3,3,4,4,5,5,6,6,7,7,8,8,9,9,10,10,11,11,12,12,13,13,15,15,16,16,17,17,19,19,20,20,21,21,22,22,23,23,24,24,25,25,27,27,28,28],"right_children":[2,4,6,8,10,12,14,16,18,20,22,24,26,28,-1,30,32,34,-1,36,38,40,42,44,46,48,-1,50,52,-1,-1,-1,-1,-1,-1,-1,-1,-1,-1,-1,-1,-1,-1,-1,-1,-1,-1,-1,-1,-1,-1,-1,-1],"split_conditions":[1E-45,1E-45,1E-45,1.58E1,2E1,1E-45,1E-45,7E0,5.66E1,3E0,3E0,1E-45,1E-45,1E-45,-3.06127E2,3.01E2,-1.1E1,3.078E2,1.897541E2,2E0,1.01E1,3.09E1,1E-45,1.86E1,1E-45,1E-45,-2.2822949E2,1.5E0,1E-45,8.908833E2,6.065635E2,5.8363885E2,9.1539307E2,8.122792E2,1.01361115E3,1.5664185E2,2.3340482E2,2.5742743E2,3.3655652E2,3.7423093E2,4.7163742E2,3.5072818E2,2.5121007E2,1.06840675E2,1.4632918E2,1.480102E1,-1.7406303E1,-6.619683E1,-8.456173E1,-1.2586959E2,-9.99728E1,-1.7214294E2,-2.1755058E2],"split_indices":[5,7,7,2,2,5,5,3,2,3,3,5,5,5,0,1,2,1,0,2,2,2,7,2,5,5,0,2,5,0,0,0,0,0,0,0,0,0,0,0,0,0,0,0,0,0,0,0,0,0,0,0,0],"split_type":[1,1,1,0,0,1,1,0,0,0,0,1,1,1,0,0,0,0,0,0,0,0,1,0,1,1,0,0,1,0,0,0,0,0,0,0,0,0,0,0,0,0,0,0,0,0,0,0,0,0,0,0,0],"sum_hessian":[9.161E3,2.674E3,6.487E3,5.49E2,2.125E3,1.291E3,5.196E3,3.2E2,2.29E2,1.45E3,6.75E2,7.44E2,5.47E2,4.427E3,7.69E2,2.13E2,1.07E2,2.27E2,2E0,5.92E2,8.58E2,3.63E2,3.12E2,1.66E2,5.78E2,3.81E2,1.66E2,7.07E2,3.72E3,1.2E1,2.01E2,2.8E1,7.9E1,5.1E1,1.76E2,2.66E2,3.26E2,5.99E2,2.59E2,1.77E2,1.86E2,2.22E2,9E1,1.16E2,5E1,4.12E2,1.66E2,1.8E2,2.01E2,2.43E2,4.64E2,2.173E3,1.547E3],"tree_param":{"num_deleted":"0","num_feature":"8","num_nodes":"53","size_leaf_vector":"1"}},{"base_weights":[-2.3512686E1,-2.7602117E3,1.1319763E4,-4.5723186E1,-3.4178447E3,2.1099236E4,8.806323E3,-1.1015518E3,3.1574807E3,-4.006759E3,-1.5866544E3,7.868047E2,1.3129581E3,5.7381816E3,1.1581024E4,-2.1726668E2,-4.9924838E2,2.306798E3,1.9700735E2,-2.9060715E2,-3.6237954E3,-2.0601965E3,-1.0789531E3,4.736705E3,6.023738E3,6.2930316E2,1.1221523E4,-7.170383E1,5.2328715E0,1.02790764E2,1.3510655E2,-2.0692577E2,-1.630652E2,-1.090793E2,-7.600191E1,-6.119871E1,-2.977272E1,1.6820874E2,2.4303087E2,3.2543475E2,2.747119E2,4.980984E2,5.7535077E2],"categories":[0,1,2,3,0,1,2,3,0,2,3,4,0,2,4],"categories_nodes":[1,2,14,24],"categories_segments":[0,4,8,12],"categories_sizes":[4,4,4,3],"default_left":[0,1,1,0,0,0,0,0,0,0,0,0,0,0,1,0,0,0,0,0,0,0,0,0,1,0,0,0,0,0,0,0,0,0,0,0,0,0,0,0,0,0,0],"id":6,"left_children":[1,3,5,7,9,11,13,15,17,19,21,-1,-1,23,25,-1,27,29,-1,-1,31,33,35,37,39,-1,41,-1,-1,-1,-1,-1,-1,-1,-1,-1,-1,-1,-1,-1,-1,-1,-1],"loss_changes":[2.8333084E11,1.3125964E10,4.3419304E10,4.856697E9,6.3767675E9,9.604563E9,1.1962663E10,2.1078703E9,2.27936E8,3.0750147E9,3.4445978E8,0E0,0E0,1.6393011E8,1.2650086E8,0E0,5.1501805E8,1.1610368E7,0E0,0E0,6.7629466E8,4.5533184E7,4.821325E7,9.839104E6,9.776742E7,0E0,8.493466E7,0E0,0E0,0E0,0E0,0E0,0E0,0E0,0E0,0E0,0E0,0E0,0E0,0E0,0E0,0E0,0E0],"parents":[2147483647,0,0,1,1,2,2,3,3,4,4,5,5,6,6,7,7,8,8,9,9,10,10,13,13,14,14,16,16,17,17,20,20,21,21,22,22,23,23,24,24,26,26],"right_children":[2,4,6,8,10,12,14,16,18,20,22,-1,-1,24,26,-1,28,30,-1,-1,32,34,36,38,40,-1,42,-1,-1,-1,-1,-1,-1,-1,-1,-1,-1,-1,-1,-1,-1,-1,-1],"split_conditions":[2.145E3,1E-45,1E-45,8.9E2,8.9E2,3.02E3,3.02E3,5.6E2,1.09E3,5.6E2,1.09E3,7.868047E2,1.3129581E3,-4.3E0,1E-45,-2.1726668E2,6.8E2,1.35E1,1.9700735E2,-2.9060715E2,6.8E2,2.46E1,1.99E1,-3E1,1E-45,6.2930316E2,-1.1E0,-7.170383E1,5.2328715E0,1.02790764E2,1.3510655E2,-2.0692577E2,-1.630652E2,-1.090793E2,-7.600191E1,-6.119871E1,-2.977272E1,1.6820874E2,2.4303087E2,3.2543475E2,2.747119E2,4.980984E2,5.7535077E2],"split_indices":[0,7,7,0,0,0,0,0,0,0,0,0,0,2,7,0,0,2,0,0,0,2,2,2,7,0,2,0,0,0,0,0,0,0,0,0,0,0,0,0,0,0,0],"split_type":[0,1,1,0,0,0,0,0,0,0,0,0,0,0,1,0,0,0,0,0,0,0,0,0,1,0,0,0,0,0,0,0,0,0,0,0,0,0,0,0,0,0,0],"sum_hessian":[9.125E3,7.352E3,1.773E3,1.434E3,5.918E3,3.61E2,1.412E3,1.079E3,3.55E2,4.477E3,1.441E3,1.79E2,1.82E2,6.72E2,7.4E2,1.68E2,9.11E2,1.72E2,1.83E2,7.81E2,3.696E3,7.44E2,6.97E2,1.53E2,5.19E2,1.86E2,5.54E2,3.57E2,5.54E2,1.09E2,6.3E1,1.523E3,2.173E3,6.05E2,1.39E2,5.35E2,1.62E2,1.5E1,1.38E2,2.65E2,2.54E2,1.09E2,4.45E2],"tree_param":{"num_deleted":"0","num_feature":"8","num_nodes":"43","size_leaf_vector":"1"}},{"base_weights":[3.227949E1,1.0731258E4,-2.6093762E3,2.0083574E4,8.340556E3,-3.45964E1,-3.2579956E3,1.2430228E3,7.492301E2,1.0992848E4,5.5063647E3,4.8126758E2,-2.0620042E2,-2.9133145E3,-2.7612302E2,6.0205273E2,1.063637E4,4.5096895E3,5.7852056E3,1.3542618E3,1.5110837E2,-2.4961143E3,-3.0773672E3,4.923899E2,5.5954126E2,2.3781609E2,1.8697403E2,3.1249896E2,2.6496204E2,6.460926E1,1.7019675E2,1.2773843E1,-1.6997513E1,-1.4338867E2,-1.173561E2,-1.66482E2,-1.4486923E2],"categories":[0,1,4,5,6,7,0,1,2,3,0,1,2,3,0,1,2,4,5,6,7,0,1,2,4,5,6,7,7,7,0,2,3,4,0,1,2,3,5,6,7,0,1,5,6,0,4,0,2,4,6],"categories_nodes":[0,1,2,3,4,5,6,9,11,13,17,18,20],"categories_segments":[0,6,10,14,21,28,29,30,34,41,45,47,50],"categories_sizes":[6,4,4,7,7,1,1,4,7,4,2,3,1],"default_left":[1,1,1,1,1,1,1,0,0,1,0,1,0,1,0,0,0,1,1,0,1,0,0,0,0,0,0,0,0,0,0,0,0,0,0,0,0],"id":7,"left_children":[1,3,5,7,9,11,13,-1,-1,15,17,19,-1,21,-1,-1,23,25,27,29,31,33,35,-1,-1,-1,-1,-1,-1,-1,-1,-1,-1,-1,-1,-1,-1],"loss_changes":[2.5919984E11,4.043571E10,1.2283126E10,8.615281E9,1.0824237E10,3.1262735E9,4.5694484E9,0E0,0E0,1.5105229E8,1.6900506E8,3.7910227E8,0E0,3.4144666E8,0E0,0E0,1.3726515E8,1.2227072E7,8.997683E7,4.153395E7,4.908285E7,7.328563E7,1.5639347E8,0E0,0E0,0E0,0E0,0E0,0E0,0E0,0E0,0E0,0E0,0E0,0E0,0E0,0E0],"parents":[2147483647,0,0,1,1,2,2,3,3,4,4,5,5,6,6,9,9,10,10,11,11,13,13,16,16,17,17,18,18,19,19,20,20,21,21,22,22],"right_children":[2,4,6,8,10,12,14,-1,-1,16,18,20,-1,22,-1,-1,24,26,28,30,32,34,36,-1,-1,-1,-1,-1,-1,-1,-1,-1,-1,-1,-1,-1,-1],"split_conditions":[1E-45,1E-45,1E-45,1E-45,1E-45,1E-45,1E-45,1.2430228E3,7.492301E2,1E-45,-3.4E0,1E-45,-2.0620042E2,1E-45,-2.7612302E2,6.0205273E2,1.19E1,1E-45,1E-45,4.32E1,1E-45,-1.7E0,4.4E0,4.923899E2,5.5954126E2,2.3781609E2,1.8697403E2,3.1249896E2,2.6496204E2,6.460926E1,1.7019675E2,1.2773843E1,-1.6997513E1,-1.4338867E2,-1.173561E2,-1.66482E2,-1.4486923E2],"split_indices":[6,7,7,6,6,6,6,0,0,7,2,6,0,6,0,0,2,7,7,2,6,2,2,0,0,0,0,0,0,0,0,0,0,0,0,0,0],"split_type":[1,1,1,1,1,1,1,0,0,1,0,1,0,1,0,0,0,1,1,0,1,0,0,0,0,0,0,0,0,0,0,0,0,0,0,0,0],"sum_hessian":[9.169E3,1.815E3,7.354E3,3.68E2,1.447E3,1.48E3,5.874E3,1.88E2,1.8E2,7.46E2,7.01E2,1.315E3,1.65E2,5.1E3,7.74E2,1.81E2,5.65E2,1.57E2,5.44E2,3.6E2,9.55E2,1.444E3,3.656E3,2.41E2,3.24E2,1.15E2,4.2E1,2.72E2,2.72E2,3.51E2,9E0,7.88E2,1.67E2,4.08E2,1.036E3,1.515E3,2.141E3],"tree_param":{"num_deleted":"0","num_feature":"8","num_nodes":"37","size_leaf_vector":"1"}},{"base_weights":[-3.602361E0,-2.4919678E3,1.0069401E4,-3.100452E3,-5.7576553E1,7.8989097E3,1.8887316E4,-3.636131E3,-1.37975E3,-1.0452784E3,2.9492227E3,5.208543E3,1.0484218E4,7.0806305E2,1.175393E3,-2.6243542E2,-3.2987776E3,-1.823796E3,-9.09475E2,-1.9545409E2,-4.874708E2,2.1527769E3,3.65517E3,4.8437046E3,2.9380127E2,4.4622177E2,5.333703E2,-1.8957599E2,-1.4739154E2,-1.1068139E2,-8.403999E1,-4.955109E1,-1.1976871E1,-7.0086174E1,3.9103067E0,9.532977E1,1.3299901E2,-3.9970703E0,1.8376247E2,1.92174E2,2.497747E2],"categories":[],"categories_nodes":[],"categories_segments":[],"categories_sizes":[],"default_left":[0,0,0,0,0,0,0,0,0,0,0,0,0,0,0,0,0,0,0,0,0,0,0,0,0,0,0,0,0,0,0,0,0,0,0,0,0,0,0,0,0],"id":8,"left_children":[1,3,5,7,9,11,13,15,17,19,21,23,25,-1,-1,-1,27,29,31,-1,33,35,37,39,-1,-1,-1,-1,-1,-1,-1,-1,-1,-1,-1,-1,-1,-1,-1,-1,-1],"loss_changes":[2.2914712E11,1.0859151E10,3.4511913E10,5.4010143E9,4.359811E9,1.0065543E10,7.4628874E9,2.415493E9,2.8944154E8,1.7632778E9,1.9622733E8,1.456599E8,1.165312E8,0E0,0E0,0E0,6.288261E8,3.6192256E7,3.685728E7,0E0,4.790105E8,1.6529984E7,1.4618368E7,5.185229E7,0E0,0E0,0E0,0E0,0E0,0E0,0E0,0E0,0E0,0E0,0E0,0E0,0E0,0E0,0E0,0E0,0E0],"parents":[2147483647,0,0,1,1,2,2,3,3,4,4,5,5,6,6,7,7,8,8,9,9,10,10,11,11,12,12,16,16,17,17,18,18,20,20,21,21,22,22,23,23],"right_children":[2,4,6,8,10,12,14,16,18,20,22,24,26,-1,-1,-1,28,30,32,-1,34,36,38,40,-1,-1,-1,-1,-1,-1,-1,-1,-1,-1,-1,-1,-1,-1,-1,-1,-1],"split_conditions":[2.145E3,1.503E2,1.503E2,8.9E2,8.9E2,3.02E3,3.02E3,5.6E2,1.09E3,5.6E2,1.09E3,1.67E1,-9.4E0,7.0806305E2,1.175393E3,-2.6243542E2,6.8E2,-3.8E0,2.92E1,-1.9545409E2,6.8E2,1.86E1,2.999E2,-1.51E1,2.9380127E2,4.4622177E2,5.333703E2,-1.8957599E2,-1.4739154E2,-1.1068139E2,-8.403999E1,-4.955109E1,-1.1976871E1,-7.0086174E1,3.9103067E0,9.532977E1,1.3299901E2,-3.9970703E0,1.8376247E2,1.92174E2,2.497747E2],"split_indices":[0,1,1,0,0,0,0,0,0,0,0,2,2,0,0,0,0,2,2,0,0,2,1,2,0,0,0,0,0,0,0,0,0,0,0,0,0,0,0,0,0],"split_type":[0,0,0,0,0,0,0,0,0,0,0,0,0,0,0,0,0,0,0,0,0,0,0,0,0,0,0,0,0,0,0,0,0,0,0,0,0,0,0,0,0],"sum_hessian":[9.14E3,7.33E3,1.81E3,5.864E3,1.466E3,1.454E3,3.56E2,4.471E3,1.393E3,1.104E3,3.62E2,7.14E2,7.4E2,1.78E2,1.78E2,7.71E2,3.7E3,7.15E2,6.78E2,1.79E2,9.25E2,1.72E2,1.9E2,4.67E2,2.47E2,8.3E1,6.57E2,1.535E3,2.165E3,1.88E2,5.27E2,6.04E2,7.4E1,3.53E2,5.72E2,1.19E2,5.3E1,1E0,1.89E2,6.5E1,4.02E2],"tree_param":{"num_deleted":"0","num_feature":"8","num_nodes":"41","size_leaf_vector":"1"}},{"base_weights":[3.263441E1,9.628605E3,-2.3604492E3,1.806114E4,7.495019E3,-3.627848E1,-2.9333523E3,1.1196112E3,6.718612E2,9.947654E3,4.9286743E3,2.8226062E3,-9.3891425E2,-1.2956805E3,-3.4575435E3,5.430821E2,4.8092407E2,2.828894E2,4.6548955E3,1.752705E2,2.0212229E3,-4.4370914E2,-1.8597664E2,-8.638251E2,-1.7155398E3,-3.1413416E3,-2.494052E2,2.1872581E2,2.4399962E2,8.5981255E1,1.12169716E2,5.400043E0,-6.52034E1,-2.996412E1,-5.6829945E1,-6.7092636E1,-9.165345E1,-1.4037843E2,-1.8040054E2],"categories":[0,1,4,5,6,7,0,1,2,3,0,1,2,3,0,1,2,4,5,6,7,0,1,2,4,5,6,7,0,1,2,4,5,7,0,1,2,4,5,7,0,2,3,4,0,2,3,4,0,1,2,4,5,6,7,4,6,4,0,2,0,2,0,2,3,0,2],"categories_nodes":[0,1,2,3,4,5,6,9,10,11,12,13,14,21,23,24,25],"categories_segments":[0,6,10,14,21,28,34,40,44,48,55,56,57,58,60,62,65],"categories_sizes":[6,4,4,7,7,6,6,4,4,7,1,1,1,2,2,3,2],"default_left":[1,1,1,1,1,1,1,0,0,1,1,1,1,1,1,0,0,0,0,0,0,1,0,1,1,1,0,0,0,0,0,0,0,0,0,0,0,0,0],"id":9,"left_children":[1,3,5,7,9,11,13,-1,-1,15,17,19,21,23,25,-1,-1,-1,27,-1,29,31,-1,33,35,37,-1,-1,-1,-1,-1,-1,-1,-1,-1,-1,-1,-1,-1],"loss_changes":[2.0949998E11,3.2627229E10,9.722683E9,7.048864E9,9.109185E9,3.7315182E9,5.024338E9,0E0,0E0,1.1906253E8,1.1598848E8,1.8278886E8,1.5116468E9,2.5635328E8,2.1316813E9,0E0,0E0,0E0,1.1723776E7,0E0,6.997248E6,4.4348134E8,0E0,5.004755E7,2.9162112E7,5.63073E8,0E0,0E0,0E0,0E0,0E0,0E0,0E0,0E0,0E0,0E0,0E0,0E0,0E0],"parents":[2147483647,0,0,1,1,2,2,3,3,4,4,5,5,6,6,9,9,10,10,11,11,12,12,13,13,14,14,18,18,20,20,21,21,23,23,24,24,25,25],"right_children":[2,4,6,8,10,12,14,-1,-1,16,18,20,22,24,26,-1,-1,-1,28,-1,30,32,-1,34,36,38,-1,-1,-1,-1,-1,-1,-1,-1,-1,-1,-1,-1,-1],"split_conditions":[1E-45,1E-45,1E-45,1E-45,1E-45,1E-45,1E-45,1.1196112E3,6.718612E2,1E-45,1E-45,1E-45,1E-45,1E-45,1E-45,5.430821E2,4.8092407E2,2.828894E2,3E0,1.752705E2,3E0,1E-45,-1.8597664E2,1E-45,1E-45,1E-45,-2.494052E2,2.1872581E2,2.4399962E2,8.5981255E1,1.12169716E2,5.400043E0,-6.52034E1,-2.996412E1,-5.6829945E1,-6.7092636E1,-9.165345E1,-1.4037843E2,-1.8040054E2],"split_indices":[6,7,7,6,6,5,5,0,0,7,7,5,5,5,5,0,0,0,3,0,3,5,0,7,7,5,0,0,0,0,0,0,0,0,0,0,0,0,0],"split_type":[1,1,1,1,1,1,1,0,0,1,1,1,1,1,1,0,0,0,0,0,0,1,0,1,1,1,0,0,0,0,0,0,0,0,0,0,0,0,0],"sum_hessian":[9.121E3,1.82E3,7.301E3,3.66E2,1.454E3,1.444E3,5.857E3,1.87E2,1.79E2,7.42E2,7.12E2,3.46E2,1.098E3,1.421E3,4.436E3,1.88E2,5.54E2,1.89E2,5.23E2,1.85E2,1.61E2,9.33E2,1.65E2,7.02E2,7.19E2,3.679E3,7.57E2,2.42E2,2.81E2,7.2E1,8.9E1,5.69E2,3.64E2,3.58E2,3.44E2,1.75E2,5.44E2,2.149E3,1.53E3],"tree_param":{"num_deleted":"0","num_feature":"8","num_nodes":"39","size_leaf_vector":"1"}},{"base_weights":[1.9961351E1,-2.2417744E3,9.10903E3,-4.152605E1,-2.7937996E3,1.7247922E4,7.1248955E3,-9.185231E2,2.6699717E3,-3.273667E3,-1.2295912E3,6.495015E2,1.0681342E3,4.6840474E3,9.452252E3,-1.7671086E2,-4.5303134E2,1.960976E3,1.6801495E2,-2.3702734E2,-2.985907E3,-1.6270776E3,-8.2508734E2,5.147866E3,4.2124146E3,4.9792017E2,4.4604816E2,-6.369925E1,3.8264554E0,8.227907E1,1.10990234E2,-1.7153343E2,-1.3341537E2,-6.3035065E1,-8.731573E1,-2.8346598E1,-5.4421974E1,2.6908957E2,2.4070515E2,1.9619322E2,2.2183894E2],"categories":[0,1,2,3,0,1,2,3,0,2,4,0,2,4,0,2,3,0,2,0,2,3,4],"categories_nodes":[1,2,13,14,21,22,23],"categories_segments":[0,4,8,11,14,17,19],"categories_sizes":[4,4,3,3,3,2,4],"default_left":[0,1,1,0,0,0,0,0,0,0,0,0,0,1,1,0,0,0,0,0,0,1,1,1,0,0,0,0,0,0,0,0,0,0,0,0,0,0,0,0,0],"id":10,"left_children":[1,3,5,7,9,11,13,15,17,19,21,-1,-1,23,25,-1,27,29,-1,-1,31,33,35,37,39,-1,-1,-1,-1,-1,-1,-1,-1,-1,-1,-1,-1,-1,-1,-1,-1],"loss_changes":[1.8828208E11,8.90771E9,2.9348397E10,3.5028324E9,4.39681E9,5.977211E9,8.300708E9,1.3535699E9,1.696087E8,1.8794291E9,2.2021888E8,0E0,0E0,1.3559706E8,1.1311514E8,0E0,4.1136586E8,1.1041088E7,0E0,0E0,5.2098253E8,2.8116224E7,4.5953184E7,2.04288E6,6.026752E6,0E0,0E0,0E0,0E0,0E0,0E0,0E0,0E0,0E0,0E0,0E0,0E0,0E0,0E0,0E0,0E0],"parents":[2147483647,0,0,1,1,2,2,3,3,4,4,5,5,6,6,7,7,8,8,9,9,10,10,13,13,14,14,16,16,17,17,20,20,21,21,22,22,23,23,24,24],"right_children":[2,4,6,8,10,12,14,16,18,20,22,-1,-1,24,26,-1,28,30,-1,-1,32,34,36,38,40,-1,-1,-1,-1,-1,-1,-1,-1,-1,-1,-1,-1,-1,-1,-1,-1],"split_conditions":[2.145E3,1E-45,1E-45,8.9E2,8.9E2,3.02E3,3.02E3,5.6E2,1.09E3,5.6E2,1.09E3,6.495015E2,1.0681342E3,1E-45,1E-45,-1.7671086E2,6.8E2,3E0,1.6801495E2,-2.3702734E2,6.8E2,1E-45,1E-45,1E-45,3E0,4.9792017E2,4.4604816E2,-6.369925E1,3.8264554E0,8.227907E1,1.10990234E2,-1.7153343E2,-1.3341537E2,-6.3035065E1,-8.731573E1,-2.8346598E1,-5.4421974E1,2.6908957E2,2.4070515E2,1.9619322E2,2.2183894E2],"split_indices":[0,7,7,0,0,0,0,0,0,0,0,0,0,7,7,0,0,3,0,0,0,7,7,7,3,0,0,0,0,0,0,0,0,0,0,0,0,0,0,0,0],"split_type":[0,1,1,0,0,0,0,0,0,0,0,0,0,1,1,0,0,0,0,0,0,1,1,1,0,0,0,0,0,0,0,0,0,0,0,0,0,0,0,0,0],"sum_hessian":[9.157E3,7.333E3,1.824E3,1.471E3,5.862E3,3.56E2,1.468E3,1.112E3,3.59E2,4.485E3,1.377E3,1.77E2,1.79E2,7.18E2,7.5E2,1.67E2,9.45E2,1.79E2,1.8E2,7.33E2,3.752E3,6.93E2,6.84E2,3.57E2,3.61E2,3.75E2,3.75E2,3.7E2,5.75E2,8.4E1,9.5E1,1.559E3,2.193E3,1.73E2,5.2E2,3.47E2,3.37E2,2.01E2,1.56E2,1.66E2,1.95E2],"tree_param":{"num_deleted":"0","num_feature":"8","num_nodes":"41","size_leaf_vector":"1"}},{"base_weights":[4.0853605E0,-2.1515767E3,8.811741E3,-4.2135433E1,-2.6502998E3,1.6586244E4,6.8377427E3,-8.7141583E2,2.5055737E3,-3.1173489E3,-1.164608E3,6.1535516E2,1.0106562E3,4.4948286E3,8.987488E3,-1.6771526E2,-4.2923422E2,1.831159E3,1.5789816E2,-2.2511319E2,-2.8261807E3,-1.541991E3,-7.704899E2,4.0580444E3,5.0421914E3,8.454171E3,4.7284497E2,-6.0242603E1,2.7193468E0,7.2305145E1,1.0192724E2,-1.6245207E2,-1.2651289E2,-8.137767E1,-5.0003887E1,-4.510321E1,-1.9087664E1,2.372169E2,1.8857426E2,2.679835E2,2.3320421E2,4.5247043E2,3.884904E2],"categories":[0,1,2,3,0,1,2,3,0,2,3,4,0,2,4,0,2,4],"categories_nodes":[1,2,23,24,25],"categories_segments":[0,4,8,12,15],"categories_sizes":[4,4,4,3,3],"default_left":[0,1,1,0,0,0,0,0,0,0,0,0,0,0,0,0,0,0,0,0,0,0,0,1,1,1,0,0,0,0,0,0,0,0,0,0,0,0,0,0,0,0,0],"id":11,"left_children":[1,3,5,7,9,11,13,15,17,19,21,-1,-1,23,25,-1,27,29,-1,-1,31,33,35,37,39,41,-1,-1,-1,-1,-1,-1,-1,-1,-1,-1,-1,-1,-1,-1,-1,-1,-1],"loss_changes":[1.7438941E11,7.7627965E9,2.760301E10,2.9854083E9,4.137513E9,5.4160097E9,7.2224727E9,1.1689088E9,1.468905E8,1.8179973E9,2.1135206E8,0E0,0E0,1.4497997E8,1.0806477E8,0E0,3.3991085E8,1.0867008E7,0E0,0E0,4.6153114E8,3.217408E7,3.5510176E7,5.880627E7,1.1374592E7,7.674061E7,0E0,0E0,0E0,0E0,0E0,0E0,0E0,0E0,0E0,0E0,0E0,0E0,0E0,0E0,0E0,0E0,0E0],"parents":[2147483647,0,0,1,1,2,2,3,3,4,4,5,5,6,6,7,7,8,8,9,9,10,10,13,13,14,14,16,16,17,17,20,20,21,21,22,22,23,23,24,24,25,25],"right_children":[2,4,6,8,10,12,14,16,18,20,22,-1,-1,24,26,-1,28,30,-1,-1,32,34,36,38,40,42,-1,-1,-1,-1,-1,-1,-1,-1,-1,-1,-1,-1,-1,-1,-1,-1,-1],"split_conditions":[2.145E3,1E-45,1E-45,8.9E2,8.9E2,3.02E3,3.02E3,5.6E2,1.09E3,5.6E2,1.09E3,6.1535516E2,1.0106562E3,1.21E1,1.46E1,-1.6771526E2,6.8E2,9E-1,1.5789816E2,-2.2511319E2,6.8E2,2.83E1,1.99E1,1E-45,1E-45,1E-45,4.7284497E2,-6.0242603E1,2.7193468E0,7.2305145E1,1.0192724E2,-1.6245207E2,-1.2651289E2,-8.137767E1,-5.0003887E1,-4.510321E1,-1.9087664E1,2.372169E2,1.8857426E2,2.679835E2,2.3320421E2,4.5247043E2,3.884904E2],"split_indices":[0,7,7,0,0,0,0,0,0,0,0,0,0,2,2,0,0,2,0,0,0,2,2,7,7,7,0,0,0,0,0,0,0,0,0,0,0,0,0,0,0,0,0],"split_type":[0,1,1,0,0,0,0,0,0,0,0,0,0,0,0,0,0,0,0,0,0,0,0,1,1,1,0,0,0,0,0,0,0,0,0,0,0,0,0,0,0,0,0],"sum_hessian":[9.183E3,7.378E3,1.805E3,1.411E3,5.967E3,3.64E2,1.441E3,1.065E3,3.46E2,4.539E3,1.428E3,1.69E2,1.95E2,6.91E2,7.5E2,1.6E2,9.05E2,1.72E2,1.74E2,7.86E2,3.753E3,7.28E2,7E2,3.89E2,3.02E2,3.6E2,3.9E2,3.47E2,5.58E2,6.3E1,1.09E2,1.541E3,2.212E3,6.27E2,1.01E2,5.22E2,1.78E2,1.1E2,2.79E2,1.57E2,1.45E2,1.86E2,1.74E2],"tree_param":{"num_deleted":"0","num_feature":"8","num_nodes":"43","size_leaf_vector":"1"}},{"base_weights":[-2.7490454E1,-2.0347621E3,8.299442E3,-2.9455862E3,-1.0999763E3,5.75587E3,1.0747141E4,-2.0403012E2,-2.551122E3,-1.7400219E3,-4.1851782E2,4.96445E3,5.989565E3,9.929092E3,1.1323916E4,-2.7174758E3,-2.1869346E3,-2.1226213E3,-1.5801135E3,-8.55277E2,8.007276E0,1.9554656E3,5.0604673E3,6.4841025E3,5.817486E3,4.0580978E2,5.0911847E2,1.2053566E4,1.0938497E4,-1.4333421E2,-1.24455894E2,-1.16041626E2,-9.144796E1,-1.1826861E2,-1.02674255E2,-8.4187645E1,-6.60609E1,-4.804799E1,-1.4157013E1,-1.6495642E1,1.0676288E1,2.3791723E1,1.0494325E2,2.9707858E2,2.4147083E2,2.6623264E2,3.4003604E2,2.7258002E2,3.1869846E2,5.3695703E2,6.3758417E2,4.962923E2,5.8456635E2],"categories":[],"categories_nodes":[],"categories_segments":[],"categories_sizes":[],"default_left":[0,0,0,0,0,0,0,0,0,0,0,0,0,0,0,0,0,0,0,0,0,0,0,0,0,0,0,0,0,0,0,0,0,0,0,0,0,0,0,0,0,0,0,0,0,0,0,0,0,0,0,0,0],"id":12,"left_children":[1,3,5,7,9,11,13,-1,15,17,19,21,23,25,27,29,31,33,35,37,39,41,43,45,47,-1,-1,49,51,-1,-1,-1,-1,-1,-1,-1,-1,-1,-1,-1,-1,-1,-1,-1,-1,-1,-1,-1,-1,-1,-1,-1,-1],"loss_changes":[1.5368924E11,6.3049687E9,1.1057594E10,1.6694497E9,1.5947612E9,1.3265101E8,3.1645696E8,0E0,1.6290406E8,1.1203277E8,3.3029683E8,4.962099E7,1.9552256E7,9.367552E7,1.6072704E7,5.791027E7,3.7887744E7,4.42368E6,3.356877E7,5.269523E7,6.243548E7,6.98714E5,1.1818496E7,2.4359936E7,6.888858E7,0E0,0E0,2.0891648E7,1.5459123E8,0E0,0E0,0E0,0E0,0E0,0E0,0E0,0E0,0E0,0E0,0E0,0E0,0E0,0E0,0E0,0E0,0E0,0E0,0E0,0E0,0E0,0E0,0E0,0E0],"parents":[2147483647,0,0,1,1,2,2,3,3,4,4,5,5,6,6,8,8,9,9,10,10,11,11,12,12,13,13,14,14,15,15,16,16,17,17,18,18,19,19,20,20,21,21,22,22,23,23,24,24,27,27,28,28],"right_children":[2,4,6,8,10,12,14,-1,16,18,20,22,24,26,28,30,32,34,36,38,40,42,44,46,48,-1,-1,50,52,-1,-1,-1,-1,-1,-1,-1,-1,-1,-1,-1,-1,-1,-1,-1,-1,-1,-1,-1,-1,-1,-1,-1,-1],"split_conditions":[2.145E3,7.2E2,3.02E3,5.6E2,8.9E2,-4.1E0,1.25E1,-2.0403012E2,6.8E2,-8E-1,1.09E3,-3.49E1,2E0,-1.58E1,2E0,1.27E1,1.8E1,-1.97E1,2.29E1,2.66E1,2.7E0,1E0,1E0,5.3E0,8E0,4.0580978E2,5.0911847E2,3E0,3E0,-1.4333421E2,-1.24455894E2,-1.16041626E2,-9.144796E1,-1.1826861E2,-1.02674255E2,-8.4187645E1,-6.60609E1,-4.804799E1,-1.4157013E1,-1.6495642E1,1.0676288E1,2.3791723E1,1.0494325E2,2.9707858E2,2.4147083E2,2.6623264E2,3.4003604E2,2.7258002E2,3.1869846E2,5.3695703E2,6.3758417E2,4.962923E2,5.8456635E2],"split_indices":[0,0,0,0,0,2,2,0,0,2,0,2,3,2,3,2,2,2,2,2,2,4,4,2,3,0,0,4,3,0,0,0,0,0,0,0,0,0,0,0,0,0,0,0,0,0,0,0,0,0,0,0,0],"split_type":[0,0,0,0,0,0,0,0,0,0,0,0,0,0,0,0,0,0,0,0,0,0,0,0,0,0,0,0,0,0,0,0,0,0,0,0,0,0,0,0,0,0,0,0,0,0,0,0,0,0,0,0,0],"sum_hessian":[9.193E3,7.408E3,1.785E3,3.751E3,3.657E3,8.77E2,9.08E2,9.65E2,2.786E3,1.885E3,1.772E3,2.05E2,6.72E2,3.83E2,5.25E2,1.908E3,8.78E2,5.52E2,1.333E3,8.75E2,8.97E2,7E0,1.98E2,1.64E2,5.08E2,5.1E1,3.32E2,1.71E2,3.54E2,1.147E3,7.61E2,6.35E2,2.43E2,1.15E2,4.37E2,9.48E2,3.85E2,7.38E2,1.37E2,3.39E2,5.58E2,1E0,6E0,3.6E1,1.62E2,3.9E1,1.25E2,3.13E2,1.95E2,6.5E1,1.06E2,1.57E2,1.97E2],"tree_param":{"num_deleted":"0","num_feature":"8","num_nodes":"53","size_leaf_vector":"1"}},{"base_weights":[-1.5814135E1,-1.9349862E3,7.922295E3,-2.4071807E3,5.1726437E1,6.086005E3,1.5322886E4,-2.8201353E3,-1.0891976E3,-7.1174426E2,2.4466033E3,3.9994885E3,8.0072915E3,5.6971643E2,9.3269403E2,-2.0381178E2,-2.565241E3,-1.4273569E3,-7.354283E2,-1.4971133E2,-2.8315137E2,1.8677426E3,2.9789373E3,3.6786055E3,4.6609087E3,7.651194E3,4.2850348E2,-1.4718883E2,-1.1507462E2,-7.861358E1,-5.615031E1,-5.9013607E1,-3.0523544E1,-5.0626507E1,9.171244E0,5.7849316E1,9.7828674E1,9.1949715E1,1.5180927E2,1.5019737E2,1.938756E2,2.1257909E2,2.5006152E2,2.4587419E2,3.850234E2],"categories":[],"categories_nodes":[],"categories_segments":[],"categories_sizes":[],"default_left":[0,0,0,0,0,0,0,0,0,0,0,0,0,0,0,0,0,0,0,0,0,0,0,0,0,0,0,0,0,0,0,0,0,0,0,0,0,0,0,0,0,0,0,0,0],"id":13,"left_children":[1,3,5,7,9,11,13,15,17,19,21,23,25,-1,-1,-1,27,29,31,-1,33,35,37,39,41,43,-1,-1,-1,-1,-1,-1,-1,-1,-1,-1,-1,-1,-1,-1,-1,-1,-1,-1,-1],"loss_changes":[1.3959471E11,6.9224714E9,2.4150639E10,3.2418488E9,2.5944387E9,5.7045647E9,4.4198953E9,1.4428119E9,1.6930394E8,1.05175526E9,1.0013056E8,1.288745E8,8.352973E7,0E0,0E0,0E0,3.7021286E8,3.0298624E7,3.807888E7,0E0,3.088476E8,8.280192E6,5.967488E6,5.1154944E7,9.5232E6,2.4768512E7,0E0,0E0,0E0,0E0,0E0,0E0,0E0,0E0,0E0,0E0,0E0,0E0,0E0,0E0,0E0,0E0,0E0,0E0,0E0],"parents":[2147483647,0,0,1,1,2,2,3,3,4,4,5,5,6,6,7,7,8,8,9,9,10,10,11,11,12,12,16,16,17,17,18,18,20,20,21,21,22,22,23,23,24,24,25,25],"right_children":[2,4,6,8,10,12,14,16,18,20,22,24,26,-1,-1,-1,28,30,32,-1,34,36,38,40,42,44,-1,-1,-1,-1,-1,-1,-1,-1,-1,-1,-1,-1,-1,-1,-1,-1,-1,-1,-1],"split_conditions":[2.145E3,2.999E2,1.503E2,8.9E2,8.9E2,3.02E3,3.02E3,5.6E2,1.09E3,5.6E2,1.09E3,1.91E1,2.12E1,5.6971643E2,9.3269403E2,-2.0381178E2,6.8E2,1.72E1,-5.1E0,-1.4971133E2,6.8E2,-1.21E1,-1.97E1,-8E0,3E0,-2.66E1,4.2850348E2,-1.4718883E2,-1.1507462E2,-7.861358E1,-5.615031E1,-5.9013607E1,-3.0523544E1,-5.0626507E1,9.171244E0,5.7849316E1,9.7828674E1,9.1949715E1,1.5180927E2,1.5019737E2,1.938756E2,2.1257909E2,2.5006152E2,2.4587419E2,3.850234E2],"split_indices":[0,1,1,0,0,0,0,0,0,0,0,2,2,0,0,0,0,2,2,0,0,2,2,2,3,2,0,0,0,0,0,0,0,0,0,0,0,0,0,0,0,0,0,0,0],"split_type":[0,0,0,0,0,0,0,0,0,0,0,0,0,0,0,0,0,0,0,0,0,0,0,0,0,0,0,0,0,0,0,0,0,0,0,0,0,0,0,0,0,0,0,0,0],"sum_hessian":[9.161E3,7.378E3,1.783E3,5.961E3,1.417E3,1.43E3,3.53E2,4.538E3,1.423E3,1.075E3,3.42E2,6.87E2,7.43E2,1.64E2,1.89E2,7.63E2,3.775E3,7.26E2,6.97E2,1.69E2,9.06E2,1.66E2,1.76E2,4.67E2,2.2E2,4.64E2,2.79E2,1.546E3,2.229E3,4.89E2,2.37E2,1.51E2,5.46E2,3.53E2,5.53E2,2E1,1.46E2,1E1,1.66E2,1.1E2,3.57E2,1.06E2,1.14E2,1E1,4.54E2],"tree_param":{"num_deleted":"0","num_feature":"8","num_nodes":"45","size_leaf_vector":"1"}},{"base_weights":[-6.3081903E0,-1.8302539E3,7.515194E3,-2.2908848E3,2.6598005E1,5.724093E3,1.4502948E4,-2.6947627E3,-1.0344985E3,-6.779482E2,2.2572551E3,3.7340857E3,7.5648457E3,5.376527E2,8.9324084E2,-1.9359381E2,-2.4472402E3,-1.3596953E3,-7.010672E2,-1.4218964E2,-2.7826318E2,1.6839977E3,2.7990386E3,2.7853792E3,3.9242632E3,3.422583E2,7.8438755E3,-1.4042078E2,-1.0955572E2,-8.3521324E1,-6.1071575E1,-5.480482E1,-2.9153732E1,-4.8703407E1,8.16848E0,7.52635E1,1.05035576E2,-1.424043E1,1.4175432E2,8.963945E1,1.4503252E2,1.8615599E2,2.2913033E2,3.7946326E2,4.230778E2],"categories":[],"categories_nodes":[],"categories_segments":[],"categories_sizes":[],"default_left":[0,0,0,0,0,0,0,0,0,0,0,0,0,0,0,0,0,0,0,0,0,0,0,0,0,0,0,0,0,0,0,0,0,0,0,0,0,0,0,0,0,0,0,0,0],"id":14,"left_children":[1,3,5,7,9,11,13,15,17,19,21,23,25,-1,-1,-1,27,29,31,-1,33,35,37,39,41,-1,43,-1,-1,-1,-1,-1,-1,-1,-1,-1,-1,-1,-1,-1,-1,-1,-1,-1,-1],"loss_changes":[1.2666582E11,6.35597E9,2.247041E10,3.0184305E9,2.3243566E9,5.2319764E9,4.4345426E9,1.3031096E9,1.5627149E8,9.722056E8,1.0554278E8,1.1392205E8,9.591603E7,0E0,0E0,0E0,3.38432E8,2.9451392E7,3.2827264E7,0E0,2.920849E8,9.871552E6,2.0928256E7,8.41536E6,5.894861E7,0E0,1.9132416E7,0E0,0E0,0E0,0E0,0E0,0E0,0E0,0E0,0E0,0E0,0E0,0E0,0E0,0E0,0E0,0E0,0E0,0E0],"parents":[2147483647,0,0,1,1,2,2,3,3,4,4,5,5,6,6,7,7,8,8,9,9,10,10,11,11,12,12,16,16,17,17,18,18,20,20,21,21,22,22,23,23,24,24,26,26],"right_children":[2,4,6,8,10,12,14,16,18,20,22,24,26,-1,-1,-1,28,30,32,-1,34,36,38,40,42,-1,44,-1,-1,-1,-1,-1,-1,-1,-1,-1,-1,-1,-1,-1,-1,-1,-1,-1,-1],"split_conditions":[2.145E3,1.503E2,1.503E2,8.9E2,8.9E2,3.02E3,3.02E3,5.6E2,1.09E3,5.6E2,1.09E3,-8E0,4.7E0,5.376527E2,8.9324084E2,-1.9359381E2,6.8E2,-8E-1,-5.1E0,-1.4218964E2,6.8E2,1.86E1,2.999E2,-3E1,2.64E1,3.422583E2,1.329E2,-1.4042078E2,-1.0955572E2,-8.3521324E1,-6.1071575E1,-5.480482E1,-2.9153732E1,-4.8703407E1,8.16848E0,7.52635E1,1.05035576E2,-1.424043E1,1.4175432E2,8.963945E1,1.4503252E2,1.8615599E2,2.2913033E2,3.7946326E2,4.230778E2],"split_indices":[0,1,1,0,0,0,0,0,0,0,0,2,2,0,0,0,0,2,2,0,0,2,1,2,2,0,1,0,0,0,0,0,0,0,0,0,0,0,0,0,0,0,0,0,0],"split_type":[0,0,0,0,0,0,0,0,0,0,0,0,0,0,0,0,0,0,0,0,0,0,0,0,0,0,0,0,0,0,0,0,0,0,0,0,0,0,0,0,0,0,0,0,0],"sum_hessian":[9.231E3,7.43E3,1.801E3,5.953E3,1.477E3,1.435E3,3.66E2,4.504E3,1.449E3,1.123E3,3.54E2,6.91E2,7.44E2,1.75E2,1.91E2,7.8E2,3.724E3,7.32E2,7.17E2,1.74E2,9.49E2,1.74E2,1.8E2,1.18E2,5.73E2,2.15E2,5.29E2,1.541E3,2.183E3,2.22E2,5.1E2,1.63E2,5.54E2,3.68E2,5.81E2,1.25E2,4.9E1,2E0,1.78E2,1.4E1,1.04E2,4.44E2,1.29E2,3.84E2,1.45E2],"tree_param":{"num_deleted":"0","num_feature":"8","num_nodes":"45","size_leaf_vector":"1"}},{"base_weights":[-2.3454659E1,7.1214595E3,-1.7569939E3,1.3765657E4,5.456589E3,1.9418466E0,-2.1909902E3,8.4381866E2,5.160856E2,7.2045312E3,3.6105366E3,2.158068E3,-6.6640094E2,-1.4932479E3,-2.8391877E3,4.0155966E2,6.9128423E3,2.8572065E3,3.827864E3,2.6452441E3,1.6410034E3,-2.92051E2,-1.3493767E2,-9.8312964E2,-1.9809227E3,-2.5462578E3,-1.8427934E2,2.9243954E2,3.5669684E2,1.5867627E2,1.24199E2,2.1105296E2,1.7049658E2,7.573089E1,1.3485533E2,6.39023E1,9.411466E1,6.704316E0,-4.6495857E1,-3.2694E1,-6.49237E1,-1.1462423E2,-9.272856E1,-1.1489327E2,-1.3323729E2],"categories":[0,1,4,5,6,7,0,1,2,3,0,1,2,3,0,1,2,4,5,6,7,0,1,2,4,5,6,7,0,1,2,4,5,7,0,2,4,7,0,2,3,4,0,1,2,4,5,6,7,4,1,5,4,0,2,4,0,2,4,0,2,6,0,2],"categories_nodes":[0,1,2,3,4,5,6,9,11,12,13,14,17,18,21,23,25],"categories_segments":[0,6,10,14,21,28,34,38,42,49,50,52,53,56,59,61,62],"categories_sizes":[6,4,4,7,7,6,4,4,7,1,2,1,3,3,2,1,2],"default_left":[1,1,1,1,1,1,1,0,0,1,0,1,1,1,1,0,0,1,1,0,0,1,0,1,0,1,0,0,0,0,0,0,0,0,0,0,0,0,0,0,0,0,0,0,0],"id":15,"left_children":[1,3,5,7,9,11,13,-1,-1,15,17,19,21,23,25,-1,27,29,31,33,35,37,-1,39,41,43,-1,-1,-1,-1,-1,-1,-1,-1,-1,-1,-1,-1,-1,-1,-1,-1,-1,-1,-1],"loss_changes":[1.1323284E11,1.9670073E10,5.616132E9,3.6503962E9,4.585079E9,2.101021E9,2.6646323E9,0E0,0E0,1.2122522E8,1.0317517E8,8.256538E7,8.4599443E8,7.0555955E8,7.488041E8,0E0,8.742912E7,1.1006336E7,7.401574E7,6.235008E6,1.2482592E7,2.5590597E8,0E0,1.4367808E8,5.294797E7,6.083277E7,0E0,0E0,0E0,0E0,0E0,0E0,0E0,0E0,0E0,0E0,0E0,0E0,0E0,0E0,0E0,0E0,0E0,0E0,0E0],"parents":[2147483647,0,0,1,1,2,2,3,3,4,4,5,5,6,6,9,9,10,10,11,11,12,12,13,13,14,14,16,16,17,17,18,18,19,19,20,20,21,21,23,23,24,24,25,25],"right_children":[2,4,6,8,10,12,14,-1,-1,16,18,20,22,24,26,-1,28,30,32,34,36,38,-1,40,42,44,-1,-1,-1,-1,-1,-1,-1,-1,-1,-1,-1,-1,-1,-1,-1,-1,-1,-1,-1],"split_conditions":[1E-45,1E-45,1E-45,1E-45,1E-45,1E-45,1E-45,8.4381866E2,5.160856E2,1E-45,-4.3E0,1E-45,1E-45,1E-45,1E-45,4.0155966E2,-4.1E0,1E-45,1E-45,-2.1E1,1.8E0,1E-45,-1.3493767E2,1E-45,-2E0,1E-45,-1.8427934E2,2.9243954E2,3.5669684E2,1.5867627E2,1.24199E2,2.1105296E2,1.7049658E2,7.573089E1,1.3485533E2,6.39023E1,9.411466E1,6.704316E0,-4.6495857E1,-3.2694E1,-6.49237E1,-1.1462423E2,-9.272856E1,-1.1489327E2,-1.3323729E2],"split_indices":[6,7,7,6,6,5,5,0,0,7,2,5,5,5,5,0,2,7,7,2,2,5,0,5,2,5,0,0,0,0,0,0,0,0,0,0,0,0,0,0,0,0,0,0,0],"split_type":[1,1,1,1,1,1,1,0,0,1,0,1,1,1,1,0,0,1,1,0,0,1,0,1,0,1,0,0,0,0,0,0,0,0,0,0,0,0,0,0,0,0,0,0,0],"sum_hessian":[9.14E3,1.784E3,7.356E3,3.56E2,1.428E3,1.456E3,5.9E3,1.85E2,1.71E2,7.32E2,6.96E2,3.44E2,1.112E3,2.843E3,3.057E3,1.84E2,5.48E2,1.59E2,5.37E2,1.75E2,1.69E2,9.4E2,1.72E2,1.391E3,1.452E3,2.274E3,7.83E2,9.9E1,4.49E2,8.2E1,7.7E1,2.72E2,2.65E2,9E0,1.66E2,7E1,9.9E1,5.64E2,3.76E2,6.82E2,7.09E2,4.14E2,1.038E3,7.41E2,1.533E3],"tree_param":{"num_deleted":"0","num_feature":"8","num_nodes":"45","size_leaf_vector":"1"}},{"base_weights":[7.1749816E0,-1.6461661E3,6.779827E3,6.871062E1,-2.0692615E3,1.2931885E4,5.2071987E3,-5.990225E2,2.075371E3,-2.4279602E3,-9.398694E2,4.8622696E2,7.9835834E2,3.4307256E3,6.8830107E3,-1.2800945E2,-2.4276056E2,1.5343232E3,2.568477E3,-1.747001E2,-2.2105715E3,-1.2450286E3,-6.3125684E2,3.1483083E3,4.0629849E3,7.3379565E3,6.3770684E3,-4.16943E1,6.7910075E0,4.5585934E1,8.177444E1,8.843431E1,1.3062296E2,-1.2641341E2,-9.924363E1,-6.8424706E1,-4.6222683E1,-1.9825811E1,-4.3919228E1,1.8741634E2,1.4591393E2,2.1703197E2,1.8529147E2,3.5828317E2,4.183062E2,2.8409192E2,3.4172473E2],"categories":[0,1,2,3,0,1,2,3,0,2,4,0,2,0,2,3,4,0,2,4],"categories_nodes":[1,2,14,22,23,24],"categories_segments":[0,4,8,11,13,17],"categories_sizes":[4,4,3,2,4,3],"default_left":[0,1,1,0,0,0,0,0,0,0,0,0,0,0,1,0,0,0,0,0,0,0,1,1,1,0,0,0,0,0,0,0,0,0,0,0,0,0,0,0,0,0,0,0,0,0,0],"id":16,"left_children":[1,3,5,7,9,11,13,15,17,19,21,-1,-1,23,25,-1,27,29,31,-1,33,35,37,39,41,43,45,-1,-1,-1,-1,-1,-1,-1,-1,-1,-1,-1,-1,-1,-1,-1,-1,-1,-1,-1,-1],"loss_changes":[1.030618E11,5.367808E9,1.7405526E10,1.9642167E9,2.4016507E9,3.4175468E9,4.2633175E9,7.679365E8,9.370586E7,1.03582515E9,1.3407398E8,0E0,0E0,1.1237939E8,1.2353536E8,0E0,2.086843E8,9.657408E6,2.062848E6,0E0,2.633687E8,2.719296E7,4.107152E7,5.6553984E7,5.036544E6,7.899136E6,7.501722E7,0E0,0E0,0E0,0E0,0E0,0E0,0E0,0E0,0E0,0E0,0E0,0E0,0E0,0E0,0E0,0E0,0E0,0E0,0E0,0E0],"parents":[2147483647,0,0,1,1,2,2,3,3,4,4,5,5,6,6,7,7,8,8,9,9,10,10,13,13,14,14,16,16,17,17,18,18,20,20,21,21,22,22,23,23,24,24,25,25,26,26],"right_children":[2,4,6,8,10,12,14,16,18,20,22,-1,-1,24,26,-1,28,30,32,-1,34,36,38,40,42,44,46,-1,-1,-1,-1,-1,-1,-1,-1,-1,-1,-1,-1,-1,-1,-1,-1,-1,-1,-1,-1],"split_conditions":[2.145E3,1E-45,1E-45,8.9E2,8.9E2,3.02E3,3.02E3,5.6E2,1.09E3,5.6E2,1.09E3,4.8622696E2,7.9835834E2,1.91E1,1E-45,-1.2800945E2,6.8E2,-1.21E1,-1.97E1,-1.747001E2,6.8E2,1.89E1,1E-45,1E-45,1E-45,3.61E1,1.19E1,-4.16943E1,6.7910075E0,4.5585934E1,8.177444E1,8.843431E1,1.3062296E2,-1.2641341E2,-9.924363E1,-6.8424706E1,-4.6222683E1,-1.9825811E1,-4.3919228E1,1.8741634E2,1.4591393E2,2.1703197E2,1.8529147E2,3.5828317E2,4.183062E2,2.8409192E2,3.4172473E2],"split_indices":[0,7,7,0,0,0,0,0,0,0,0,0,0,2,7,0,0,2,2,0,0,2,7,7,7,2,2,0,0,0,0,0,0,0,0,0,0,0,0,0,0,0,0,0,0,0,0],"split_type":[0,1,1,0,0,0,0,0,0,0,0,0,0,0,1,0,0,0,0,0,0,0,1,1,1,0,0,0,0,0,0,0,0,0,0,0,0,0,0,0,0,0,0,0,0,0,0],"sum_hessian":[9.202E3,7.397E3,1.805E3,1.464E3,5.933E3,3.66E2,1.439E3,1.099E3,3.65E2,4.502E3,1.431E3,1.8E2,1.86E2,7E2,7.39E2,1.68E2,9.31E2,1.76E2,1.89E2,7.6E2,3.742E3,7.18E2,7.13E2,4.88E2,2.12E2,3.82E2,3.57E2,3.63E2,5.68E2,2.6E1,1.5E2,1.2E1,1.77E2,1.55E3,2.192E3,5.16E2,2.02E2,3.67E2,3.46E2,1.31E2,3.57E2,1.13E2,9.9E1,3.34E2,4.8E1,1.47E2,2.1E2],"tree_param":{"num_deleted":"0","num_feature":"8","num_nodes":"47","size_leaf_vector":"1"}},{"base_weights":[-5.5368295E0,4.2658105E3,-1.7867534E3,8.899056E3,3.0904143E3,-2.881626E2,-2.1445876E3,7.971723E3,1.0313691E4,2.621944E3,4.182834E3,4.3340167E2,-1.3254651E3,-1.7046404E3,-2.710783E3,6.7011226E3,8.916063E3,1.102859E4,8.318806E3,2.0743088E3,3.0038728E3,5.005985E3,3.8342917E3,1.4262521E3,1.1825334E2,-8.275151E2,-1.2214803E2,-1.1616074E3,-1.8794149E3,-2.4012305E3,-1.6619427E2,3.9347104E2,2.7125122E2,4.5114963E2,8.7079155E1,5.5909515E2,2.7043893E2,1.6416368E2,4.3584424E2,6.896413E1,1.2864932E2,1.7084814E2,1.2843416E2,2.1828593E2,2.8652374E2,1.949836E2,5.4512432E1,5.6155304E1,8.323455E1,1.4216804E1,-1.3498843E1,-3.2349438E1,-4.8870235E1,-8.683898E1,-5.463562E1,-1.0146666E2,-8.138576E1,-1.2538393E2,-1.10512505E2],"categories":[0,1,2,4,5,6,7,0,1,2,3,0,1,2,3,0,2,4,0,2,4,0,1,2,3,4,5,7,4,1,5,7,4,0,2,4,7,2],"categories_nodes":[0,1,2,5,6,11,12,13,14,20,24,25],"categories_segments":[0,7,11,15,18,21,28,29,32,33,36,37],"categories_sizes":[7,4,4,3,3,7,1,3,1,3,1,1],"default_left":[1,1,1,0,0,1,1,0,0,0,0,1,1,1,1,0,0,0,0,0,1,0,0,0,1,1,0,0,0,0,0,0,0,0,0,0,0,0,0,0,0,0,0,0,0,0,0,0,0,0,0,0,0,0,0,0,0,0,0],"id":17,"left_children":[1,3,5,7,9,11,13,15,17,19,21,23,25,27,29,31,33,35,37,39,41,43,45,47,49,51,-1,53,55,57,-1,-1,-1,-1,-1,-1,-1,-1,-1,-1,-1,-1,-1,-1,-1,-1,-1,-1,-1,-1,-1,-1,-1,-1,-1,-1,-1,-1,-1],"loss_changes":[6.956935E10,1.4627418E10,3.4597827E9,6.31423E8,1.0883052E9,9.324325E8,1.2929208E9,3.398103E8,2.1059584E8,3.0876058E8,1.6528486E8,2.2980925E8,2.8232794E8,2.7627725E8,4.2397594E8,1.7497395E8,1.2850995E8,7.134413E7,9.165261E7,2.1203251E8,1.5032218E8,6.2189056E7,7.755776E7,1.0924288E7,3.612015E7,8.973584E6,0E0,2.6514432E7,8.039168E7,2.5276416E7,0E0,0E0,0E0,0E0,0E0,0E0,0E0,0E0,0E0,0E0,0E0,0E0,0E0,0E0,0E0,0E0,0E0,0E0,0E0,0E0,0E0,0E0,0E0,0E0,0E0,0E0,0E0,0E0,0E0],"parents":[2147483647,0,0,1,1,2,2,3,3,4,4,5,5,6,6,7,7,8,8,9,9,10,10,11,11,12,12,13,13,14,14,15,15,16,16,17,17,18,18,19,19,20,20,21,21,22,22,23,23,24,24,25,25,27,27,28,28,29,29],"right_children":[2,4,6,8,10,12,14,16,18,20,22,24,26,28,30,32,34,36,38,40,42,44,46,48,50,52,-1,54,56,58,-1,-1,-1,-1,-1,-1,-1,-1,-1,-1,-1,-1,-1,-1,-1,-1,-1,-1,-1,-1,-1,-1,-1,-1,-1,-1,-1,-1,-1],"split_conditions":[1E-45,1E-45,1E-45,1.58E1,2.12E1,1E-45,1E-45,3E0,3.16E1,3E0,2E0,1E-45,1E-45,1E-45,1E-45,2E0,1.52E1,3.435E2,3.04E2,2E0,1E-45,3.16E1,1.442E2,3E0,1E-45,1E-45,-1.2214803E2,-1.47E1,1.41E1,1.46E1,-1.6619427E2,3.9347104E2,2.7125122E2,4.5114963E2,8.7079155E1,5.5909515E2,2.7043893E2,1.6416368E2,4.3584424E2,6.896413E1,1.2864932E2,1.7084814E2,1.2843416E2,2.1828593E2,2.8652374E2,1.949836E2,5.4512432E1,5.6155304E1,8.323455E1,1.4216804E1,-1.3498843E1,-3.2349438E1,-4.8870235E1,-8.683898E1,-5.463562E1,-1.0146666E2,-8.138576E1,-1.2538393E2,-1.10512505E2],"split_indices":[5,7,7,2,2,5,5,3,2,3,3,5,5,5,5,3,2,1,1,2,7,2,1,3,5,5,0,2,2,2,0,0,0,0,0,0,0,0,0,0,0,0,0,0,0,0,0,0,0,0,0,0,0,0,0,0,0,0,0],"split_type":[1,1,1,0,0,1,1,0,0,0,0,1,1,1,1,0,0,0,0,0,1,0,0,0,1,1,0,0,0,0,0,0,0,0,0,0,0,0,0,0,0,0,0,0,0,0,0,0,0,0,0,0,0,0,0,0,0,0,0],"sum_hessian":[9.142E3,2.69E3,6.452E3,5.43E2,2.147E3,1.244E3,5.208E3,3.32E2,2.11E2,1.505E3,6.42E2,7.34E2,5.1E2,2.933E3,2.275E3,1.45E2,1.87E2,1.52E2,5.9E1,6.21E2,8.84E2,1.87E2,4.55E2,1.76E2,5.58E2,3.54E2,1.56E2,7.16E2,2.217E3,1.515E3,7.6E2,7.3E1,7.2E1,1.84E2,3E0,1.47E2,5E0,5E0,5.4E1,2.61E2,3.6E2,4.5E2,4.34E2,1.03E2,8.4E1,4.44E2,1.1E1,8E1,9.6E1,3.91E2,1.67E2,1.63E2,1.91E2,7.4E1,6.42E2,1.385E3,8.32E2,9.65E2,5.5E2],"tree_param":{"num_deleted":"0","num_feature":"8","num_nodes":"59","size_leaf_vector":"1"}},{"base_weights":[-2.3852934E1,-1.5169784E3,6.1457583E3,-1.8987471E3,2.0386425E1,4.755467E3,1.1783388E4,-2.4377349E3,-1.3207617E3,-1.0418516E3,9.585809E2,3.0799065E3,6.3544087E3,4.3686093E2,7.3733545E2,-1.5744116E2,-2.187617E3,-1.6949767E3,-9.3374866E2,-1.1641644E2,-6.3452405E2,2.686836E2,1.7332938E3,2.7931826E3,3.5825293E3,6.1609395E3,3.5879E2,-1.142346E2,-9.605831E1,-9.938012E1,-7.9230705E1,-5.532541E1,-3.7811024E1,-4.091646E1,-1.2524827E1,2.830858E0,2.6903456E1,7.020481E1,1.0164445E2,1.0223337E2,1.4561934E2,1.6165291E2,1.9035513E2,2.4152136E2,3.1282565E2],"categories":[],"categories_nodes":[],"categories_segments":[],"categories_sizes":[],"default_left":[0,0,0,0,0,0,0,0,0,0,0,0,0,0,0,0,0,0,0,0,0,0,0,0,0,0,0,0,0,0,0,0,0,0,0,0,0,0,0,0,0,0,0,0,0],"id":18,"left_children":[1,3,5,7,9,11,13,15,17,19,21,23,25,-1,-1,-1,27,29,31,-1,33,35,37,39,41,43,-1,-1,-1,-1,-1,-1,-1,-1,-1,-1,-1,-1,-1,-1,-1,-1,-1,-1,-1],"loss_changes":[8.5238776E10,4.372574E9,1.4075785E10,1.8559734E9,1.4789354E9,3.859802E9,3.0846853E9,5.4215475E8,4.1580595E8,3.6323885E8,4.2069843E8,9.217024E7,7.338598E7,0E0,0E0,0E0,5.476557E7,4.4130304E7,4.268339E7,0E0,3.7205696E7,2.3848878E7,3.373581E7,3.473229E7,7.625728E6,4.683981E7,0E0,0E0,0E0,0E0,0E0,0E0,0E0,0E0,0E0,0E0,0E0,0E0,0E0,0E0,0E0,0E0,0E0,0E0,0E0],"parents":[2147483647,0,0,1,1,2,2,3,3,4,4,5,5,6,6,7,7,8,8,9,9,10,10,11,11,12,12,16,16,17,17,18,18,20,20,21,21,22,22,23,23,24,24,25,25],"right_children":[2,4,6,8,10,12,14,16,18,20,22,24,26,-1,-1,-1,28,30,32,-1,34,36,38,40,42,44,-1,-1,-1,-1,-1,-1,-1,-1,-1,-1,-1,-1,-1,-1,-1,-1,-1,-1,-1],"split_conditions":[2.145E3,1.503E2,1.503E2,7.2E2,7.2E2,3.02E3,3.02E3,5.6E2,8.9E2,5.6E2,8.9E2,1.67E1,3.24E1,4.3686093E2,7.3733545E2,-1.5744116E2,1.91E1,-3.1E0,1.09E3,-1.1641644E2,6.8E2,1.13E1,1.09E3,-1.51E1,3E0,-1.58E1,3.5879E2,-1.142346E2,-9.605831E1,-9.938012E1,-7.9230705E1,-5.532541E1,-3.7811024E1,-4.091646E1,-1.2524827E1,2.830858E0,2.6903456E1,7.020481E1,1.0164445E2,1.0223337E2,1.4561934E2,1.6165291E2,1.9035513E2,2.4152136E2,3.1282565E2],"split_indices":[0,1,1,0,0,0,0,0,0,0,0,2,2,0,0,0,2,2,0,0,0,2,0,2,3,2,0,0,0,0,0,0,0,0,0,0,0,0,0,0,0,0,0,0,0],"split_type":[0,0,0,0,0,0,0,0,0,0,0,0,0,0,0,0,0,0,0,0,0,0,0,0,0,0,0,0,0,0,0,0,0,0,0,0,0,0,0,0,0,0,0,0,0],"sum_hessian":[9.251E3,7.449E3,1.802E3,5.967E3,1.482E3,1.447E3,3.55E2,3.086E3,2.881E3,6.95E2,7.87E2,7.08E2,7.39E2,1.77E2,1.78E2,8E2,2.286E3,1.463E3,1.418E3,1.66E2,5.29E2,4.17E2,3.7E2,4.55E2,2.53E2,6.05E2,1.34E2,1.67E3,6.16E2,3.96E2,1.067E3,7.16E2,7.02E2,3.57E2,1.72E2,2.34E2,1.83E2,1.79E2,1.91E2,6.5E1,3.9E2,1.05E2,1.48E2,4.4E1,5.61E2],"tree_param":{"num_deleted":"0","num_feature":"8","num_nodes":"45","size_leaf_vector":"1"}},{"base_weights":[1.2197741E1,-1.4385475E3,5.8991455E3,2.1853159E1,-1.7967953E3,1.14458955E4,4.517938E3,-9.694888E2,9.1702057E2,-2.3105498E3,-1.2490363E3,4.2179477E2,7.0552484E2,2.9248147E3,6.034326E3,-1.0972527E2,-5.7956085E2,2.5395479E2,1.6546895E3,-1.4947908E2,-2.0802144E3,-1.607412E3,-8.8676874E2,3.5121345E3,2.7007734E3,6.4899272E3,5.5587754E3,-3.7025234E1,-1.1705276E1,1.3962559E0,2.0853956E1,6.7003174E1,9.783832E1,-9.6622795E1,-1.1228961E2,-6.506474E1,-8.580648E1,-2.6727264E1,-4.9848743E1,1.3292003E2,1.823445E2,1.2640491E2,1.6868176E2,3.168006E2,3.7248367E2,2.6028204E2,3.1270184E2],"categories":[0,1,2,3,0,1,2,3,0,2,3,4,0,2,4,0,2,0,2,3,0,2,3],"categories_nodes":[1,2,13,14,20,21,22],"categories_segments":[0,4,8,12,15,17,20],"categories_sizes":[4,4,4,3,2,3,3],"default_left":[0,1,1,0,0,0,0,0,0,0,0,0,0,1,1,0,0,0,0,0,1,1,1,0,0,0,0,0,0,0,0,0,0,0,0,0,0,0,0,0,0,0,0,0,0,0,0],"id":19,"left_children":[1,3,5,7,9,11,13,15,17,19,21,-1,-1,23,25,-1,27,29,31,-1,33,35,37,39,41,43,45,-1,-1,-1,-1,-1,-1,-1,-1,-1,-1,-1,-1,-1,-1,-1,-1,-1,-1,-1,-1],"loss_changes":[7.835868E10,3.8512056E9,1.3845729E10,1.288531E9,1.6605512E9,2.7763425E9,3.494914E9,3.2784154E8,3.7278067E8,4.7066112E8,3.7027174E8,0E0,0E0,8.407091E7,1.2512051E8,0E0,2.8960448E7,1.484734E7,3.168768E7,0E0,5.144064E7,4.5624064E7,5.482048E7,1.2508928E7,5.177216E7,8.045568E6,5.853184E7,0E0,0E0,0E0,0E0,0E0,0E0,0E0,0E0,0E0,0E0,0E0,0E0,0E0,0E0,0E0,0E0,0E0,0E0,0E0,0E0],"parents":[2147483647,0,0,1,1,2,2,3,3,4,4,5,5,6,6,7,7,8,8,9,9,10,10,13,13,14,14,16,16,17,17,18,18,20,20,21,21,22,22,23,23,24,24,25,25,26,26],"right_children":[2,4,6,8,10,12,14,16,18,20,22,-1,-1,24,26,-1,28,30,32,-1,34,36,38,40,42,44,46,-1,-1,-1,-1,-1,-1,-1,-1,-1,-1,-1,-1,-1,-1,-1,-1,-1,-1,-1,-1],"split_conditions":[2.145E3,1E-45,1E-45,7.2E2,7.2E2,3.02E3,3.02E3,5.6E2,8.9E2,5.6E2,8.9E2,4.2179477E2,7.0552484E2,1E-45,1E-45,-1.0972527E2,6.8E2,4.4E0,1.09E3,-1.4947908E2,1E-45,1E-45,1E-45,-4.3E0,2.6E1,3.61E1,2.27E1,-3.7025234E1,-1.1705276E1,1.3962559E0,2.0853956E1,6.7003174E1,9.783832E1,-9.6622795E1,-1.1228961E2,-6.506474E1,-8.580648E1,-2.6727264E1,-4.9848743E1,1.3292003E2,1.823445E2,1.2640491E2,1.6868176E2,3.168006E2,3.7248367E2,2.6028204E2,3.1270184E2],"split_indices":[0,7,7,0,0,0,0,0,0,0,0,0,0,7,7,0,0,2,0,0,7,7,7,2,2,2,2,0,0,0,0,0,0,0,0,0,0,0,0,0,0,0,0,0,0,0,0],"split_type":[0,1,1,0,0,0,0,0,0,0,0,0,0,1,1,0,0,0,0,0,1,1,1,0,0,0,0,0,0,0,0,0,0,0,0,0,0,0,0,0,0,0,0,0,0,0,0],"sum_hessian":[9.173E3,7.36E3,1.813E3,1.45E3,5.91E3,3.6E2,1.453E3,6.88E2,7.62E2,3.048E3,2.862E3,1.71E2,1.89E2,7.1E2,7.43E2,1.65E2,5.23E2,4.02E2,3.6E2,7.69E2,2.279E3,1.437E3,1.425E3,1.92E2,5.18E2,3.73E2,3.7E2,3.56E2,1.67E2,1.69E2,2.33E2,1.79E2,1.81E2,1.211E3,1.068E3,3.8E2,1.057E3,3.41E2,1.084E3,2.9E1,1.63E2,4.16E2,1.02E2,3.28E2,4.5E1,2.51E2,1.19E2],"tree_param":{"num_deleted":"0","num_feature":"8","num_nodes":"47","size_leaf_vector":"1"}},{"base_weights":[-1.677983E1,-1.3628776E3,5.5597026E3,5.7681103E0,-1.6997365E3,1.0779668E4,4.3166157E3,-4.9483963E2,1.5807295E3,-2.1876597E3,-1.1852874E3,3.9692447E2,6.778718E2,2.7508586E3,5.7443574E3,-1.0500085E2,-2.1477689E2,1.2834305E3,1.85273E3,-1.4209299E2,-1.9691078E3,-1.5151752E3,-8.382452E2,3.0645728E3,2.4177537E3,3.2613995E2,5.4722803E3,-3.6031902E1,5.20346E0,5.5091927E1,8.61011E1,4.8543415E1,9.467331E1,-1.0999867E2,-9.321931E1,-8.306233E1,-6.541456E1,-2.466957E1,-4.754885E1,1.4093346E2,1.7821086E2,6.714178E1,1.2555568E2,2.5942728E2,3.0797766E2],"categories":[0,1,2,3,0,1,2,3,0,2,4,0,2,3,4,0,2,3],"categories_nodes":[1,2,13,14,22],"categories_segments":[0,4,8,11,15],"categories_sizes":[4,4,3,4,3],"default_left":[0,1,1,0,0,0,0,0,0,0,0,0,0,1,1,0,0,0,0,0,0,0,1,0,0,0,0,0,0,0,0,0,0,0,0,0,0,0,0,0,0,0,0,0,0],"id":20,"left_children":[1,3,5,7,9,11,13,15,17,19,21,-1,-1,23,25,-1,27,29,31,-1,33,35,37,39,41,-1,43,-1,-1,-1,-1,-1,-1,-1,-1,-1,-1,-1,-1,-1,-1,-1,-1,-1,-1],"loss_changes":[6.8174017E10,3.3729823E9,1.1412812E10,1.1408634E9,1.4710968E9,2.567811E9,3.176489E9,4.9315523E8,2.5844224E7,4.250501E8,3.2615706E8,0E0,0E0,6.396416E7,1.2230451E8,0E0,1.5104414E8,1.1642176E7,4.627968E6,0E0,5.056205E7,4.209869E7,5.380179E7,3.27104E7,3.0347008E7,0E0,7.704883E7,0E0,0E0,0E0,0E0,0E0,0E0,0E0,0E0,0E0,0E0,0E0,0E0,0E0,0E0,0E0,0E0,0E0,0E0],"parents":[2147483647,0,0,1,1,2,2,3,3,4,4,5,5,6,6,7,7,8,8,9,9,10,10,13,13,14,14,16,16,17,17,18,18,20,20,21,21,22,22,23,23,24,24,26,26],"right_children":[2,4,6,8,10,12,14,16,18,20,22,-1,-1,24,26,-1,28,30,32,-1,34,36,38,40,42,-1,44,-1,-1,-1,-1,-1,-1,-1,-1,-1,-1,-1,-1,-1,-1,-1,-1,-1,-1],"split_conditions":[2.145E3,1E-45,1E-45,8.9E2,7.2E2,3.02E3,3.02E3,5.6E2,1.09E3,5.6E2,8.9E2,3.9692447E2,6.778718E2,1E-45,1E-45,-1.0500085E2,6.8E2,1.86E1,-1.97E1,-1.4209299E2,-1E-1,1.21E1,1E-45,1.86E1,-1.51E1,3.2613995E2,2.66E1,-3.6031902E1,5.20346E0,5.5091927E1,8.61011E1,4.8543415E1,9.467331E1,-1.0999867E2,-9.321931E1,-8.306233E1,-6.541456E1,-2.466957E1,-4.754885E1,1.4093346E2,1.7821086E2,6.714178E1,1.2555568E2,2.5942728E2,3.0797766E2],"split_indices":[0,7,7,0,0,0,0,0,0,0,0,0,0,7,7,0,0,2,2,0,2,2,7,2,2,0,2,0,0,0,0,0,0,0,0,0,0,0,0,0,0,0,0,0,0],"split_type":[0,1,1,0,0,0,0,0,0,0,0,0,0,1,1,0,0,0,0,0,0,0,1,0,0,0,0,0,0,0,0,0,0,0,0,0,0,0,0,0,0,0,0,0,0],"sum_hessian":[9.08E3,7.315E3,1.765E3,1.445E3,5.87E3,3.38E2,1.427E3,1.097E3,3.48E2,3.011E3,2.859E3,1.69E2,1.69E2,6.82E2,7.45E2,1.62E2,9.35E2,1.69E2,1.79E2,7.51E2,2.26E3,1.464E3,1.395E3,3.47E2,3.35E2,1.87E2,5.58E2,3.61E2,5.74E2,1.22E2,4.7E1,9E0,1.7E2,6.99E2,1.561E3,8.54E2,6.1E2,3.45E2,1.05E3,2.37E2,1.1E2,2.8E1,3.07E2,4.01E2,1.57E2],"tree_param":{"num_deleted":"0","num_feature":"8","num_nodes":"45","size_leaf_vector":"1"}},{"base_weights":[1.1760857E1,-1.2911298E3,5.3644634E3,2.3236856E1,-1.6172297E3,1.0295865E4,4.11588E3,-8.9180347E2,8.350121E2,-2.2164004E3,-1.2356432E3,3.7881345E2,6.393553E2,2.6449246E3,5.4356626E3,-1.0008667E2,-5.377158E2,2.4865454E2,1.4908019E3,-1.3506499E2,-1.974558E3,-1.5199415E3,-8.0180176E2,2.9556357E3,2.331041E3,6.1310293E3,5.196777E3,-3.4662872E1,-1.0252177E1,2.5454516E0,2.4967978E1,6.1397655E1,8.6662315E1,-8.714402E1,-1.0276725E2,-8.387426E1,-6.701811E1,-3.0728415E1,-4.9916733E1,1.2075128E2,1.576598E2,1.00414925E2,1.3580946E2,1.2865208E2,3.077727E2,2.1701335E2,2.682708E2],"categories":[0,1,2,3,0,1,2,3,0,2,4,0,2,3,4,0,2,3,0,2],"categories_nodes":[1,2,13,14,20,22],"categories_segments":[0,4,8,11,15,18],"categories_sizes":[4,4,3,4,3,2],"default_left":[0,1,1,0,0,0,0,0,0,0,0,0,0,1,1,0,0,0,0,0,1,0,1,0,0,0,0,0,0,0,0,0,0,0,0,0,0,0,0,0,0,0,0,0,0,0,0],"id":21,"left_children":[1,3,5,7,9,11,13,15,17,19,21,-1,-1,23,25,-1,27,29,31,-1,33,35,37,39,41,43,45,-1,-1,-1,-1,-1,-1,-1,-1,-1,-1,-1,-1,-1,-1,-1,-1,-1,-1,-1,-1],"loss_changes":[6.4125755E10,3.1696456E9,1.1040707E10,1.0934138E9,1.3519268E9,2.3625073E9,2.7772703E9,2.7088826E8,2.9956058E8,2.6485453E8,4.455209E8,0E0,0E0,5.9623424E7,9.388646E7,0E0,2.7075408E7,2.0449372E7,2.1322944E7,0E0,2.5260032E7,5.962496E7,5.222765E7,2.859136E7,3.730573E7,4.992E5,5.904384E7,0E0,0E0,0E0,0E0,0E0,0E0,0E0,0E0,0E0,0E0,0E0,0E0,0E0,0E0,0E0,0E0,0E0,0E0,0E0,0E0],"parents":[2147483647,0,0,1,1,2,2,3,3,4,4,5,5,6,6,7,7,8,8,9,9,10,10,13,13,14,14,16,16,17,17,18,18,20,20,21,21,22,22,23,23,24,24,25,25,26,26],"right_children":[2,4,6,8,10,12,14,16,18,20,22,-1,-1,24,26,-1,28,30,32,-1,34,36,38,40,42,44,46,-1,-1,-1,-1,-1,-1,-1,-1,-1,-1,-1,-1,-1,-1,-1,-1,-1,-1,-1,-1],"split_conditions":[2.145E3,1E-45,1E-45,7.2E2,6.8E2,3.02E3,3.02E3,5.6E2,8.9E2,5.6E2,8.9E2,3.7881345E2,6.393553E2,1E-45,1E-45,-1.0008667E2,6.8E2,1.13E1,1.09E3,-1.3506499E2,1E-45,9.6E0,1E-45,-1.7E0,1.25E1,-3.9E1,-3.4E0,-3.4662872E1,-1.0252177E1,2.5454516E0,2.4967978E1,6.1397655E1,8.6662315E1,-8.714402E1,-1.0276725E2,-8.387426E1,-6.701811E1,-3.0728415E1,-4.9916733E1,1.2075128E2,1.576598E2,1.00414925E2,1.3580946E2,1.2865208E2,3.077727E2,2.1701335E2,2.682708E2],"split_indices":[0,7,7,0,0,0,0,0,0,0,0,0,0,7,7,0,0,2,0,0,7,2,7,2,2,2,2,0,0,0,0,0,0,0,0,0,0,0,0,0,0,0,0,0,0,0,0],"split_type":[0,1,1,0,0,0,0,0,0,0,0,0,0,1,1,0,0,0,0,0,1,0,1,0,0,0,0,0,0,0,0,0,0,0,0,0,0,0,0,0,0,0,0,0,0,0,0],"sum_hessian":[9.193E3,7.394E3,1.799E3,1.47E3,5.924E3,3.62E2,1.437E3,6.91E2,7.79E2,2.303E3,3.621E3,1.75E2,1.87E2,6.81E2,7.56E2,1.66E2,5.25E2,4.12E2,3.67E2,7.63E2,1.54E3,2.186E3,1.435E3,3.38E2,3.43E2,1.87E2,5.69E2,3.57E2,1.68E2,2.31E2,1.81E2,1.79E2,1.88E2,4.04E2,1.136E3,1.16E3,1.026E3,7.37E2,6.98E2,9.4E1,2.44E2,1.9E2,1.53E2,2E0,1.85E2,9.8E1,4.71E2],"tree_param":{"num_deleted":"0","num_feature":"8","num_nodes":"47","size_leaf_vector":"1"}},{"base_weights":[5.613611E-1,-1.2266007E3,4.9577295E3,3.0632896E1,-1.5368655E3,9.545118E3,3.8674673E3,-8.4369794E2,7.9058887E2,-1.980731E3,-1.0710515E3,3.6039597E2,5.9958954E2,2.5033147E3,5.1474434E3,-9.4581024E1,-4.9479083E2,2.4386932E2,1.4310487E3,-1.2838899E2,-1.7793893E3,-1.37157E3,-7.591651E2,2.8068643E3,2.1927727E3,2.903729E2,4.924603E3,-3.834971E1,-1.6807936E1,3.1013231E0,1.962625E1,5.8635265E1,8.273331E1,-9.363043E1,-7.918278E1,-5.5077156E1,-7.336992E1,-2.0613195E1,-4.312695E1,1.4075822E2,-3.9066894E0,1.282408E2,1.026264E2,2.7321005E2,2.3568704E2],"categories":[0,1,2,3,0,1,2,3,0,2,4,0,2,3,4,0,2,3,0,2,3],"categories_nodes":[1,2,13,14,21,22],"categories_segments":[0,4,8,11,15,18],"categories_sizes":[4,4,3,4,3,3],"default_left":[0,1,1,0,0,0,0,0,0,0,0,0,0,1,1,0,0,0,0,0,0,1,1,0,0,0,0,0,0,0,0,0,0,0,0,0,0,0,0,0,0,0,0,0,0],"id":22,"left_children":[1,3,5,7,9,11,13,15,17,19,21,-1,-1,23,25,-1,27,29,31,-1,33,35,37,39,41,-1,43,-1,-1,-1,-1,-1,-1,-1,-1,-1,-1,-1,-1,-1,-1,-1,-1,-1,-1],"loss_changes":[5.582597E10,2.8694415E9,9.070739E9,9.68775E8,1.2177551E9,1.9092746E9,2.5590927E9,2.4695955E8,2.7276947E8,3.5238605E8,2.6898816E8,0E0,0E0,6.124493E7,8.303411E7,0E0,2.1764064E7,1.1383148E7,1.879904E7,0E0,3.812557E7,3.631821E7,5.042291E7,8.792576E6,1.3415168E7,0E0,3.955405E7,0E0,0E0,0E0,0E0,0E0,0E0,0E0,0E0,0E0,0E0,0E0,0E0,0E0,0E0,0E0,0E0,0E0,0E0],"parents":[2147483647,0,0,1,1,2,2,3,3,4,4,5,5,6,6,7,7,8,8,9,9,10,10,13,13,14,14,16,16,17,17,18,18,20,20,21,21,22,22,23,23,24,24,26,26],"right_children":[2,4,6,8,10,12,14,16,18,20,22,-1,-1,24,26,-1,28,30,32,-1,34,36,38,40,42,-1,44,-1,-1,-1,-1,-1,-1,-1,-1,-1,-1,-1,-1,-1,-1,-1,-1,-1,-1],"split_conditions":[2.145E3,1E-45,1E-45,7.2E2,7.2E2,3.02E3,3.02E3,5.6E2,8.9E2,5.6E2,8.9E2,3.6039597E2,5.9958954E2,1E-45,1E-45,-9.4581024E1,5.95E2,3E0,1.09E3,-1.2838899E2,6.8E2,1E-45,1E-45,1.503E2,2E0,2.903729E2,2E0,-3.834971E1,-1.6807936E1,3.1013231E0,1.962625E1,5.8635265E1,8.273331E1,-9.363043E1,-7.918278E1,-5.5077156E1,-7.336992E1,-2.0613195E1,-4.312695E1,1.4075822E2,-3.9066894E0,1.282408E2,1.026264E2,2.7321005E2,2.3568704E2],"split_indices":[0,7,7,0,0,0,0,0,0,0,0,0,0,7,7,0,0,3,0,0,0,7,7,1,3,0,3,0,0,0,0,0,0,0,0,0,0,0,0,0,0,0,0,0,0],"split_type":[0,1,1,0,0,0,0,0,0,0,0,0,0,1,1,0,0,0,0,0,0,1,1,0,0,0,0,0,0,0,0,0,0,0,0,0,0,0,0,0,0,0,0,0,0],"sum_hessian":[9.175E3,7.355E3,1.82E3,1.456E3,5.899E3,3.48E2,1.472E3,6.77E2,7.79E2,3.019E3,2.88E3,1.8E2,1.68E2,7.14E2,7.58E2,1.68E2,5.09E2,4.21E2,3.58E2,7.68E2,2.251E3,1.465E3,1.415E3,3.57E2,3.57E2,1.85E2,5.73E2,1.86E2,3.23E2,1.9E2,2.31E2,1.69E2,1.89E2,1.519E3,7.32E2,3.87E2,1.078E3,3.26E2,1.089E3,3.56E2,1E0,9.3E1,2.64E2,1.54E2,4.19E2],"tree_param":{"num_deleted":"0","num_feature":"8","num_nodes":"45","size_leaf_vector":"1"}},{"base_weights":[2.649704E0,-1.1700055E3,4.762707E3,-1.4650529E3,1.6230797E1,3.6773044E3,9.130355E3,-1.8781528E3,-1.0275652E3,-8.064891E2,7.4857935E2,2.3819663E3,4.911741E3,3.3615402E2,1.1308581E4,-2.439007E3,-1.6914448E3,-1.3147367E3,-7.3191956E2,-9.035645E1,-4.8289902E2,2.2273058E2,1.3558342E3,2.2091848E3,3.0872341E3,4.0058384E3,5.029256E3,7.102956E3,5.7406604E2,-1.2583258E2,-1.1666007E2,-8.980489E1,-7.4907394E1,-7.907866E1,-6.0669643E1,-5.2329296E1,-3.1106205E1,-3.0577747E1,-1.0761975E1,2.230011E0,2.1718863E1,5.511508E1,7.915676E1,7.250113E1,1.1534204E2,1.3205424E2,1.6728398E2,1.4933653E2,2.077135E2,2.4058772E2,2.688933E2,3.9256735E2,1.3697983E2],"categories":[],"categories_nodes":[],"categories_segments":[],"categories_sizes":[],"default_left":[0,0,0,0,0,0,0,0,0,0,0,0,0,0,0,0,0,0,0,0,0,0,0,0,0,0,0,0,0,0,0,0,0,0,0,0,0,0,0,0,0,0,0,0,0,0,0,0,0,0,0,0,0],"id":23,"left_children":[1,3,5,7,9,11,13,15,17,19,21,23,25,-1,27,29,31,33,35,-1,37,39,41,43,45,47,49,51,-1,-1,-1,-1,-1,-1,-1,-1,-1,-1,-1,-1,-1,-1,-1,-1,-1,-1,-1,-1,-1,-1,-1,-1,-1],"loss_changes":[5.1029774E10,2.5672438E9,8.5327913E9,1.05965466E9,8.814846E8,2.3052698E9,1.8064179E9,3.1211622E8,2.4143027E8,2.2222355E8,2.4685498E8,7.957632E7,5.873869E7,0E0,5.430272E7,3.06176E5,4.3208704E7,3.721088E7,4.802835E7,0E0,1.7843936E7,1.5664116E7,1.8943488E7,3.913523E7,6.96064E6,1.2064E6,2.3560192E7,1.114544E7,0E0,0E0,0E0,0E0,0E0,0E0,0E0,0E0,0E0,0E0,0E0,0E0,0E0,0E0,0E0,0E0,0E0,0E0,0E0,0E0,0E0,0E0,0E0,0E0,0E0],"parents":[2147483647,0,0,1,1,2,2,3,3,4,4,5,5,6,6,7,7,8,8,9,9,10,10,11,11,12,12,14,14,15,15,16,16,17,17,18,18,20,20,21,21,22,22,23,23,24,24,25,25,26,26,27,27],"right_children":[2,4,6,8,10,12,14,16,18,20,22,24,26,-1,28,30,32,34,36,-1,38,40,42,44,46,48,50,52,-1,-1,-1,-1,-1,-1,-1,-1,-1,-1,-1,-1,-1,-1,-1,-1,-1,-1,-1,-1,-1,-1,-1,-1,-1],"split_conditions":[2.145E3,1.503E2,1.503E2,7.2E2,7.2E2,3.02E3,3.02E3,5.6E2,8.9E2,5.6E2,8.9E2,2.64E1,-9.4E0,3.3615402E2,2.999E2,9.2E0,1.46E1,-3.1E0,-4.1E0,-9.035645E1,6.8E2,1.06E1,1.09E3,-1.51E1,3E0,1.185E2,6E0,3E0,5.7406604E2,-1.2583258E2,-1.1666007E2,-8.980489E1,-7.4907394E1,-7.907866E1,-6.0669643E1,-5.2329296E1,-3.1106205E1,-3.0577747E1,-1.0761975E1,2.230011E0,2.1718863E1,5.511508E1,7.915676E1,7.250113E1,1.1534204E2,1.3205424E2,1.6728398E2,1.4933653E2,2.077135E2,2.4058772E2,2.688933E2,3.9256735E2,1.3697983E2],"split_indices":[0,1,1,0,0,0,0,0,0,0,0,2,2,0,1,2,2,2,2,0,0,2,0,2,3,1,3,3,0,0,0,0,0,0,0,0,0,0,0,0,0,0,0,0,0,0,0,0,0,0,0,0,0],"split_type":[0,0,0,0,0,0,0,0,0,0,0,0,0,0,0,0,0,0,0,0,0,0,0,0,0,0,0,0,0,0,0,0,0,0,0,0,0,0,0,0,0,0,0,0,0,0,0,0,0,0,0,0,0],"sum_hessian":[9.14E3,7.334E3,1.806E3,5.873E3,1.461E3,1.448E3,3.58E2,3.019E3,2.854E3,6.88E2,7.73E2,7.08E2,7.4E2,1.72E2,1.86E2,7.51E2,2.268E3,1.446E3,1.408E3,1.67E2,5.21E2,4.15E2,3.58E2,5.72E2,1.36E2,8.9E1,6.51E2,9E0,1.77E2,4.2E2,3.31E2,1.466E3,8.02E2,3.94E2,1.052E3,3.62E2,1.046E3,3.51E2,1.7E2,2.26E2,1.89E2,1.72E2,1.86E2,6.7E1,5.05E2,5.4E1,8.2E1,1.4E1,7.5E1,4.1E2,2.41E2,7E0,2E0],"tree_param":{"num_deleted":"0","num_feature":"8","num_nodes":"53","size_leaf_vector":"1"}},{"base_weights":[9.102045E0,-1.1154312E3,4.6096855E3,-1.3961274E3,-3.1721168E0,3.549337E3,8.74376E3,-1.796364E3,-9.6812354E2,-7.6964417E2,6.8451685E2,2.3070222E3,4.7231533E3,6.4560166E3,5.4559906E2,-2.3234763E3,-1.616252E3,-1.2397012E3,-6.904963E2,-8.545253E1,-4.621042E2,2.0232617E2,1.2456337E3,1.6943757E3,2.4757896E3,4.562896E3,5.547272E3,4.9206465E3,3.3574365E2,-1.1997009E2,-1.1121044E2,-9.6374374E1,-7.785576E1,-6.856176E1,-5.244746E1,-4.3054535E1,-2.5576628E1,-3.6234962E1,-1.5506955E1,1.4274213E0,2.1062262E1,5.168826E1,7.3060844E1,4.0867455E1,8.878298E1,1.1563909E2,1.4450613E2,1.7134578E2,2.3224913E2,2.2622757E2,2.8892596E2,8.696341E1,2.5428856E2],"categories":[],"categories_nodes":[],"categories_segments":[],"categories_sizes":[],"default_left":[0,0,0,0,0,0,0,0,0,0,0,0,0,0,0,0,0,0,0,0,0,0,0,0,0,0,0,0,0,0,0,0,0,0,0,0,0,0,0,0,0,0,0,0,0,0,0,0,0,0,0,0,0],"id":24,"left_children":[1,3,5,7,9,11,13,15,17,19,21,23,25,27,-1,29,31,33,35,-1,37,39,41,43,45,47,49,51,-1,-1,-1,-1,-1,-1,-1,-1,-1,-1,-1,-1,-1,-1,-1,-1,-1,-1,-1,-1,-1,-1,-1,-1,-1],"loss_changes":[4.7699722E10,2.3131372E9,7.907594E9,1.01168845E9,7.880058E8,2.093357E9,1.759914E9,2.8638003E8,2.1485568E8,2.0346608E8,2.1295347E8,6.849152E7,7.255142E7,3.929293E7,0E0,5.11744E5,3.898112E7,3.481728E7,4.2820864E7,0E0,2.1084672E7,1.6156358E7,1.5115264E7,9.598336E6,3.0395136E7,4.2456064E7,1.288704E6,6.914176E6,0E0,0E0,0E0,0E0,0E0,0E0,0E0,0E0,0E0,0E0,0E0,0E0,0E0,0E0,0E0,0E0,0E0,0E0,0E0,0E0,0E0,0E0,0E0,0E0,0E0],"parents":[2147483647,0,0,1,1,2,2,3,3,4,4,5,5,6,6,7,7,8,8,9,9,10,10,11,11,12,12,13,13,15,15,16,16,17,17,18,18,20,20,21,21,22,22,23,23,24,24,25,25,26,26,27,27],"right_children":[2,4,6,8,10,12,14,16,18,20,22,24,26,28,-1,30,32,34,36,-1,38,40,42,44,46,48,50,52,-1,-1,-1,-1,-1,-1,-1,-1,-1,-1,-1,-1,-1,-1,-1,-1,-1,-1,-1,-1,-1,-1,-1,-1,-1],"split_conditions":[2.145E3,1.503E2,1.503E2,7.2E2,7.2E2,3.02E3,3.02E3,5.6E2,8.9E2,5.6E2,8.9E2,-4.3E0,3.4E1,-1.34E1,5.4559906E2,9.2E0,-1E1,1.21E1,1.09E3,-8.545253E1,5.95E2,1.13E1,1.09E3,-3E1,2.6E1,-1.58E1,1.2E2,2.999E2,3.3574365E2,-1.1997009E2,-1.1121044E2,-9.6374374E1,-7.785576E1,-6.856176E1,-5.244746E1,-4.3054535E1,-2.5576628E1,-3.6234962E1,-1.5506955E1,1.4274213E0,2.1062262E1,5.168826E1,7.3060844E1,4.0867455E1,8.878298E1,1.1563909E2,1.4450613E2,1.7134578E2,2.3224913E2,2.2622757E2,2.8892596E2,8.696341E1,2.5428856E2],"split_indices":[0,1,1,0,0,0,0,0,0,0,0,2,2,2,0,2,2,2,0,0,0,2,0,2,2,2,1,1,0,0,0,0,0,0,0,0,0,0,0,0,0,0,0,0,0,0,0,0,0,0,0,0,0],"split_type":[0,0,0,0,0,0,0,0,0,0,0,0,0,0,0,0,0,0,0,0,0,0,0,0,0,0,0,0,0,0,0,0,0,0,0,0,0,0,0,0,0,0,0,0,0,0,0,0,0,0,0,0,0],"sum_hessian":[9.218E3,7.408E3,1.81E3,5.915E3,1.493E3,1.442E3,3.68E2,3.055E3,2.86E3,7.06E2,7.87E2,7.02E2,7.4E2,1.81E2,1.87E2,7.75E2,2.28E3,1.444E3,1.416E3,1.73E2,5.33E2,4.24E2,3.63E2,1.54E2,5.48E2,6.25E2,1.15E2,2.9E1,1.52E2,4.26E2,3.49E2,3.59E2,1.921E3,8.51E2,5.93E2,7.23E2,6.93E2,1.94E2,3.39E2,2.37E2,1.87E2,1.86E2,1.77E2,1.4E1,1.4E2,3.98E2,1.5E2,4.5E1,5.8E2,2.5E1,9E1,2E0,2.7E1],"tree_param":{"num_deleted":"0","num_feature":"8","num_nodes":"53","size_leaf_vector":"1"}},{"base_weights":[1.2574962E1,-1.0634883E3,4.407487E3,-1.5377102E3,-5.7499884E2,3.0164346E3,5.7144346E3,-2.110764E3,-1.3400286E3,-8.741537E2,-2.6135468E2,2.41542E3,3.1343137E3,5.114623E3,6.1583096E3,-1.0984424E2,-1.0027248E2,-1.4287136E3,-1.102629E3,-1.1697444E3,-7.5809344E2,-4.4569315E2,-7.3153755E1,2.0276406E3,2.7757986E3,2.8826125E3,3.331885E3,3.798497E3,5.278633E3,5.8679727E3,3.4263873E2,-8.0414276E1,-6.667265E1,-6.091203E1,-4.300065E1,-6.4486694E1,-5.1903187E1,-4.1432396E1,-2.5729435E1,-2.9195118E1,-7.9631457E0,-6.2807674E0,2.7226013E1,1.5585879E1,1.0599611E2,1.1308073E2,1.6571013E2,1.6971428E2,1.0856317E2,5.1364452E1,1.6704198E2,9.84002E1,1.9827888E2,2.681973E2,2.2374129E2,3.334533E2,2.586734E2],"categories":[],"categories_nodes":[],"categories_segments":[],"categories_sizes":[],"default_left":[0,0,0,0,0,0,0,0,0,0,0,0,0,0,0,0,0,0,0,0,0,0,0,0,0,0,0,0,0,0,0,0,0,0,0,0,0,0,0,0,0,0,0,0,0,0,0,0,0,0,0,0,0,0,0,0,0],"id":25,"left_children":[1,3,5,7,9,11,13,15,17,19,21,23,25,27,29,-1,-1,31,33,35,37,39,41,43,45,47,49,51,53,55,-1,-1,-1,-1,-1,-1,-1,-1,-1,-1,-1,-1,-1,-1,-1,-1,-1,-1,-1,-1,-1,-1,-1,-1,-1,-1,-1],"loss_changes":[4.337621E10,1.7059308E9,3.2624927E9,4.206203E8,3.4046157E8,5.449165E7,2.1583872E8,4.27392E6,5.699584E7,6.28544E7,6.151221E7,1.5054272E7,2.6647552E7,6.65088E7,6.644941E7,0E0,0E0,3.2443904E7,2.0297728E7,6.908928E6,2.2543744E7,3.537723E7,2.8551662E7,1.1215232E7,1.2990656E7,1.120151E8,4.864512E6,6.876032E6,2.72384E5,1.7691648E8,0E0,0E0,0E0,0E0,0E0,0E0,0E0,0E0,0E0,0E0,0E0,0E0,0E0,0E0,0E0,0E0,0E0,0E0,0E0,0E0,0E0,0E0,0E0,0E0,0E0,0E0,0E0],"parents":[2147483647,0,0,1,1,2,2,3,3,4,4,5,5,6,6,7,7,8,8,9,9,10,10,11,11,12,12,13,13,14,14,17,17,18,18,19,19,20,20,21,21,22,22,23,23,24,24,25,25,26,26,27,27,28,28,29,29],"right_children":[2,4,6,8,10,12,14,16,18,20,22,24,26,28,30,-1,-1,32,34,36,38,40,42,44,46,48,50,52,54,56,-1,-1,-1,-1,-1,-1,-1,-1,-1,-1,-1,-1,-1,-1,-1,-1,-1,-1,-1,-1,-1,-1,-1,-1,-1,-1,-1],"split_conditions":[2.145E3,7.2E2,3.02E3,5.6E2,8.9E2,-7.8E0,1.25E1,9.2E0,1.92E1,-1.7E0,1.09E3,5E0,3E0,-1.58E1,6E0,-1.0984424E2,-1.0027248E2,5.95E2,6.8E2,4E0,2.52E1,1.67E1,3.29E1,-3.49E1,4E0,2E0,-7E0,-3.9E1,1.05E1,2E0,3.4263873E2,-8.0414276E1,-6.667265E1,-6.091203E1,-4.300065E1,-6.4486694E1,-5.1903187E1,-4.1432396E1,-2.5729435E1,-2.9195118E1,-7.9631457E0,-6.2807674E0,2.7226013E1,1.5585879E1,1.0599611E2,1.1308073E2,1.6571013E2,1.6971428E2,1.0856317E2,5.1364452E1,1.6704198E2,9.84002E1,1.9827888E2,2.681973E2,2.2374129E2,3.334533E2,2.586734E2],"split_indices":[0,0,0,0,0,2,2,2,2,2,0,3,3,2,3,0,0,0,0,3,2,2,2,2,4,3,2,2,2,3,0,0,0,0,0,0,0,0,0,0,0,0,0,0,0,0,0,0,0,0,0,0,0,0,0,0,0],"split_type":[0,0,0,0,0,0,0,0,0,0,0,0,0,0,0,0,0,0,0,0,0,0,0,0,0,0,0,0,0,0,0,0,0,0,0,0,0,0,0,0,0,0,0,0,0,0,0,0,0,0,0,0,0,0,0,0,0],"sum_hessian":[9.17E3,7.367E3,1.803E3,3.737E3,3.63E3,8.75E2,9.28E2,9.56E2,2.781E3,1.857E3,1.773E3,1.47E2,7.28E2,4E2,5.28E2,5.15E2,4.41E2,2.021E3,7.6E2,5.21E2,1.336E3,8.95E2,8.78E2,7.4E1,7.3E1,3.27E2,4.01E2,4.7E1,3.53E2,3.79E2,1.49E2,6.95E2,1.326E3,5.12E2,2.48E2,2.68E2,2.53E2,1.034E3,3.02E2,6.03E2,2.92E2,8.1E2,6.8E1,4E0,7E1,4E1,3.3E1,1.88E2,1.39E2,2E0,3.99E2,5E0,4.2E1,3.14E2,3.9E1,1.72E2,2.07E2],"tree_param":{"num_deleted":"0","num_feature":"8","num_nodes":"57","size_leaf_vector":"1"}},{"base_weights":[-1.323113E1,-1.0095515E3,4.0695178E3,5.5147564E1,-1.2741039E3,8.146354E3,3.086336E3,-6.526102E2,6.919658E2,-1.7338673E3,-9.8137006E2,6.0277417E3,1.0056088E4,1.9979906E3,4.1118506E3,-7.581561E1,-3.7280438E2,2.3997784E2,1.2239404E3,-2.1012087E3,-1.5484529E3,-1.1945387E3,-6.4978406E2,2.4094434E2,3.0936792E2,5.082849E2,2.0823328E2,2.2870256E3,1.6922732E3,4.803052E3,3.8769797E3,-2.506055E1,-4.394002E0,2.1136494E0,1.994929E1,4.9048172E1,7.2214806E1,-1.1147703E2,-1.0232285E2,-6.608211E1,-8.130166E1,-4.6797226E1,-6.421025E1,-4.8946774E1,-2.7697004E1,1.0610836E2,1.3843628E2,4.485982E1,8.924364E1,2.306647E2,2.8477582E2,1.5838676E2,2.0113676E2],"categories":[0,1,2,3,0,1,2,3,0,2,4,0,2,3,4,0,2,3,0,2,3],"categories_nodes":[1,2,13,14,20,21],"categories_segments":[0,4,8,11,15,18],"categories_sizes":[4,4,3,4,3,3],"default_left":[0,1,1,0,0,0,0,0,0,0,0,0,0,1,1,0,0,0,0,0,1,1,0,0,0,0,0,0,0,0,0,0,0,0,0,0,0,0,0,0,0,0,0,0,0,0,0,0,0,0,0,0,0],"id":26,"left_children":[1,3,5,7,9,11,13,15,17,19,21,23,25,27,29,-1,31,33,35,37,39,41,43,-1,-1,-1,-1,45,47,49,51,-1,-1,-1,-1,-1,-1,-1,-1,-1,-1,-1,-1,-1,-1,-1,-1,-1,-1,-1,-1,-1,-1],"loss_changes":[3.70977E10,2.064983E9,7.1456543E9,6.584927E8,7.886008E8,1.3433405E9,1.6023388E9,1.6666957E8,1.8460934E8,1.5224269E8,2.5297843E8,2.406912E6,7.454515E7,5.8160384E7,1.018368E8,0E0,1.9127104E7,1.3092214E7,1.7483328E7,7.98464E5,2.4614656E7,4.9438976E7,4.384461E7,0E0,0E0,0E0,0E0,2.2553856E7,2.3798848E7,4.885504E6,4.5044224E7,0E0,0E0,0E0,0E0,0E0,0E0,0E0,0E0,0E0,0E0,0E0,0E0,0E0,0E0,0E0,0E0,0E0,0E0,0E0,0E0,0E0,0E0],"parents":[2147483647,0,0,1,1,2,2,3,3,4,4,5,5,6,6,7,7,8,8,9,9,10,10,11,11,12,12,13,13,14,14,16,16,17,17,18,18,19,19,20,20,21,21,22,22,27,27,28,28,29,29,30,30],"right_children":[2,4,6,8,10,12,14,16,18,20,22,24,26,28,30,-1,32,34,36,38,40,42,44,-1,-1,-1,-1,46,48,50,52,-1,-1,-1,-1,-1,-1,-1,-1,-1,-1,-1,-1,-1,-1,-1,-1,-1,-1,-1,-1,-1,-1],"split_conditions":[2.145E3,1E-45,1E-45,7.2E2,6.8E2,3.02E3,3.02E3,5.6E2,8.9E2,5.6E2,8.9E2,-1.34E1,4.46E1,1E-45,1E-45,-7.581561E1,6.8E2,3E0,1.09E3,-3.1E0,1E-45,1E-45,-5.7E0,2.4094434E2,3.0936792E2,5.082849E2,2.0823328E2,2.22E1,-1.51E1,3.48E1,-4.1E0,-2.506055E1,-4.394002E0,2.1136494E0,1.994929E1,4.9048172E1,7.2214806E1,-1.1147703E2,-1.0232285E2,-6.608211E1,-8.130166E1,-4.6797226E1,-6.421025E1,-4.8946774E1,-2.7697004E1,1.0610836E2,1.3843628E2,4.485982E1,8.924364E1,2.306647E2,2.8477582E2,1.5838676E2,2.0113676E2],"split_indices":[0,7,7,0,0,0,0,0,0,0,0,2,2,7,7,0,0,3,0,2,7,7,2,0,0,0,0,2,2,2,2,0,0,0,0,0,0,0,0,0,0,0,0,0,0,0,0,0,0,0,0,0,0],"split_type":[0,1,1,0,0,0,0,0,0,0,0,0,0,1,1,0,0,0,0,0,1,1,0,0,0,0,0,0,0,0,0,0,0,0,0,0,0,0,0,0,0,0,0,0,0,0,0,0,0,0,0,0,0],"sum_hessian":[9.118E3,7.33E3,1.788E3,1.459E3,5.871E3,3.46E2,1.442E3,6.91E2,7.68E2,2.282E3,3.589E3,1.66E2,1.8E2,7.01E2,7.41E2,1.68E2,5.23E2,4.16E2,3.52E2,7.62E2,1.52E3,2.183E3,1.406E3,2.3E1,1.43E2,1.76E2,4E0,3.57E2,3.44E2,1.83E2,5.58E2,3.6E2,1.63E2,1.86E2,2.3E2,1.7E2,1.82E2,2.16E2,5.46E2,3.92E2,1.128E3,5.65E2,1.618E3,3.15E2,1.091E3,2.7E2,8.7E1,3.7E1,3.07E2,1.56E2,2.7E1,9.9E1,4.59E2],"tree_param":{"num_deleted":"0","num_feature":"8","num_nodes":"53","size_leaf_vector":"1"}},{"base_weights":[-1.5044566E1,-9.511869E2,3.9139167E3,-1.2034487E3,5.4955307E1,2.9740269E3,7.751134E3,-1.6375403E3,-9.2655334E2,-6.130769E2,6.7225635E2,1.9056333E3,3.9551345E3,5.762315E3,9.523712E3,-1.9861526E3,-1.4621764E3,-1.130644E3,-6.110118E2,-7.235386E1,-3.561638E2,2.4510556E2,1.1624486E3,1.7702505E3,2.4304124E3,3.8107117E3,4.626773E3,4.245552E3,2.9757004E2,5.71241E3,4.8326498E2,-1.01661545E2,-9.318756E1,-8.3310905E1,-6.938447E1,-6.60458E1,-5.0898197E1,-4.4591297E1,-2.5885431E1,-2.9627195E1,-1.1353733E1,-2.565439E0,1.7839857E1,4.7568184E1,6.785351E1,5.702725E1,9.233132E1,1.048269E2,1.33018E2,1.6087082E2,1.9595183E2,2.1548448E2,2.6996915E2,2.2366487E2,6.5603226E1,3.250809E2,9.8339355E1],"categories":[],"categories_nodes":[],"categories_segments":[],"categories_sizes":[],"default_left":[0,0,0,0,0,0,0,0,0,0,0,0,0,0,0,0,0,0,0,0,0,0,0,0,0,0,0,0,0,0,0,0,0,0,0,0,0,0,0,0,0,0,0,0,0,0,0,0,0,0,0,0,0,0,0,0,0],"id":27,"left_children":[1,3,5,7,9,11,13,15,17,19,21,23,25,27,29,31,33,35,37,-1,39,41,43,45,47,49,51,53,-1,55,-1,-1,-1,-1,-1,-1,-1,-1,-1,-1,-1,-1,-1,-1,-1,-1,-1,-1,-1,-1,-1,-1,-1,-1,-1,-1,-1],"loss_changes":[3.3966993E10,1.8929905E9,6.3858094E9,7.1522304E8,6.173281E8,1.4903542E9,1.1754619E9,1.3898803E8,2.3391462E8,1.5354157E8,1.626174E8,4.4434944E7,5.453619E7,2.2628352E7,4.3541504E7,6.70976E5,2.1214976E7,4.6059264E7,3.708413E7,0E0,1.667872E7,1.3823918E7,1.358048E7,2.4297856E7,5.017216E6,2.7108352E7,7.842816E6,8.828704E6,0E0,1.3817408E7,0E0,0E0,0E0,0E0,0E0,0E0,0E0,0E0,0E0,0E0,0E0,0E0,0E0,0E0,0E0,0E0,0E0,0E0,0E0,0E0,0E0,0E0,0E0,0E0,0E0,0E0,0E0],"parents":[2147483647,0,0,1,1,2,2,3,3,4,4,5,5,6,6,7,7,8,8,9,9,10,10,11,11,12,12,13,13,14,14,15,15,16,16,17,17,18,18,20,20,21,21,22,22,23,23,24,24,25,25,26,26,27,27,29,29],"right_children":[2,4,6,8,10,12,14,16,18,20,22,24,26,28,30,32,34,36,38,-1,40,42,44,46,48,50,52,54,-1,56,-1,-1,-1,-1,-1,-1,-1,-1,-1,-1,-1,-1,-1,-1,-1,-1,-1,-1,-1,-1,-1,-1,-1,-1,-1,-1,-1],"split_conditions":[2.145E3,1.503E2,1.503E2,6.8E2,7.2E2,3.02E3,3.02E3,5.6E2,8.9E2,5.6E2,8.9E2,2.6E1,3.29E1,-1.34E1,2.999E2,1.79E1,-2.9E0,2.3E0,-4.1E0,-7.235386E1,5.95E2,-9E-1,1.09E3,-1.51E1,3E0,1.185E2,3E0,1E1,2.9757004E2,3E0,4.8326498E2,-1.01661545E2,-9.318756E1,-8.3310905E1,-6.938447E1,-6.60458E1,-5.0898197E1,-4.4591297E1,-2.5885431E1,-2.9627195E1,-1.1353733E1,-2.565439E0,1.7839857E1,4.7568184E1,6.785351E1,5.702725E1,9.233132E1,1.048269E2,1.33018E2,1.6087082E2,1.9595183E2,2.1548448E2,2.6996915E2,2.2366487E2,6.5603226E1,3.250809E2,9.8339355E1],"split_indices":[0,1,1,0,0,0,0,0,0,0,0,2,2,2,1,2,2,2,2,0,0,2,0,2,3,1,3,3,0,3,0,0,0,0,0,0,0,0,0,0,0,0,0,0,0,0,0,0,0,0,0,0,0,0,0,0,0],"split_type":[0,0,0,0,0,0,0,0,0,0,0,0,0,0,0,0,0,0,0,0,0,0,0,0,0,0,0,0,0,0,0,0,0,0,0,0,0,0,0,0,0,0,0,0,0,0,0,0,0,0,0,0,0,0,0,0,0],"sum_hessian":[9.233E3,7.457E3,1.776E3,5.962E3,1.495E3,1.428E3,3.48E2,2.32E3,3.642E3,7.18E2,7.77E2,6.85E2,7.43E2,1.66E2,1.82E2,7.73E2,1.547E3,2.21E3,1.432E3,1.68E2,5.5E2,4.16E2,3.61E2,5.48E2,1.37E2,6.17E2,1.26E2,2.1E1,1.45E2,8E0,1.74E2,5.47E2,2.26E2,4.08E2,1.139E3,8.18E2,1.392E3,3.55E2,1.077E3,1.93E2,3.57E2,1.14E2,3.02E2,1.76E2,1.85E2,6.1E1,4.87E2,6E1,7.7E1,1E2,5.17E2,9.4E1,3.2E1,1.9E1,2E0,6E0,2E0],"tree_param":{"num_deleted":"0","num_feature":"8","num_nodes":"57","size_leaf_vector":"1"}},{"base_weights":[1.8299541E1,-9.07791E2,3.7166023E3,6.147493E1,-1.1492516E3,7.313798E3,2.8348796E3,-2.7725262E2,1.1048488E3,-1.5639756E3,-8.835628E2,2.7391425E2,4.5152023E2,1.8351841E3,3.7405007E3,-6.86466E1,-9.319114E1,9.2945355E2,1.2629879E3,-1.8925883E3,-1.3961565E3,-1.0784894E3,-5.860208E2,2.2814133E3,1.665797E3,4.0908997E3,3.3868086E3,-2.1748005E1,6.0763464E0,3.3971825E1,5.5820568E1,7.987375E1,5.6239655E1,-8.789062E1,-9.6863365E1,-5.9025845E1,-7.3334404E1,-4.124552E1,-5.8232693E1,-1.384801E1,-3.3856636E1,1.1705861E2,9.334288E1,8.967574E1,7.1448586E1,2.1780179E2,1.9165198E2,1.862495E2,1.6239793E2],"categories":[0,1,2,3,0,1,2,3,0,2,3,4,0,2,4,0,2,3,0,2,3,0,2,3,0,2,3,0,1,4,0,2,3,4],"categories_nodes":[1,2,13,14,19,20,21,22,24,25],"categories_segments":[0,4,8,12,15,18,21,24,27,30],"categories_sizes":[4,4,4,3,3,3,3,3,3,4],"default_left":[0,1,1,0,0,0,0,0,0,0,0,0,0,1,1,0,0,0,0,1,1,1,1,0,1,1,0,0,0,0,0,0,0,0,0,0,0,0,0,0,0,0,0,0,0,0,0,0,0],"id":28,"left_children":[1,3,5,7,9,11,13,15,17,19,21,-1,-1,23,25,-1,27,29,31,33,35,37,39,41,43,45,47,-1,-1,-1,-1,-1,-1,-1,-1,-1,-1,-1,-1,-1,-1,-1,-1,-1,-1,-1,-1,-1,-1],"loss_changes":[3.1417137E10,1.7169838E9,5.805732E9,5.177124E8,6.4574925E8,1.0879857E9,1.3303306E9,2.229217E8,8.783616E6,1.2375603E8,2.0711987E8,0E0,0E0,4.9411584E7,8.20695E7,0E0,6.962086E7,7.374688E6,6.800928E6,1.243136E6,2.14016E7,4.6299904E7,3.97984E7,3.61024E5,1.2984064E7,9.55648E6,6.261248E6,0E0,0E0,0E0,0E0,0E0,0E0,0E0,0E0,0E0,0E0,0E0,0E0,0E0,0E0,0E0,0E0,0E0,0E0,0E0,0E0,0E0,0E0],"parents":[2147483647,0,0,1,1,2,2,3,3,4,4,5,5,6,6,7,7,8,8,9,9,10,10,13,13,14,14,16,16,17,17,18,18,19,19,20,20,21,21,22,22,23,23,24,24,25,25,26,26],"right_children":[2,4,6,8,10,12,14,16,18,20,22,-1,-1,24,26,-1,28,30,32,34,36,38,40,42,44,46,48,-1,-1,-1,-1,-1,-1,-1,-1,-1,-1,-1,-1,-1,-1,-1,-1,-1,-1,-1,-1,-1,-1],"split_conditions":[2.145E3,1E-45,1E-45,8.9E2,6.8E2,3.02E3,3.02E3,5.6E2,1.09E3,5.6E2,8.9E2,2.7391425E2,4.5152023E2,1E-45,1E-45,-6.86466E1,6.8E2,3E0,2E0,1E-45,1E-45,1E-45,1E-45,1.423E2,1E-45,1E-45,2E0,-2.1748005E1,6.0763464E0,3.3971825E1,5.5820568E1,7.987375E1,5.6239655E1,-8.789062E1,-9.6863365E1,-5.9025845E1,-7.3334404E1,-4.124552E1,-5.8232693E1,-1.384801E1,-3.3856636E1,1.1705861E2,9.334288E1,8.967574E1,7.1448586E1,2.1780179E2,1.9165198E2,1.862495E2,1.6239793E2],"split_indices":[0,7,7,0,0,0,0,0,0,0,0,0,0,7,7,0,0,3,3,7,7,7,7,1,7,7,3,0,0,0,0,0,0,0,0,0,0,0,0,0,0,0,0,0,0,0,0,0,0],"split_type":[0,1,1,0,0,0,0,0,0,0,0,0,0,1,1,0,0,0,0,1,1,1,1,0,1,1,0,0,0,0,0,0,0,0,0,0,0,0,0,0,0,0,0,0,0,0,0,0,0],"sum_hessian":[9.171E3,7.335E3,1.836E3,1.463E3,5.872E3,3.6E2,1.476E3,1.105E3,3.58E2,2.291E3,3.581E3,1.76E2,1.84E2,7.03E2,7.73E2,1.58E2,9.47E2,1.73E2,1.85E2,7.71E2,1.52E3,2.162E3,1.419E3,1.9E2,5.13E2,3.83E2,3.9E2,3.65E2,5.82E2,7.6E1,9.7E1,5.1E1,1.34E2,2.02E2,5.69E2,3.79E2,1.141E3,5.51E2,1.611E3,3.24E2,1.095E3,1.62E2,2.8E1,3.29E2,1.84E2,1.81E2,2.02E2,1.06E2,2.84E2],"tree_param":{"num_deleted":"0","num_feature":"8","num_nodes":"49","size_leaf_vector":"1"}},{"base_weights":[1.669054E1,-8.590636E2,3.5611912E3,6.2202877E1,-1.0869773E3,7.0321113E3,2.7000312E3,-5.5239233E2,6.0601825E2,-1.3995122E3,-7.5616766E2,2.580001E2,4.386862E2,1.724236E3,3.57199E3,-6.580222E1,-3.2121045E2,2.202051E2,1.050985E3,-1.7978826E3,-1.2642562E3,-9.615418E2,-5.451109E2,2.1403357E3,1.5635594E3,3.8999514E3,3.2203206E3,-2.6173994E1,-1.0553662E1,1.7189125E0,1.853399E1,4.1799305E1,6.2768368E1,-8.35389E1,-9.2014694E1,-5.3062782E1,-6.689218E1,-4.0740715E1,-5.5448982E1,-1.9201374E1,-3.585401E1,1.27799614E2,1.0332285E2,9.34233E1,7.2775024E1,2.0701839E2,1.8254053E2,1.7775975E2,1.54293E2],"categories":[0,1,2,3,0,1,2,3,0,2,3,4,0,2,4,0,2,3,0,2,3,0,2,0,2,0,2,3,4],"categories_nodes":[1,2,13,14,19,20,21,22,25],"categories_segments":[0,4,8,12,15,18,21,23,25],"categories_sizes":[4,4,4,3,3,3,2,2,4],"default_left":[0,1,1,0,0,0,0,0,0,0,0,0,0,1,1,0,0,0,0,1,1,1,1,0,0,1,0,0,0,0,0,0,0,0,0,0,0,0,0,0,0,0,0,0,0,0,0,0,0],"id":29,"left_children":[1,3,5,7,9,11,13,15,17,19,21,-1,-1,23,25,-1,27,29,31,33,35,37,39,41,43,45,47,-1,-1,-1,-1,-1,-1,-1,-1,-1,-1,-1,-1,-1,-1,-1,-1,-1,-1,-1,-1,-1,-1],"loss_changes":[2.810768E10,1.5246546E9,5.343308E9,4.819549E8,6.007726E8,1.1154596E9,1.218219E9,1.1909659E8,1.3109917E8,1.589422E8,1.2214387E8,0E0,0E0,4.2183296E7,7.497933E7,0E0,1.149602E7,1.1479736E7,1.454992E7,1.000704E6,3.1997184E7,3.0096768E7,3.845117E7,4.60608E5,1.358976E7,8.124928E6,5.779456E6,0E0,0E0,0E0,0E0,0E0,0E0,0E0,0E0,0E0,0E0,0E0,0E0,0E0,0E0,0E0,0E0,0E0,0E0,0E0,0E0,0E0,0E0],"parents":[2147483647,0,0,1,1,2,2,3,3,4,4,5,5,6,6,7,7,8,8,9,9,10,10,13,13,14,14,16,16,17,17,18,18,19,19,20,20,21,21,22,22,23,23,24,24,25,25,26,26],"right_children":[2,4,6,8,10,12,14,16,18,20,22,-1,-1,24,26,-1,28,30,32,34,36,38,40,42,44,46,48,-1,-1,-1,-1,-1,-1,-1,-1,-1,-1,-1,-1,-1,-1,-1,-1,-1,-1,-1,-1,-1,-1],"split_conditions":[2.145E3,1E-45,1E-45,7.2E2,7.2E2,3.02E3,3.02E3,5.6E2,8.9E2,5.6E2,8.9E2,2.580001E2,4.386862E2,1E-45,1E-45,-6.580222E1,5.95E2,3E0,1.09E3,1E-45,1E-45,1E-45,1E-45,1E0,2E0,1E-45,2E0,-2.6173994E1,-1.0553662E1,1.7189125E0,1.853399E1,4.1799305E1,6.2768368E1,-8.35389E1,-9.2014694E1,-5.3062782E1,-6.689218E1,-4.0740715E1,-5.5448982E1,-1.9201374E1,-3.585401E1,1.27799614E2,1.0332285E2,9.34233E1,7.2775024E1,2.0701839E2,1.8254053E2,1.7775975E2,1.54293E2],"split_indices":[0,7,7,0,0,0,0,0,0,0,0,0,0,7,7,0,0,3,0,7,7,7,7,4,3,7,3,0,0,0,0,0,0,0,0,0,0,0,0,0,0,0,0,0,0,0,0,0,0],"split_type":[0,1,1,0,0,0,0,0,0,0,0,0,0,1,1,0,0,0,0,1,1,1,1,0,0,1,0,0,0,0,0,0,0,0,0,0,0,0,0,0,0,0,0,0,0,0,0,0,0],"sum_hessian":[9.053E3,7.26E3,1.793E3,1.44E3,5.82E3,3.55E2,1.438E3,6.76E2,7.64E2,2.991E3,2.829E3,1.73E2,1.82E2,6.8E2,7.58E2,1.56E2,5.2E2,4.1E2,3.54E2,7.55E2,2.236E3,1.432E3,1.397E3,1.86E2,4.94E2,3.87E2,3.71E2,1.82E2,3.38E2,1.84E2,2.26E2,1.75E2,1.79E2,1.99E2,5.56E2,5.99E2,1.637E3,7.21E2,7.11E2,7.23E2,6.74E2,2.3E1,1.63E2,1.25E2,3.69E2,1.89E2,1.98E2,9.9E1,2.72E2],"tree_param":{"num_deleted":"0","num_feature":"8","num_nodes":"49","size_leaf_vector":"1"}},{"base_weights":[1.3425539E1,3.3719033E3,-8.2082745E2,2.564158E3,6.665491E3,-1.0349263E3,4.4494713E1,3.395149E3,1.6697754E3,4.1809937E2,4.950915E3,-7.873958E2,-1.4179795E3,5.869085E2,-5.364513E2,2.7544495E3,3.5291328E3,1.5187306E3,2.1325215E3,3.7776597E3,2.5531023E2,-5.099679E2,-9.639152E2,-1.2687408E3,-1.708346E3,1.0058224E3,2.0661386E2,-3.0847263E2,-6.152032E1,4.623683E1,1.4086134E2,1.6535847E2,1.9357097E2,5.540849E1,8.1509865E1,8.771689E1,1.2000938E2,1.9603221E2,7.11112E1,-3.9883865E1,-2.1161692E1,-5.1589558E1,-3.312729E1,-7.268419E1,-6.0091206E1,-8.787995E1,-7.952447E1,3.678262E1,5.6919727E1,4.353608E0,2.2162249E1,-2.4015587E1,-7.427372E0],"categories":[0,1,4,5,6,7,0,1,2,4,5,6,7,0,1,2,4,5,6,7,0,2,4,0,2,4,7,1,5,7,4,0,1,2,4,5,7,4],"categories_nodes":[0,3,4,5,6,11,12,13,14],"categories_segments":[0,6,13,20,23,27,30,31,37],"categories_sizes":[6,7,7,3,4,3,1,6,1],"default_left":[1,0,0,1,1,1,1,0,0,0,0,1,1,1,1,0,0,0,0,0,0,0,0,0,0,0,0,0,0,0,0,0,0,0,0,0,0,0,0,0,0,0,0,0,0,0,0,0,0,0,0,0,0],"id":30,"left_children":[1,3,5,7,9,11,13,15,17,-1,19,21,23,25,27,29,31,33,35,37,-1,39,41,43,45,47,49,51,-1,-1,-1,-1,-1,-1,-1,-1,-1,-1,-1,-1,-1,-1,-1,-1,-1,-1,-1,-1,-1,-1,-1,-1,-1],"loss_changes":[2.5712267E10,4.8407634E9,1.3619251E9,1.0853827E9,1.0028503E9,5.5764224E8,4.600649E8,5.552128E7,4.6317184E7,0E0,1.3687808E7,1.7492403E8,9.802035E7,1.2007176E8,1.1115637E8,1.301632E7,3.468032E7,2.2814336E7,1.3200256E7,2.843712E6,0E0,3.4473504E7,4.40736E7,1.7200128E7,1.743872E6,1.2020864E7,1.1191456E7,1.4548756E7,0E0,0E0,0E0,0E0,0E0,0E0,0E0,0E0,0E0,0E0,0E0,0E0,0E0,0E0,0E0,0E0,0E0,0E0,0E0,0E0,0E0,0E0,0E0,0E0,0E0],"parents":[2147483647,0,0,1,1,2,2,3,3,4,4,5,5,6,6,7,7,8,8,10,10,11,11,12,12,13,13,14,14,15,15,16,16,17,17,18,18,19,19,21,21,22,22,23,23,24,24,25,25,26,26,27,27],"right_children":[2,4,6,8,10,12,14,16,18,-1,20,22,24,26,28,30,32,34,36,38,-1,40,42,44,46,48,50,52,-1,-1,-1,-1,-1,-1,-1,-1,-1,-1,-1,-1,-1,-1,-1,-1,-1,-1,-1,-1,-1,-1,-1,-1,-1],"split_conditions":[1E-45,2.999E2,1.503E2,1E-45,1E-45,1E-45,1E-45,-3.8E0,2.36E1,4.1809937E2,-1.38E1,1E-45,1E-45,1E-45,1E-45,-3.49E1,5E0,-8E0,3E0,-1.42E1,2.5531023E2,-5.7E0,2.41E1,-2.9E0,1.63E1,9E-1,1.65E1,7.6E0,-6.152032E1,4.623683E1,1.4086134E2,1.6535847E2,1.9357097E2,5.540849E1,8.1509865E1,8.771689E1,1.2000938E2,1.9603221E2,7.11112E1,-3.9883865E1,-2.1161692E1,-5.1589558E1,-3.312729E1,-7.268419E1,-6.0091206E1,-8.787995E1,-7.952447E1,3.678262E1,5.6919727E1,4.353608E0,2.2162249E1,-2.4015587E1,-7.427372E0],"split_indices":[6,1,1,6,6,5,5,2,2,0,2,5,5,5,5,2,3,2,3,2,0,2,2,2,2,2,2,2,0,0,0,0,0,0,0,0,0,0,0,0,0,0,0,0,0,0,0,0,0,0,0,0,0],"split_type":[1,0,0,1,1,1,1,0,0,0,0,1,1,1,1,0,0,0,0,0,0,0,0,0,0,0,0,0,0,0,0,0,0,0,0,0,0,0,0,0,0,0,0,0,0,0,0,0,0,0,0,0,0],"sum_hessian":[9.175E3,1.825E3,7.35E3,1.467E3,3.58E2,5.892E3,1.458E3,7.59E2,7.08E2,1.78E2,1.8E2,3.581E3,2.311E3,7.54E2,7.04E2,1.35E2,6.24E2,5.37E2,1.71E2,2.4E1,1.56E2,1.394E3,2.187E3,1.53E3,7.81E2,3.58E2,3.96E2,5.31E2,1.73E2,5E0,1.3E2,3.85E2,2.39E2,1.17E2,4.2E2,7.4E1,9.7E1,2.2E1,2E0,3.21E2,1.073E3,1.783E3,4.04E2,4.01E2,1.129E3,5.41E2,2.4E2,1.2E2,2.38E2,2.64E2,1.32E2,2.55E2,2.76E2],"tree_param":{"num_deleted":"0","num_feature":"8","num_nodes":"53","size_leaf_vector":"1"}},{"base_weights":[-1.6578773E1,-7.835116E2,3.1636052E3,2.752024E1,-9.835452E2,6.269522E3,2.4161636E3,-5.156474E2,5.3348755E2,-1.263621E3,-6.877366E2,2.3309795E2,3.934337E2,1.5595844E3,3.208819E3,-5.9057842E1,-2.9658408E2,1.7381244E2,9.6334796E2,-1.6236732E3,-1.1414194E3,-7.909956E2,-3.6003256E2,1.9713978E3,1.3996086E3,3.5532324E3,2.839641E3,-2.4978281E1,-8.822242E0,7.8786683E-1,1.5491256E1,3.7905148E1,5.786443E1,-7.755926E1,-8.480421E1,-5.1069305E1,-6.3633514E1,-3.2567825E1,-4.698057E1,-9.55836E0,-2.6393167E1,9.937716E1,-2.7808594E1,5.945727E1,7.8186615E1,2.0295317E2,1.6942905E2,1.5997852E2,1.3489792E2],"categories":[0,1,2,3,0,1,2,3,0,2,3,4,0,2,4,0,2,0,2,0,2,0,2],"categories_nodes":[1,2,13,14,19,20,21,22],"categories_segments":[0,4,8,12,15,17,19,21],"categories_sizes":[4,4,4,3,2,2,2,2],"default_left":[0,1,1,0,0,0,0,0,0,0,0,0,0,1,1,0,0,0,0,1,1,1,1,0,0,0,0,0,0,0,0,0,0,0,0,0,0,0,0,0,0,0,0,0,0,0,0,0,0],"id":31,"left_children":[1,3,5,7,9,11,13,15,17,19,21,-1,-1,23,25,-1,27,29,31,33,35,37,39,41,43,45,47,-1,-1,-1,-1,-1,-1,-1,-1,-1,-1,-1,-1,-1,-1,-1,-1,-1,-1,-1,-1,-1,-1],"loss_changes":[2.2431406E10,1.2021786E9,4.1333576E9,4.034435E8,4.915845E8,8.527923E8,9.740728E8,1.028681E8,1.1733626E8,1.3243136E8,9.760973E7,0E0,0E0,4.3027584E7,8.501811E7,0E0,1.2934008E7,8.916579E6,1.2895264E7,1.415808E6,3.465165E7,4.5022976E7,1.9595952E7,8.940544E6,1.5549696E7,1.8144256E7,1.0032384E7,0E0,0E0,0E0,0E0,0E0,0E0,0E0,0E0,0E0,0E0,0E0,0E0,0E0,0E0,0E0,0E0,0E0,0E0,0E0,0E0,0E0,0E0],"parents":[2147483647,0,0,1,1,2,2,3,3,4,4,5,5,6,6,7,7,8,8,9,9,10,10,13,13,14,14,16,16,17,17,18,18,19,19,20,20,21,21,22,22,23,23,24,24,25,25,26,26],"right_children":[2,4,6,8,10,12,14,16,18,20,22,-1,-1,24,26,-1,28,30,32,34,36,38,40,42,44,46,48,-1,-1,-1,-1,-1,-1,-1,-1,-1,-1,-1,-1,-1,-1,-1,-1,-1,-1,-1,-1,-1,-1],"split_conditions":[2.145E3,1E-45,1E-45,7.2E2,7.2E2,3.02E3,3.02E3,5.6E2,8.9E2,5.6E2,1.09E3,2.3309795E2,3.934337E2,1E-45,1E-45,-5.9057842E1,5.95E2,3E0,1.09E3,1E-45,1E-45,1E-45,1E-45,1.503E2,3E0,2E0,2E0,-2.4978281E1,-8.822242E0,7.8786683E-1,1.5491256E1,3.7905148E1,5.786443E1,-7.755926E1,-8.480421E1,-5.1069305E1,-6.3633514E1,-3.2567825E1,-4.698057E1,-9.55836E0,-2.6393167E1,9.937716E1,-2.7808594E1,5.945727E1,7.8186615E1,2.0295317E2,1.6942905E2,1.5997852E2,1.3489792E2],"split_indices":[0,7,7,0,0,0,0,0,0,0,0,0,0,7,7,0,0,3,0,7,7,7,7,1,3,3,3,0,0,0,0,0,0,0,0,0,0,0,0,0,0,0,0,0,0,0,0,0,0],"split_type":[0,1,1,0,0,0,0,0,0,0,0,0,0,1,1,0,0,0,0,1,1,1,1,0,0,0,0,0,0,0,0,0,0,0,0,0,0,0,0,0,0,0,0,0,0,0,0,0,0],"sum_hessian":[9.195E3,7.409E3,1.786E3,1.466E3,5.943E3,3.45E2,1.441E3,7.07E2,7.59E2,3.051E3,2.892E3,1.74E2,1.71E2,6.94E2,7.47E2,1.74E2,5.33E2,4.14E2,3.45E2,7.7E2,2.281E3,2.198E3,6.94E2,1.91E2,5.03E2,3.82E2,3.65E2,1.97E2,3.36E2,1.92E2,2.22E2,1.7E2,1.75E2,3.96E2,3.74E2,1.196E3,1.085E3,1.136E3,1.062E3,3.47E2,3.47E2,1.9E2,1E0,2.24E2,2.79E2,8.8E1,2.94E2,9.7E1,2.68E2],"tree_param":{"num_deleted":"0","num_feature":"8","num_nodes":"49","size_leaf_vector":"1"}},{"base_weights":[1.013758E1,-7.430692E2,3.057101E3,-9.35934E2,4.1450592E1,2.3203193E3,6.0059644E3,-1.2802821E3,-7.123862E2,-4.7636365E2,5.07497E2,1.4741283E3,3.109184E3,4.414533E3,7.4308936E3,-1.5440765E3,-1.1461775E3,-8.687775E2,-4.6687158E2,-1.1327587E3,-2.5407771E2,1.735601E2,8.991384E2,1.3456885E3,1.9883744E3,2.9711372E3,3.6884648E3,3.442062E3,2.285399E2,7.509235E3,3.7899543E3,-8.050338E1,-7.3064064E1,-6.876673E1,-5.4643604E1,-4.872816E1,-3.385273E1,-3.1541962E1,-1.621432E1,-6.0595783E1,-5.1723114E1,-2.0836988E1,-4.709608E0,-9.302391E-3,1.6259697E1,3.1115131E1,5.2134834E1,3.931486E1,7.0785904E1,8.2361176E1,1.11484E2,1.3443486E2,1.5773154E2,1.6999101E2,2.1868895E2,5.239665E1,1.7929604E2,2.2265787E2,3.7936154E2,2.6838174E2,2.1153126E1],"categories":[],"categories_nodes":[],"categories_segments":[],"categories_sizes":[],"default_left":[0,0,0,0,0,0,0,0,0,0,0,0,0,0,0,0,0,0,0,0,0,0,0,0,0,0,0,0,0,0,0,0,0,0,0,0,0,0,0,0,0,0,0,0,0,0,0,0,0,0,0,0,0,0,0,0,0,0,0,0,0],"id":32,"left_children":[1,3,5,7,9,11,13,15,17,19,21,23,25,27,29,31,33,35,37,39,41,43,45,47,49,51,53,55,-1,57,59,-1,-1,-1,-1,-1,-1,-1,-1,-1,-1,-1,-1,-1,-1,-1,-1,-1,-1,-1,-1,-1,-1,-1,-1,-1,-1,-1,-1,-1,-1],"loss_changes":[2.0946383E10,1.1072983E9,3.9164232E9,4.5125837E8,3.489571E8,9.626675E8,7.858268E8,7.998438E7,1.3643891E8,9.965875E7,9.937021E7,4.3625216E7,4.893645E7,1.0556672E7,2.5450496E7,1.886976E6,1.7259648E7,4.3472896E7,3.2269376E7,9.24E4,1.3302502E7,1.0854527E7,1.3260832E7,2.0980928E7,7.687552E6,2.313216E7,1.2823808E7,5.885856E6,0E0,1.0072064E7,2.9600424E7,0E0,0E0,0E0,0E0,0E0,0E0,0E0,0E0,0E0,0E0,0E0,0E0,0E0,0E0,0E0,0E0,0E0,0E0,0E0,0E0,0E0,0E0,0E0,0E0,0E0,0E0,0E0,0E0,0E0,0E0],"parents":[2147483647,0,0,1,1,2,2,3,3,4,4,5,5,6,6,7,7,8,8,9,9,10,10,11,11,12,12,13,13,14,14,15,15,16,16,17,17,18,18,19,19,20,20,21,21,22,22,23,23,24,24,25,25,26,26,27,27,29,29,30,30],"right_children":[2,4,6,8,10,12,14,16,18,20,22,24,26,28,30,32,34,36,38,40,42,44,46,48,50,52,54,56,-1,58,60,-1,-1,-1,-1,-1,-1,-1,-1,-1,-1,-1,-1,-1,-1,-1,-1,-1,-1,-1,-1,-1,-1,-1,-1,-1,-1,-1,-1,-1,-1],"split_conditions":[2.145E3,2.999E2,1.503E2,6.8E2,7.2E2,3.02E3,3.02E3,5.6E2,8.9E2,5.6E2,8.9E2,2.64E1,3.24E1,-1.34E1,4.59E1,9.2E0,-8E0,1.45E1,6.7E0,1.06E1,7.6E0,6.5E0,9E-1,-1.51E1,3E0,3E0,3E0,2.999E2,2.285399E2,2.999E2,3.248E2,-8.050338E1,-7.3064064E1,-6.876673E1,-5.4643604E1,-4.872816E1,-3.385273E1,-3.1541962E1,-1.621432E1,-6.0595783E1,-5.1723114E1,-2.0836988E1,-4.709608E0,-9.302391E-3,1.6259697E1,3.1115131E1,5.2134834E1,3.931486E1,7.0785904E1,8.2361176E1,1.11484E2,1.3443486E2,1.5773154E2,1.6999101E2,2.1868895E2,5.239665E1,1.7929604E2,2.2265787E2,3.7936154E2,2.6838174E2,2.1153126E1],"split_indices":[0,1,1,0,0,0,0,0,0,0,0,2,2,2,2,2,2,2,2,2,2,2,2,2,3,3,3,1,0,1,1,0,0,0,0,0,0,0,0,0,0,0,0,0,0,0,0,0,0,0,0,0,0,0,0,0,0,0,0,0,0],"split_type":[0,0,0,0,0,0,0,0,0,0,0,0,0,0,0,0,0,0,0,0,0,0,0,0,0,0,0,0,0,0,0,0,0,0,0,0,0,0,0,0,0,0,0,0,0,0,0,0,0,0,0,0,0,0,0,0,0,0,0,0,0],"sum_hessian":[9.125E3,7.317E3,1.808E3,5.873E3,1.444E3,1.448E3,3.6E2,2.31E3,3.563E3,6.84E2,7.6E2,7E2,7.48E2,1.72E2,1.88E2,7.75E2,1.535E3,2.175E3,1.388E3,1.72E2,5.12E2,4.11E2,3.49E2,5.63E2,1.37E2,6.09E2,1.39E2,2.7E1,1.45E2,1.83E2,5E0,4.21E2,3.54E2,2.85E2,1.25E3,1.399E3,7.76E2,6.44E2,7.44E2,8.9E1,8.3E1,2.53E2,2.59E2,1.92E2,2.19E2,1.21E2,2.28E2,6.4E1,4.99E2,6E1,7.7E1,2.46E2,3.63E2,1.02E2,3.7E1,2E0,2.5E1,6E0,1.77E2,3E0,2E0],"tree_param":{"num_deleted":"0","num_feature":"8","num_nodes":"61","size_leaf_vector":"1"}},{"base_weights":[-9.8628587E-1,-7.070157E2,2.8641396E3,-8.922245E2,2.8949238E1,2.186025E3,5.589257E3,-1.2168657E3,-6.8249854E2,-4.614929E2,4.8445828E2,1.3994631E3,2.9217683E3,4.053267E3,6.981897E3,-7.334333E1,-1.0866581E3,-8.308572E2,-4.474448E2,-5.258241E1,-2.6935876E2,1.705764E2,8.5938354E2,1.1792144E3,1.5725575E3,3.3639768E3,2.7754404E3,2.2938768E2,3.8554932E3,3.932335E2,6.5800464E3,-5.886028E1,-4.9692642E1,-4.972958E1,-3.8901775E1,-2.9270878E1,-1.504378E1,-1.814473E1,-3.3606675E0,5.2021486E-1,1.5212003E1,3.4344173E1,5.1020046E1,8.105692E1,3.489053E1,5.78833E1,8.2931076E1,1.7256393E2,1.3208995E2,1.0480731E2,1.5356543E2,1.3670822E2,2.1275146E2,2.5321878E2,3.649226E2],"categories":[],"categories_nodes":[],"categories_segments":[],"categories_sizes":[],"default_left":[0,0,0,0,0,0,0,0,0,0,0,0,0,0,0,0,0,0,0,0,0,0,0,0,0,0,0,0,0,0,0,0,0,0,0,0,0,0,0,0,0,0,0,0,0,0,0,0,0,0,0,0,0,0,0],"id":33,"left_children":[1,3,5,7,9,11,13,15,17,19,21,23,25,27,29,-1,31,33,35,-1,37,39,41,43,45,47,49,-1,51,-1,53,-1,-1,-1,-1,-1,-1,-1,-1,-1,-1,-1,-1,-1,-1,-1,-1,-1,-1,-1,-1,-1,-1,-1,-1],"loss_changes":[1.8673052E10,1.0095173E9,3.3602755E9,4.0203213E8,3.330908E8,8.425605E8,7.4818765E8,7.395917E7,1.2506368E8,8.113002E7,9.082179E7,2.5175424E7,3.951667E7,8.10752E5,1.5296512E7,0E0,1.1686912E7,1.8288E7,2.8014112E7,0E0,1.0242568E7,9.031513E6,9.076096E6,6.609584E7,1.2148544E7,2.420096E6,1.0872474E8,0E0,4.839949E7,0E0,1.1112346E8,0E0,0E0,0E0,0E0,0E0,0E0,0E0,0E0,0E0,0E0,0E0,0E0,0E0,0E0,0E0,0E0,0E0,0E0,0E0,0E0,0E0,0E0,0E0,0E0],"parents":[2147483647,0,0,1,1,2,2,3,3,4,4,5,5,6,6,7,7,8,8,9,9,10,10,11,11,12,12,13,13,14,14,16,16,17,17,18,18,20,20,21,21,22,22,23,23,24,24,25,25,26,26,28,28,30,30],"right_children":[2,4,6,8,10,12,14,16,18,20,22,24,26,28,30,-1,32,34,36,-1,38,40,42,44,46,48,50,-1,52,-1,54,-1,-1,-1,-1,-1,-1,-1,-1,-1,-1,-1,-1,-1,-1,-1,-1,-1,-1,-1,-1,-1,-1,-1,-1],"split_conditions":[2.145E3,1.503E2,1.503E2,6.8E2,7.2E2,3.02E3,3.02E3,5.6E2,8.9E2,5.6E2,8.9E2,3E0,2E0,2E0,2E0,-7.334333E1,5.95E2,1.22E2,1.09E3,-5.258241E1,6.8E2,3E0,1.09E3,2E0,1.202E2,6E0,3E0,2.2938768E2,3E0,3.932335E2,3E0,-5.886028E1,-4.9692642E1,-4.972958E1,-3.8901775E1,-2.9270878E1,-1.504378E1,-1.814473E1,-3.3606675E0,5.2021486E-1,1.5212003E1,3.4344173E1,5.1020046E1,8.105692E1,3.489053E1,5.78833E1,8.2931076E1,1.7256393E2,1.3208995E2,1.0480731E2,1.5356543E2,1.3670822E2,2.1275146E2,2.5321878E2,3.649226E2],"split_indices":[0,1,1,0,0,0,0,0,0,0,0,3,3,3,3,0,0,1,0,0,0,3,0,3,1,4,3,0,3,0,3,0,0,0,0,0,0,0,0,0,0,0,0,0,0,0,0,0,0,0,0,0,0,0,0],"split_type":[0,0,0,0,0,0,0,0,0,0,0,0,0,0,0,0,0,0,0,0,0,0,0,0,0,0,0,0,0,0,0,0,0,0,0,0,0,0,0,0,0,0,0,0,0,0,0,0,0,0,0,0,0,0,0],"sum_hessian":[9.229E3,7.405E3,1.824E3,5.916E3,1.489E3,1.462E3,3.62E2,2.32E3,3.596E3,7.17E2,7.72E2,7.08E2,7.54E2,1.74E2,1.88E2,7.91E2,1.529E3,2.203E3,1.393E3,1.75E2,5.42E2,4.21E2,3.51E2,3.15E2,3.93E2,1.82E2,5.72E2,4.1E1,1.33E2,5.3E1,1.35E2,7.68E2,7.61E2,5.33E2,1.67E3,7.16E2,6.77E2,3.7E2,1.72E2,1.92E2,2.29E2,1.72E2,1.79E2,1.63E2,1.52E2,7E1,3.23E2,1.59E2,2.3E1,1.76E2,3.96E2,3.7E1,9.6E1,4.6E1,8.9E1],"tree_param":{"num_deleted":"0","num_feature":"8","num_nodes":"55","size_leaf_vector":"1"}},{"base_weights":[-5.357E0,2.7426372E3,-6.728642E2,5.43751E3,2.0688857E3,3.9583454E1,-8.4628534E2,6.6999497E3,4.1448613E3,2.7841907E3,1.3129324E3,1.7311838E2,-5.042907E1,-7.64438E2,-1.3945841E3,6.7480996E3,1.6097383E3,3.7326282E3,4.4517036E3,3.097397E3,2.44945E3,1.7346937E3,1.1449688E3,2.7015272E1,3.332167E2,-1.0681127E3,-7.0932697E2,-7.492783E1,-1.3471393E3,1.8932503E2,3.4146982E2,1.1172481E2,9.005567E0,2.1927681E2,1.3792001E2,1.2893674E2,2.2729118E2,1.4871272E2,1.9607538E2,1.1088423E2,1.5015411E2,7.9225685E1,