{"learner":{"attributes":{"scikit_learn":"{\"_estimator_type\": \"regressor\"}"},"feature_names":["distance_nm","takeoff_weight_klbs","headwind_kt","month","day_of_week","origin","dest","aircraft_type"],"feature_types":["int","float","float","int","int","c","c","c"],"gradient_booster":{"model":{"cats":{"enc":[{"offsets":[],"values":[]},{"offsets":[],"values":[]},{"offsets":[],"values":[]},{"offsets":[],"values":[]},{"offsets":[],"values":[]},{"offsets":[0,3,6,9,12,15,18,21,24],"values":[65,84,76,66,79,83,68,70,87,74,70,75,76,65,88,79,82,68,83,69,65,83,70,79]},{"offsets":[0,3,6,9,12,15,18,21,24],"values":[68,69,78,68,70,87,76,65,88,76,72,82,77,73,65,79,82,68,83,69,65,83,70,79]},{"offsets":[0,4,8,12,16,20],"values":[65,51,50,48,65,51,50,49,66,55,51,55,66,55,51,56,66,55,56,57]}],"feature_segments":[0,0,0,0,0,0,8,16,21],"sorted_idx":[0,1,2,3,4,5,6,7,0,1,2,3,4,5,6,7,0,1,2,3,4]},"gbtree_model_param":{"num_parallel_tree":"1","num_trees":"300"},"iteration_indptr":[0,1,2,3,4,5,6,7,8,9,10,11,12,13,14,15,16,17,18,19,20,21,22,23,24,25,26,27,28,29,30,31,32,33,34,35,36,37,38,39,40,41,42,43,44,45,46,47,48,49,50,51,52,53,54,55,56,57,58,59,60,61,62,63,64,65,66,67,68,69,70,71,72,73,74,75,76,77,78,79,80,81,82,83,84,85,86,87,88,89,90,91,92,93,94,95,96,97,98,99,100,101,102,103,104,105,106,107,108,109,110,111,112,113,114,115,116,117,118,119,120,121,122,123,124,125,126,127,128,129,130,131,132,133,134,135,136,137,138,139,140,141,142,143,144,145,146,147,148,149,150,151,152,153,154,155,156,157,158,159,160,161,162,163,164,165,166,167,168,169,170,171,172,173,174,175,176,177,178,179,180,181,182,183,184,185,186,187,188,189,190,191,192,193,194,195,196,197,198,199,200,201,202,203,204,205,206,207,208,209,210,211,212,213,214,215,216,217,218,219,220,221,222,223,224,225,226,227,228,229,230,231,232,233,234,235,236,237,238,239,240,241,242,243,244,245,246,247,248,249,250,251,252,253,254,255,256,257,258,259,260,261,262,263,264,265,266,267,268,269,270,271,272,273,274,275,276,277,278,279,280,281,282,283,284,285,286,287,288,289,290,291,292,293,294,295,296,297,298,299,300],"tree_info":[0,0,0,0,0,0,0,0,0,0,0,0,0,0,0,0,0,0,0,0,0,0,0,0,0,0,0,0,0,0,0,0,0,0,0,0,0,0,0,0,0,0,0,0,0,0,0,0,0,0,0,0,0,0,0,0,0,0,0,0,0,0,0,0,0,0,0,0,0,0,0,0,0,0,0,0,0,0,0,0,0,0,0,0,0,0,0,0,0,0,0,0,0,0,0,0,0,0,0,0,0,0,0,0,0,0,0,0,0,0,0,0,0,0,0,0,0,0,0,0,0,0,0,0,0,0,0,0,0,0,0,0,0,0,0,0,0,0,0,0,0,0,0,0,0,0,0,0,0,0,0,0,0,0,0,0,0,0,0,0,0,0,0,0,0,0,0,0,0,0,0,0,0,0,0,0,0,0,0,0,0,0,0,0,0,0,0,0,0,0,0,0,0,0,0,0,0,0,0,0,0,0,0,0,0,0,0,0,0,0,0,0,0,0,0,0,0,0,0,0,0,0,0,0,0,0,0,0,0,0,0,0,0,0,0,0,0,0,0,0,0,0,0,0,0,0,0,0,0,0,0,0,0,0,0,0,0,0,0,0,0,0,0,0,0,0,0,0,0,0,0,0,0,0,0,0,0,0,0,0,0,0,0,0,0,0,0,0,0,0,0,0,0,0,0,0,0,0,0,0],"trees":[{"base_weights":[-1.6715433E1,-3.6719888E3,1.4771102E4,4.086707E1,-4.651645E3,1.142771E4,2.8082346E4,-1.4260667E3,4.406579E3,-5.4963564E3,-2.0368594E3,7.6770425E3,1.5084048E4,1.0701979E3,1.7262373E3,-2.979862E2,-5.616214E2,2.8854402E3,2.9892307E2,-4.002561E2,-4.9687734E3,-2.9029436E3,-1.1550845E3,7.005362E3,4.182603E2,7.072055E2,8.020068E2,-9.128072E1,7.6555705E0,1.3344925E2,1.6113423E2,-2.821052E2,-2.2538081E2,-1.53246E2,-1.2297377E2,-7.434655E1,-3.9399002E1,3.7569742E2,3.2507855E2],"categories":[0,1,2,3,0,2,4],"categories_nodes":[1,23],"categories_segments":[0,4],"categories_sizes":[4,3],"default_left":[0,1,0,0,0,0,0,0,0,0,0,0,0,0,0,0,0,0,0,0,0,0,0,1,0,0,0,0,0,0,0,0,0,0,0,0,0,0,0],"id":0,"left_children":[1,3,5,7,9,11,13,15,17,19,21,23,25,-1,-1,-1,27,29,-1,-1,31,33,35,37,-1,-1,-1,-1,-1,-1,-1,-1,-1,-1,-1,-1,-1,-1,-1],"loss_changes":[3.2291586E11,1.7422963E10,5.2372636E10,6.4168986E9,8.3599196E9,1.2884804E10,9.457943E9,2.935977E9,5.8529434E8,3.7509693E9,7.045888E8,1.5864422E8,2.035794E8,0E0,0E0,0E0,5.703359E8,8.88576E5,0E0,0E0,7.101686E8,2.6007296E7,5.4988416E7,1.3666304E7,0E0,0E0,0E0,0E0,0E0,0E0,0E0,0E0,0E0,0E0,0E0,0E0,0E0,0E0,0E0],"parents":[2147483647,0,0,1,1,2,2,3,3,4,4,5,5,6,6,7,7,8,8,9,9,10,10,11,11,12,12,16,16,17,17,20,20,21,21,22,22,23,23],"right_children":[2,4,6,8,10,12,14,16,18,20,22,24,26,-1,-1,-1,28,30,-1,-1,32,34,36,38,-1,-1,-1,-1,-1,-1,-1,-1,-1,-1,-1,-1,-1,-1,-1],"split_conditions":[2.145E3,1E-45,1.509E2,8.9E2,8.9E2,3.02E3,3.02E3,5.6E2,1.09E3,5.6E2,1.09E3,8.3E0,7.2E0,1.0701979E3,1.7262373E3,-2.979862E2,6.8E2,1.41E1,2.9892307E2,-4.002561E2,6.8E2,1.78E1,1.06E1,1E-45,4.182603E2,7.072055E2,8.020068E2,-9.128072E1,7.6555705E0,1.3344925E2,1.6113423E2,-2.821052E2,-2.2538081E2,-1.53246E2,-1.2297377E2,-7.434655E1,-3.9399002E1,3.7569742E2,3.2507855E2],"split_indices":[0,7,1,0,0,0,0,0,0,0,0,2,2,0,0,0,0,2,0,0,0,2,2,7,0,0,0,0,0,0,0,0,0,0,0,0,0,0,0],"split_type":[0,1,0,0,0,0,0,0,0,0,0,0,0,0,0,0,0,0,0,0,0,0,0,1,0,0,0,0,0,0,0,0,0,0,0,0,0,0,0],"sum_hessian":[5.972E3,4.789E3,1.183E3,1E3,3.789E3,9.47E2,2.36E2,7.49E2,2.51E2,2.863E3,9.26E2,4.69E2,4.78E2,1.18E2,1.18E2,1.19E2,6.3E2,1.29E2,1.22E2,4.95E2,2.368E3,4.66E2,4.6E2,2.43E2,2.26E2,2.49E2,2.29E2,2.27E2,4.03E2,8.4E1,4.5E1,9.58E2,1.41E3,3.37E2,1.29E2,2.4E2,2.2E2,1.14E2,1.29E2],"tree_param":{"num_deleted":"0","num_feature":"8","num_nodes":"39","size_leaf_vector":"1"}},{"base_weights":[-5.8192096E0,1.4104138E4,-3.4703425E3,1.0899093E4,2.6717791E4,7.604255E1,-4.3840356E3,1.4320952E4,7.3209985E3,1.6501914E3,1.0260587E3,8.3106244E2,-2.831385E2,-3.9307107E3,-3.8009027E2,6.7470905E2,7.638317E2,6.6097456E3,3.9871762E2,2.5237737E3,2.1902501E2,-3.175334E3,-4.228467E3,3.56406E2,3.0667685E2,1.4330536E2,3.2106014E1,1.0029949E0,3.6934036E1,-1.872963E2,-1.4571127E2,-2.2342476E2,-2.0158617E2],"categories":[0,1,4,5,6,7,0,1,2,3,0,1,2,4,5,6,7,0,1,2,4,5,6,7,7,7,0,1,2,3,5,6,7,0,1,5,6,0,2,4],"categories_nodes":[0,2,3,4,5,6,11,13,17],"categories_segments":[0,6,10,17,24,25,26,33,37],"categories_sizes":[6,4,7,7,1,1,7,4,3],"default_left":[1,0,1,1,1,1,1,0,0,0,0,1,0,1,0,0,0,1,0,0,0,0,0,0,0,0,0,0,0,0,0,0,0],"id":1,"left_children":[1,3,5,7,9,11,13,15,17,-1,-1,19,-1,21,-1,-1,-1,23,-1,25,27,29,31,-1,-1,-1,-1,-1,-1,-1,-1,-1,-1],"loss_changes":[2.933546E11,4.7534342E10,1.5612133E10,1.1465482E10,8.632287E9,4.2856282E9,5.5583785E9,1.747026E8,1.6291226E8,0E0,0E0,9.049134E8,0E0,7.423017E8,0E0,0E0,0E0,1.2562432E7,0E0,1.476032E8,6.6467104E7,1.3121741E8,9.565389E7,0E0,0E0,0E0,0E0,0E0,0E0,0E0,0E0,0E0,0E0],"parents":[2147483647,0,0,1,1,2,2,3,3,4,4,5,5,6,6,7,7,8,8,11,11,13,13,17,17,19,19,20,20,21,21,22,22],"right_children":[2,4,6,8,10,12,14,16,18,-1,-1,20,-1,22,-1,-1,-1,24,-1,26,28,30,32,-1,-1,-1,-1,-1,-1,-1,-1,-1,-1],"split_conditions":[1E-45,1.509E2,1E-45,1E-45,1E-45,1E-45,1E-45,8.5E0,8.1E0,1.6501914E3,1.0260587E3,1E-45,-2.831385E2,1E-45,-3.8009027E2,6.7470905E2,7.638317E2,1E-45,3.9871762E2,3.388E2,1.84E1,5E-1,4.9E0,3.56406E2,3.0667685E2,1.4330536E2,3.2106014E1,1.0029949E0,3.6934036E1,-1.872963E2,-1.4571127E2,-2.2342476E2,-2.0158617E2],"split_indices":[6,1,7,6,6,6,6,2,2,0,0,6,0,6,0,0,0,7,0,1,2,2,2,0,0,0,0,0,0,0,0,0,0],"split_type":[1,0,1,1,1,1,1,0,0,0,0,1,0,1,0,0,0,1,0,0,0,0,0,0,0,0,0,0,0,0,0,0,0],"sum_hessian":[5.999E3,1.182E3,4.817E3,9.44E2,2.38E2,9.87E2,3.83E3,4.81E2,4.63E2,1.16E2,1.22E2,8.73E2,1.14E2,3.359E3,4.71E2,2.66E2,2.15E2,2.27E2,2.36E2,2.31E2,6.42E2,9.53E2,2.406E3,1.02E2,1.25E2,1.95E2,3.6E1,4.65E2,1.77E2,2.95E2,6.58E2,1.074E3,1.332E3],"tree_param":{"num_deleted":"0","num_feature":"8","num_nodes":"33","size_leaf_vector":"1"}},{"base_weights":[-8.930238E0,-3.3139653E3,1.3463296E4,2.8538734E1,-4.190163E3,2.538441E4,1.0360638E4,-1.384507E3,4.097781E3,-4.9813496E3,-1.7268319E3,9.7450604E2,1.5731595E3,6.973003E3,1.3633986E4,-2.6833762E2,-6.392004E2,1.3752934E2,2.7545953E2,-3.6141342E2,-4.515034E3,-2.5476367E3,-9.4542596E2,3.7429126E2,3.2326575E2,7.1928546E2,6.407611E2,-9.204528E1,7.076773E0,-2.5855847E2,-2.0383003E2,-1.0685311E2,-1.3439705E2,-3.1460855E1,-6.2494415E1],"categories":[0,1,2,3,0,1,2,3,0,2,4,0,2,4,0,2,3,0,2],"categories_nodes":[1,2,13,14,21,22],"categories_segments":[0,4,8,11,14,17],"categories_sizes":[4,4,3,3,3,2],"default_left":[0,1,1,0,0,0,0,0,0,0,0,0,0,1,1,0,0,0,0,0,0,1,1,0,0,0,0,0,0,0,0,0,0,0,0],"id":2,"left_children":[1,3,5,7,9,11,13,15,17,19,21,-1,-1,23,25,-1,27,-1,-1,-1,29,31,33,-1,-1,-1,-1,-1,-1,-1,-1,-1,-1,-1,-1],"loss_changes":[2.6671191E11,1.4087143E10,4.3381834E10,5.7556987E9,7.4188677E9,8.0934994E9,1.0306322E10,2.201789E9,4.754181E8,2.989138E9,5.927936E8,0E0,0E0,7.21449E7,1.0861773E8,0E0,5.8852096E8,0E0,0E0,0E0,6.667428E8,2.0293376E7,4.5136064E7,0E0,0E0,0E0,0E0,0E0,0E0,0E0,0E0,0E0,0E0,0E0,0E0],"parents":[2147483647,0,0,1,1,2,2,3,3,4,4,5,5,6,6,7,7,8,8,9,9,10,10,13,13,14,14,16,16,20,20,21,21,22,22],"right_children":[2,4,6,8,10,12,14,16,18,20,22,-1,-1,24,26,-1,28,-1,-1,-1,30,32,34,-1,-1,-1,-1,-1,-1,-1,-1,-1,-1,-1,-1],"split_conditions":[2.145E3,1E-45,1E-45,8.9E2,8.9E2,3.02E3,3.02E3,5.6E2,1.09E3,5.6E2,1.09E3,9.7450604E2,1.5731595E3,1E-45,1E-45,-2.6833762E2,6.8E2,1.3752934E2,2.7545953E2,-3.6141342E2,6.8E2,1E-45,1E-45,3.7429126E2,3.2326575E2,7.1928546E2,6.407611E2,-9.204528E1,7.076773E0,-2.5855847E2,-2.0383003E2,-1.0685311E2,-1.3439705E2,-3.1460855E1,-6.2494415E1],"split_indices":[0,7,7,0,0,0,0,0,0,0,0,0,0,7,7,0,0,0,0,0,0,7,7,0,0,0,0,0,0,0,0,0,0,0,0],"split_type":[0,1,1,0,0,0,0,0,0,0,0,0,0,1,1,0,0,0,0,0,0,1,1,0,0,0,0,0,0,0,0,0,0,0,0],"sum_hessian":[5.988E3,4.809E3,1.179E3,9.99E2,3.81E3,2.42E2,9.37E2,7.42E2,2.57E2,2.883E3,9.27E2,1.25E2,1.17E2,4.62E2,4.75E2,1.16E2,6.26E2,1.33E2,1.24E2,4.93E2,2.39E3,4.51E2,4.76E2,2.23E2,2.39E2,2.39E2,2.36E2,2.46E2,3.8E2,9.53E2,1.437E3,1.19E2,3.32E2,2.35E2,2.41E2],"tree_param":{"num_deleted":"0","num_feature":"8","num_nodes":"35","size_leaf_vector":"1"}},{"base_weights":[-4.6355205E0,1.2737813E4,-3.136768E3,2.382397E4,9.796274E3,-1.2541492E1,-3.9649224E3,1.4831913E3,9.275719E2,1.28901045E4,6.6283086E3,3.8288616E3,-1.3252162E3,-1.660384E3,-4.710661E3,5.9482513E2,6.8413855E2,5.9949463E3,7.2359414E3,2.6265942E2,2.5908345E3,-5.7352106E2,-2.5545857E2,-8.7818665E2,-2.4176257E3,-4.2846875E3,-3.4350977E2,3.2401193E2,2.7819568E2,3.869408E2,3.326327E2,1.1441827E2,1.434453E2,6.0600276E0,-8.605984E1,-6.316037E1,-2.9685133E1,-1.3657013E2,-1.114104E2,-1.9338152E2,-2.4497038E2],"categories":[0,1,4,5,6,7,0,1,2,3,0,1,2,3,0,1,2,4,5,6,7,0,1,2,4,5,6,7,0,1,2,4,5,7,0,1,2,4,5,7,0,1,2,4,5,6,7,4,6,4,0,2,4,0,2,4,0,2,0,2],"categories_nodes":[0,1,2,3,4,5,6,11,12,13,14,17,18,21,25],"categories_segments":[0,6,10,14,21,28,34,40,47,48,49,50,53,56,58],"categories_sizes":[6,4,4,7,7,6,6,7,1,1,1,3,3,2,2],"default_left":[1,1,1,1,1,1,1,0,0,0,0,1,1,1,1,0,0,1,1,0,0,1,0,0,0,1,0,0,0,0,0,0,0,0,0,0,0,0,0,0,0],"id":3,"left_children":[1,3,5,7,9,11,13,-1,-1,15,17,19,21,23,25,-1,-1,27,29,-1,31,33,-1,35,37,39,-1,-1,-1,-1,-1,-1,-1,-1,-1,-1,-1,-1,-1,-1,-1],"loss_changes":[2.399053E11,3.84425E10,1.2483875E10,7.085834E9,9.117835E9,5.1080965E9,6.546862E9,0E0,0E0,2.105426E8,1.3596262E8,4.413353E8,2.1445773E9,5.510968E8,2.620801E9,0E0,0E0,1.2891648E7,1.6859136E7,0E0,5.210048E6,5.0331443E8,0E0,4.9744416E7,2.2086144E7,5.986509E8,0E0,0E0,0E0,0E0,0E0,0E0,0E0,0E0,0E0,0E0,0E0,0E0,0E0,0E0,0E0],"parents":[2147483647,0,0,1,1,2,2,3,3,4,4,5,5,6,6,9,9,10,10,11,11,12,12,13,13,14,14,17,17,18,18,20,20,21,21,23,23,24,24,25,25],"right_children":[2,4,6,8,10,12,14,-1,-1,16,18,20,22,24,26,-1,-1,28,30,-1,32,34,-1,36,38,40,-1,-1,-1,-1,-1,-1,-1,-1,-1,-1,-1,-1,-1,-1,-1],"split_conditions":[1E-45,1E-45,1E-45,1E-45,1E-45,1E-45,1E-45,1.4831913E3,9.275719E2,4.3E0,8.3E0,1E-45,1E-45,1E-45,1E-45,5.9482513E2,6.8413855E2,1E-45,1E-45,2.6265942E2,6.9E0,1E-45,-2.5545857E2,6.9E0,1.2E0,1E-45,-3.4350977E2,3.2401193E2,2.7819568E2,3.869408E2,3.326327E2,1.1441827E2,1.434453E2,6.0600276E0,-8.605984E1,-6.316037E1,-2.9685133E1,-1.3657013E2,-1.114104E2,-1.9338152E2,-2.4497038E2],"split_indices":[6,7,7,6,6,5,5,0,0,2,2,5,5,5,5,0,0,7,7,0,2,5,0,2,2,5,0,0,0,0,0,0,0,0,0,0,0,0,0,0,0],"split_type":[1,1,1,1,1,1,1,0,0,0,0,1,1,1,1,0,0,1,1,0,0,1,0,0,0,1,0,0,0,0,0,0,0,0,0,0,0,0,0,0,0],"sum_hessian":[6.009E3,1.185E3,4.824E3,2.47E2,9.38E2,1.011E3,3.813E3,1.15E2,1.32E2,4.73E2,4.65E2,2.57E2,7.54E2,9.33E2,2.88E3,2.17E2,2.56E2,2.33E2,2.32E2,1.18E2,1.39E2,6.3E2,1.24E2,4.6E2,4.73E2,2.408E3,4.72E2,1.03E2,1.3E2,1.18E2,1.14E2,7.1E1,6.8E1,3.93E2,2.37E2,1.94E2,2.66E2,1.73E2,3E2,1.439E3,9.69E2],"tree_param":{"num_deleted":"0","num_feature":"8","num_nodes":"41","size_leaf_vector":"1"}},{"base_weights":[-5.238966E1,-3.0060315E3,1.2082075E4,-1.5693096E1,-3.782507E3,9.407711E3,2.2876475E4,-1.2524042E3,3.7696074E3,-4.493295E3,-1.6042627E3,6.318503E3,1.2276425E4,8.8665735E2,1.4113502E3,-2.4301921E2,-5.4364905E2,2.490283E3,2.4991528E2,-3.260831E2,-4.0731323E3,-2.2873074E3,-8.655176E2,5.626036E3,6.8456304E3,5.623897E2,1.2980461E4,-8.159578E1,5.1510305E0,8.143051E1,1.2680318E2,-2.3300826E2,-1.8379156E2,-1.2548971E2,-1.0161826E2,-5.794822E1,-2.7689825E1,2.7646774E2,5.1302924E2,3.8855664E2,3.2768607E2,6.8538116E2,6.086628E2],"categories":[0,1,2,3,0,2,3,0,2,4],"categories_nodes":[1,24,26],"categories_segments":[0,4,7],"categories_sizes":[4,3,3],"default_left":[0,1,0,0,0,0,0,0,0,0,0,0,0,0,0,0,0,0,0,0,0,0,0,0,1,0,1,0,0,0,0,0,0,0,0,0,0,0,0,0,0,0,0],"id":4,"left_children":[1,3,5,7,9,11,13,15,17,19,21,23,25,-1,-1,-1,27,29,-1,-1,31,33,35,37,39,-1,41,-1,-1,-1,-1,-1,-1,-1,-1,-1,-1,-1,-1,-1,-1,-1,-1],"loss_changes":[2.164076E11,1.1275203E10,3.390695E10,4.6954066E9,5.9613716E9,8.332534E9,5.93902E9,1.9305815E9,3.7581286E8,2.4500593E9,4.773865E8,1.290281E8,2.0957594E8,0E0,0E0,0E0,4.456412E8,7.21856E5,0E0,0E0,5.449523E8,2.2862848E7,4.1253056E7,3.467264E7,1.823232E7,0E0,4.21888E5,0E0,0E0,0E0,0E0,0E0,0E0,0E0,0E0,0E0,0E0,0E0,0E0,0E0,0E0,0E0,0E0],"parents":[2147483647,0,0,1,1,2,2,3,3,4,4,5,5,6,6,7,7,8,8,9,9,10,10,11,11,12,12,16,16,17,17,20,20,21,21,22,22,23,23,24,24,26,26],"right_children":[2,4,6,8,10,12,14,16,18,20,22,24,26,-1,-1,-1,28,30,-1,-1,32,34,36,38,40,-1,42,-1,-1,-1,-1,-1,-1,-1,-1,-1,-1,-1,-1,-1,-1,-1,-1],"split_conditions":[2.145E3,1E-45,2.999E2,8.9E2,8.9E2,3.02E3,3.02E3,5.6E2,1.09E3,5.6E2,1.09E3,4.5E0,3E0,8.8665735E2,1.4113502E3,-2.4301921E2,6.8E2,-2.31E1,2.4991528E2,-3.260831E2,6.8E2,7.8E0,9.7E0,1.477E2,1E-45,5.623897E2,1E-45,-8.159578E1,5.1510305E0,8.143051E1,1.2680318E2,-2.3300826E2,-1.8379156E2,-1.2548971E2,-1.0161826E2,-5.794822E1,-2.7689825E1,2.7646774E2,5.1302924E2,3.8855664E2,3.2768607E2,6.8538116E2,6.086628E2],"split_indices":[0,7,1,0,0,0,0,0,0,0,0,2,2,0,0,0,0,2,0,0,0,2,2,1,7,0,7,0,0,0,0,0,0,0,0,0,0,0,0,0,0,0,0],"split_type":[0,1,0,0,0,0,0,0,0,0,0,0,0,0,0,0,0,0,0,0,0,0,0,0,1,0,1,0,0,0,0,0,0,0,0,0,0,0,0,0,0,0,0],"sum_hessian":[6.036E3,4.855E3,1.181E3,1.001E3,3.854E3,9.48E2,2.33E2,7.55E2,2.46E2,2.905E3,9.49E2,4.58E2,4.9E2,1.21E2,1.12E2,1.23E2,6.32E2,1.22E2,1.24E2,4.96E2,2.409E3,4.92E2,4.57E2,2.03E2,2.55E2,2.06E2,2.84E2,2.35E2,3.97E2,8E0,1.14E2,9.68E2,1.441E3,2.58E2,2.34E2,2.34E2,2.23E2,2.01E2,2E0,5.5E1,2E2,1.41E2,1.43E2],"tree_param":{"num_deleted":"0","num_feature":"8","num_nodes":"43","size_leaf_vector":"1"}},{"base_weights":[4.9277664E1,7.976624E3,-3.2803696E3,5.8693394E3,1.624312E4,-7.161095E2,-3.960375E3,6.7846074E3,5.590469E3,2.786528E2,1.6287162E4,6.799773E2,-2.6686956E3,-3.1690398E3,-5.0320537E3,6.3508105E3,8.0605195E3,5.5405244E3,5.2177386E2,1.5817783E4,1.8023871E4,2.3545083E3,1.1861733E2,-1.5644935E3,-2.3122855E2,-2.175474E3,-3.48871E3,-4.423416E3,-3.0962607E2,3.2479858E2,1.7302759E2,4.4294418E2,2.8657532E2,2.2280692E2,2.8183972E2,8.6280585E2,7.270643E2,9.8533246E2,7.589687E2,7.113915E1,1.2019714E2,-6.63117E0,2.0859074E1,-6.1586403E1,-9.15735E1,-1.24680374E2,-1.003458E2,-1.827321E2,-1.6042609E2,-2.285019E2,-2.1096243E2],"categories":[0,1,2,4,5,6,7,0,1,2,3,0,2,3,4,0,2,4,0,2,4,0,1,2,3,4,5,7,4,1,5,7,4,2],"categories_nodes":[0,2,3,5,6,11,12,13,14,23],"categories_segments":[0,7,11,15,18,21,28,29,32,33],"categories_sizes":[7,4,4,3,3,7,1,3,1,1],"default_left":[1,0,1,1,0,1,1,0,0,0,0,1,1,1,1,0,0,0,0,0,0,0,0,1,0,0,0,0,0,0,0,0,0,0,0,0,0,0,0,0,0,0,0,0,0,0,0,0,0,0,0],"id":5,"left_children":[1,3,5,7,9,11,13,15,17,-1,19,21,23,25,27,29,31,33,-1,35,37,39,41,43,-1,45,47,49,-1,-1,-1,-1,-1,-1,-1,-1,-1,-1,-1,-1,-1,-1,-1,-1,-1,-1,-1,-1,-1,-1,-1],"loss_changes":[1.5839778E11,3.0824907E10,7.3660867E9,3.234939E8,7.841382E7,2.4197586E9,2.8165612E9,1.2924621E8,2.0618854E8,0E0,6.725632E6,4.8664832E8,7.918469E8,6.0350054E8,9.734431E8,8.156877E7,9.611827E7,8.783462E7,0E0,2.8152627E8,3.1143936E7,2.567488E6,2.923479E7,1.8888128E7,0E0,2.0252416E7,5.587149E7,8.646656E6,0E0,0E0,0E0,0E0,0E0,0E0,0E0,0E0,0E0,0E0,0E0,0E0,0E0,0E0,0E0,0E0,0E0,0E0,0E0,0E0,0E0,0E0,0E0],"parents":[2147483647,0,0,1,1,2,2,3,3,4,4,5,5,6,6,7,7,8,8,10,10,11,11,12,12,13,13,14,14,15,15,16,16,17,17,19,19,20,20,21,21,22,22,23,23,25,25,26,26,27,27],"right_children":[2,4,6,8,10,12,14,16,18,-1,20,22,24,26,28,30,32,34,-1,36,38,40,42,44,-1,46,48,50,-1,-1,-1,-1,-1,-1,-1,-1,-1,-1,-1,-1,-1,-1,-1,-1,-1,-1,-1,-1,-1,-1,-1],"split_conditions":[1E-45,1.509E2,1E-45,1E-45,-3.42E1,1E-45,1E-45,2.12E1,5.14E1,2.786528E2,2.37E1,1E-45,1E-45,1E-45,1E-45,2E1,1E1,-1.59E1,5.2177386E2,2.4E0,3.247E2,-2.31E1,1.13E1,1E-45,-2.3122855E2,1E-1,1.3E1,1.13E1,-3.0962607E2,3.2479858E2,1.7302759E2,4.4294418E2,2.8657532E2,2.2280692E2,2.8183972E2,8.6280585E2,7.270643E2,9.8533246E2,7.589687E2,7.113915E1,1.2019714E2,-6.63117E0,2.0859074E1,-6.1586403E1,-9.15735E1,-1.24680374E2,-1.003458E2,-1.827321E2,-1.6042609E2,-2.285019E2,-2.1096243E2],"split_indices":[5,1,7,7,2,5,5,2,2,0,2,5,5,5,5,2,3,2,0,2,1,2,2,5,0,2,2,2,0,0,0,0,0,0,0,0,0,0,0,0,0,0,0,0,0,0,0,0,0,0,0],"split_type":[1,0,1,1,0,1,1,0,0,0,0,1,1,1,1,0,0,0,0,0,0,0,0,1,0,0,0,0,0,0,0,0,0,0,0,0,0,0,0,0,0,0,0,0,0,0,0,0,0,0,0],"sum_hessian":[5.999E3,1.774E3,4.225E3,1.415E3,3.59E2,8.86E2,3.339E3,3.25E2,1.09E3,2E0,3.57E2,5.17E2,3.69E2,1.923E3,1.416E3,2.47E2,7.8E1,1.081E3,9E0,2.89E2,6.8E1,1.29E2,3.88E2,2.37E2,1.32E2,4.7E2,1.453E3,9.32E2,4.84E2,2.34E2,1.3E1,5.6E1,2.2E1,9.2E1,9.89E2,1.3E2,1.59E2,3.9E1,2.9E1,8E0,1.21E2,2.11E2,1.77E2,1.08E2,1.29E2,1.58E2,3.12E2,9.05E2,5.48E2,5.3E2,4.02E2],"tree_param":{"num_deleted":"0","num_feature":"8","num_nodes":"51","size_leaf_vector":"1"}},{"base_weights":[-6.1716294E0,-2.7153728E3,1.1097384E4,-4.1195835E1,-3.4448767E3,8.639627E3,2.0715658E4,-1.1079974E3,3.142829E3,-4.0389656E3,-1.5872604E3,5.686124E3,1.138525E4,7.9593866E2,1.300868E3,-2.194189E2,-4.5936957E2,2.2535427E3,2.007323E2,-2.9393695E2,-3.6665159E3,-2.070174E3,-1.0879781E3,5.126996E3,3.1124753E2,5.259777E2,5.991335E2,-7.359834E1,6.1070976E0,9.790073E1,1.2287377E2,-2.1047188E2,-1.6570335E2,-8.337002E1,-1.10232925E2,-7.171761E1,-4.1746315E1,2.2351714E2,2.704619E2],"categories":[0,1,2,3,0,2,3],"categories_nodes":[1,21],"categories_segments":[0,4],"categories_sizes":[4,3],"default_left":[0,1,0,0,0,0,0,0,0,0,0,0,0,0,0,0,0,0,0,0,0,1,0,0,0,0,0,0,0,0,0,0,0,0,0,0,0,0,0],"id":6,"left_children":[1,3,5,7,9,11,13,15,17,19,21,23,25,-1,-1,-1,27,29,-1,-1,31,33,35,37,-1,-1,-1,-1,-1,-1,-1,-1,-1,-1,-1,-1,-1,-1,-1],"loss_changes":[1.7913695E11,9.33845E9,2.7431813E10,3.4919165E9,4.1441853E9,7.493042E9,5.613142E9,1.6363487E9,1.9097907E8,1.9306455E9,2.1788134E8,1.0395955E8,1.2323226E8,0E0,0E0,0E0,3.793908E8,3.02304E6,0E0,0E0,4.3993702E8,2.1403264E7,3.833283E7,1.7889792E7,0E0,0E0,0E0,0E0,0E0,0E0,0E0,0E0,0E0,0E0,0E0,0E0,0E0,0E0,0E0],"parents":[2147483647,0,0,1,1,2,2,3,3,4,4,5,5,6,6,7,7,8,8,9,9,10,10,11,11,12,12,16,16,17,17,20,20,21,21,22,22,23,23],"right_children":[2,4,6,8,10,12,14,16,18,20,22,24,26,-1,-1,-1,28,30,-1,-1,32,34,36,38,-1,-1,-1,-1,-1,-1,-1,-1,-1,-1,-1,-1,-1,-1,-1],"split_conditions":[2.145E3,1E-45,1.509E2,8.9E2,8.9E2,3.02E3,3.02E3,5.6E2,1.09E3,5.6E2,1.09E3,8.3E0,3E0,7.9593866E2,1.300868E3,-2.194189E2,6.8E2,4.5E0,2.007323E2,-2.9393695E2,6.8E2,1E-45,6.5E0,-9.1E0,3.1124753E2,5.259777E2,5.991335E2,-7.359834E1,6.1070976E0,9.790073E1,1.2287377E2,-2.1047188E2,-1.6570335E2,-8.337002E1,-1.10232925E2,-7.171761E1,-4.1746315E1,2.2351714E2,2.704619E2],"split_indices":[0,7,1,0,0,0,0,0,0,0,0,2,2,0,0,0,0,2,0,0,0,7,2,2,0,0,0,0,0,0,0,0,0,0,0,0,0,0,0],"split_type":[0,1,0,0,0,0,0,0,0,0,0,0,0,0,0,0,0,0,0,0,0,1,0,0,0,0,0,0,0,0,0,0,0,0,0,0,0,0,0],"sum_hessian":[5.953E3,4.786E3,1.167E3,1.026E3,3.76E3,9.31E2,2.36E2,7.69E2,2.57E2,2.848E3,9.12E2,4.5E2,4.81E2,1.26E2,1.1E2,1.26E2,6.43E2,1.29E2,1.28E2,4.77E2,2.371E3,4.62E2,4.5E2,2.26E2,2.24E2,2.04E2,2.77E2,2.34E2,4.09E2,5.7E1,7.2E1,9.29E2,1.442E3,1.19E2,3.43E2,1.88E2,2.62E2,7.3E1,1.53E2],"tree_param":{"num_deleted":"0","num_feature":"8","num_nodes":"39","size_leaf_vector":"1"}},{"base_weights":[1.1278435E1,1.0598586E4,-2.6031184E3,8.257169E3,1.9774545E4,-7.342249E1,-3.2762656E3,1.0867774E4,5.398913E3,1.2328304E3,7.561503E2,5.024149E2,-2.0840953E2,-2.9358887E3,-2.7994058E2,5.0846378E2,5.8337177E2,4.6482363E3,5.7903027E3,1.4762211E3,1.6030313E2,-2.464831E3,-3.1187795E3,1.9730724E2,2.4515398E2,3.0879083E2,2.6744522E2,3.8724827E1,8.8210686E1,-1.1856146E-1,3.1412252E1,-1.3742827E2,-1.0661344E2,-1.6629645E2,-1.4643246E2],"categories":[0,1,4,5,6,7,0,1,2,3,0,1,2,4,5,6,7,0,1,2,4,5,6,7,7,7,0,1,2,3,5,6,7,0,1,5,6,0,2,4],"categories_nodes":[0,2,3,4,5,6,11,13,18],"categories_segments":[0,6,10,17,24,25,26,33,37],"categories_sizes":[6,4,7,7,1,1,7,4,3],"default_left":[1,0,1,1,1,1,1,0,0,0,0,1,0,1,0,0,0,0,1,0,0,0,0,0,0,0,0,0,0,0,0,0,0,0,0],"id":7,"left_children":[1,3,5,7,9,11,13,15,17,-1,-1,19,-1,21,-1,-1,-1,23,25,27,29,31,33,-1,-1,-1,-1,-1,-1,-1,-1,-1,-1,-1,-1],"loss_changes":[1.6618717E11,2.5382085E10,8.1990144E9,7.022555E9,5.1000115E9,2.3906675E9,2.98999E9,1.5784346E8,1.0676634E8,0E0,0E0,2.9593414E8,0E0,2.7825152E8,0E0,0E0,0E0,9.458688E6,1.7165312E7,4.531677E7,5.016599E7,8.217651E7,8.427315E7,0E0,0E0,0E0,0E0,0E0,0E0,0E0,0E0,0E0,0E0,0E0,0E0],"parents":[2147483647,0,0,1,1,2,2,3,3,4,4,5,5,6,6,7,7,8,8,11,11,13,13,17,17,18,18,19,19,20,20,21,21,22,22],"right_children":[2,4,6,8,10,12,14,16,18,-1,-1,20,-1,22,-1,-1,-1,24,26,28,30,32,34,-1,-1,-1,-1,-1,-1,-1,-1,-1,-1,-1,-1],"split_conditions":[1E-45,1.509E2,1E-45,1E-45,1E-45,1E-45,1E-45,8.5E0,1.2E0,1.2328304E3,7.561503E2,1E-45,-2.0840953E2,1E-45,-2.7994058E2,5.0846378E2,5.8337177E2,-1.48E1,1E-45,-2.2E0,1.89E1,1.04E1,6.1E0,1.9730724E2,2.4515398E2,3.0879083E2,2.6744522E2,3.8724827E1,8.8210686E1,-1.1856146E-1,3.1412252E1,-1.3742827E2,-1.0661344E2,-1.6629645E2,-1.4643246E2],"split_indices":[6,1,7,6,6,6,6,2,2,0,0,6,0,6,0,0,0,2,7,2,2,2,2,0,0,0,0,0,0,0,0,0,0,0,0],"split_type":[1,0,1,1,1,1,1,0,0,0,0,1,0,1,0,0,0,0,1,0,0,0,0,0,0,0,0,0,0,0,0,0,0,0,0],"sum_hessian":[6.002E3,1.188E3,4.814E3,9.48E2,2.4E2,1.012E3,3.802E3,4.94E2,4.54E2,1.15E2,1.25E2,8.88E2,1.24E2,3.318E3,4.84E2,2.71E2,2.23E2,1.6E2,2.94E2,2.3E2,6.58E2,9.32E2,2.386E3,4.7E1,1.13E2,1.5E2,1.44E2,6.8E1,1.62E2,4.89E2,1.69E2,4.99E2,4.33E2,1.134E3,1.252E3],"tree_param":{"num_deleted":"0","num_feature":"8","num_nodes":"35","size_leaf_vector":"1"}},{"base_weights":[-5.004112E1,-2.485236E3,1.0210177E4,-3.106133E3,-7.698251E1,7.748899E3,1.884753E4,-3.6577856E3,-1.3535529E3,-1.0640876E3,2.8451567E3,5.0911035E3,1.0290361E4,7.2114056E2,1.1740221E3,-2.6503134E2,-3.33082E3,-1.7909543E3,-8.9370337E2,-1.9723152E2,-5.2228064E2,2.059283E3,1.8534091E2,4.6916665E3,2.8846365E2,4.7630368E2,5.514648E2,-1.9210588E2,-1.4945964E2,-9.0604324E1,1.05131874E2,-5.888618E1,-3.339471E1,-7.361393E1,4.57962E0,2.9481998E1,1.0386096E2,1.8544823E2,2.431665E2],"categories":[],"categories_nodes":[],"categories_segments":[],"categories_sizes":[],"default_left":[0,0,0,0,0,0,0,0,0,0,0,0,0,0,0,0,0,0,0,0,0,0,0,0,0,0,0,0,0,0,0,0,0,0,0,0,0,0,0],"id":8,"left_children":[1,3,5,7,9,11,13,15,17,19,21,23,25,-1,-1,-1,27,29,31,-1,33,35,-1,37,-1,-1,-1,-1,-1,-1,-1,-1,-1,-1,-1,-1,-1,-1,-1],"loss_changes":[1.4901471E11,7.206998E9,2.4174158E10,3.699888E9,2.8557573E9,5.9727913E9,4.8476815E9,1.547604E9,1.8324595E8,1.1528566E9,1.6165568E8,9.158042E7,1.5190016E8,0E0,0E0,0E0,4.134953E8,4.248179E7,2.8073888E7,0E0,3.6403798E8,2.281024E6,0E0,2.9365248E7,0E0,0E0,0E0,0E0,0E0,0E0,0E0,0E0,0E0,0E0,0E0,0E0,0E0,0E0,0E0],"parents":[2147483647,0,0,1,1,2,2,3,3,4,4,5,5,6,6,7,7,8,8,9,9,10,10,11,11,12,12,16,16,17,17,18,18,20,20,21,21,23,23],"right_children":[2,4,6,8,10,12,14,16,18,20,22,24,26,-1,-1,-1,28,30,32,-1,34,36,-1,38,-1,-1,-1,-1,-1,-1,-1,-1,-1,-1,-1,-1,-1,-1,-1],"split_conditions":[2.145E3,2.999E2,1.509E2,8.9E2,8.9E2,3.02E3,3.02E3,5.6E2,1.09E3,5.6E2,1.09E3,1.34E1,7.2E0,7.2114056E2,1.1740221E3,-2.6503134E2,6.8E2,1.477E2,6.9E0,-1.9723152E2,6.8E2,-2.8E1,1.8534091E2,-1.48E1,2.8846365E2,4.7630368E2,5.514648E2,-1.9210588E2,-1.4945964E2,-9.0604324E1,1.05131874E2,-5.888618E1,-3.339471E1,-7.361393E1,4.57962E0,2.9481998E1,1.0386096E2,1.8544823E2,2.431665E2],"split_indices":[0,1,1,0,0,0,0,0,0,0,0,2,2,0,0,0,0,1,2,0,0,2,0,2,0,0,0,0,0,0,0,0,0,0,0,0,0,0,0],"split_type":[0,0,0,0,0,0,0,0,0,0,0,0,0,0,0,0,0,0,0,0,0,0,0,0,0,0,0,0,0,0,0,0,0,0,0,0,0,0,0],"sum_hessian":[5.962E3,4.819E3,1.143E3,3.831E3,9.88E2,8.91E2,2.52E2,2.913E3,9.18E2,7.39E2,2.49E2,4.37E2,4.54E2,1.31E2,1.21E2,4.81E2,2.432E3,4.69E2,4.49E2,1.16E2,6.23E2,1.32E2,1.17E2,2.8E2,1.57E2,2.3E2,2.24E2,9.7E2,1.462E3,4.67E2,2E0,1.97E2,2.52E2,2.44E2,3.79E2,2E0,1.3E2,4.5E1,2.35E2],"tree_param":{"num_deleted":"0","num_feature":"8","num_nodes":"39","size_leaf_vector":"1"}},{"base_weights":[-1.4384952E1,9.61548E3,-2.347245E3,7.4564087E3,1.7965229E4,-1.9778E1,-2.9558486E3,9.795235E3,4.8661816E3,1.1180897E3,6.818816E2,2.75344E3,-9.69175E2,-1.3090574E3,-3.498535E3,5.241702E2,4.5476352E2,2.6454135E2,2.2212756E2,1.7506479E2,1.0261788E2,-4.595174E2,-1.8796599E2,-8.6178516E2,-1.7286738E3,-3.1759885E3,-2.5236931E2,4.5130844E0,-6.8113914E1,-2.9692509E1,-5.641454E1,-6.7455765E1,-9.321244E1,-1.4224432E2,-1.8350758E2],"categories":[0,1,4,5,6,7,0,1,2,3,0,1,2,4,5,6,7,0,1,2,4,5,6,7,0,1,2,4,5,7,0,1,2,4,5,7,0,2,4,0,2,4,0,1,2,4,5,6,7,4,6,4,0,2,0,2,0,2,3,0,2],"categories_nodes":[0,2,3,4,5,6,7,8,11,12,13,14,21,23,24,25],"categories_segments":[0,6,10,17,24,30,36,39,42,49,50,51,52,54,56,59],"categories_sizes":[6,4,7,7,6,6,3,3,7,1,1,1,2,2,3,2],"default_left":[1,0,1,1,1,1,1,1,1,0,0,1,1,1,1,0,0,0,0,0,0,1,0,1,1,1,0,0,0,0,0,0,0,0,0],"id":9,"left_children":[1,3,5,7,9,11,13,15,17,-1,-1,19,21,23,25,-1,-1,-1,-1,-1,-1,27,-1,29,31,33,-1,-1,-1,-1,-1,-1,-1,-1,-1],"loss_changes":[1.33285724E11,2.0724105E10,6.7651666E9,5.5318364E9,4.204331E9,2.6118574E9,3.3789317E9,1.373102E8,5.5469056E7,0E0,0E0,1.2546406E8,1.0491441E9,1.7493197E8,1.4062633E9,0E0,0E0,0E0,0E0,0E0,0E0,3.108187E8,0E0,3.1962592E7,2.2390784E7,3.755356E8,0E0,0E0,0E0,0E0,0E0,0E0,0E0,0E0,0E0],"parents":[2147483647,0,0,1,1,2,2,3,3,4,4,5,5,6,6,7,7,8,8,11,11,12,12,13,13,14,14,21,21,23,23,24,24,25,25],"right_children":[2,4,6,8,10,12,14,16,18,-1,-1,20,22,24,26,-1,-1,-1,-1,-1,-1,28,-1,30,32,34,-1,-1,-1,-1,-1,-1,-1,-1,-1],"split_conditions":[1E-45,1.509E2,1E-45,1E-45,1E-45,1E-45,1E-45,1E-45,1E-45,1.1180897E3,6.818816E2,1E-45,1E-45,1E-45,1E-45,5.241702E2,4.5476352E2,2.6454135E2,2.2212756E2,1.7506479E2,1.0261788E2,1E-45,-1.8796599E2,1E-45,1E-45,1E-45,-2.5236931E2,4.5130844E0,-6.8113914E1,-2.9692509E1,-5.641454E1,-6.7455765E1,-9.321244E1,-1.4224432E2,-1.8350758E2],"split_indices":[6,1,7,6,6,5,5,7,7,0,0,5,5,5,5,0,0,0,0,0,0,5,0,7,7,5,0,0,0,0,0,0,0,0,0],"split_type":[1,0,1,1,1,1,1,1,1,0,0,1,1,1,1,0,0,0,0,0,0,1,0,1,1,1,0,0,0,0,0,0,0,0,0],"sum_hessian":[5.931E3,1.156E3,4.775E3,9.2E2,2.36E2,9.9E2,3.785E3,4.82E2,4.38E2,1.15E2,1.21E2,2.52E2,7.38E2,9.39E2,2.846E3,2.36E2,2.46E2,2.13E2,2.25E2,1.2E2,1.32E2,6.25E2,1.13E2,4.56E2,4.83E2,2.358E3,4.88E2,3.89E2,2.36E2,2.29E2,2.27E2,1.3E2,3.53E2,1.416E3,9.42E2],"tree_param":{"num_deleted":"0","num_feature":"8","num_nodes":"35","size_leaf_vector":"1"}},{"base_weights":[2.479026E0,-2.2366099E3,9.041972E3,-4.8950584E1,-2.8096238E3,1.7204139E4,7.015524E3,-9.437936E2,2.6178774E3,-3.3265122E3,-1.2559955E3,6.522873E2,1.0714945E3,4.6195405E3,9.269767E3,-1.7901474E2,-4.2174954E2,9.731324E1,1.6589046E2,-2.4012463E2,-3.0141985E3,-1.6521501E3,-8.356853E2,2.5203877E2,2.1087161E2,4.9830246E2,4.3192975E2,-6.431574E1,3.3422139E0,-1.7442238E2,-1.3508482E2,-6.602853E1,-8.858609E1,-2.9282862E1,-5.373548E1],"categories":[0,1,2,3,0,1,2,3,0,2,4,0,2,4,0,2,3,0,2],"categories_nodes":[1,2,13,14,21,22],"categories_segments":[0,4,8,11,14,17],"categories_sizes":[4,4,3,3,3,2],"default_left":[0,1,1,0,0,0,0,0,0,0,0,0,0,1,1,0,0,0,0,0,0,1,1,0,0,0,0,0,0,0,0,0,0,0,0],"id":10,"left_children":[1,3,5,7,9,11,13,15,17,19,21,-1,-1,23,25,-1,27,-1,-1,-1,29,31,33,-1,-1,-1,-1,-1,-1,-1,-1,-1,-1,-1,-1],"loss_changes":[1.20813896E11,5.996892E9,1.9479437E10,2.3745444E9,3.0401905E9,3.849937E9,5.0936545E9,1.02388544E9,1.1106355E8,1.2965192E9,1.5646886E8,0E0,0E0,5.7163776E7,1.2880691E8,0E0,2.632544E8,0E0,0E0,0E0,3.3885594E8,1.6968576E7,2.6980992E7,0E0,0E0,0E0,0E0,0E0,0E0,0E0,0E0,0E0,0E0,0E0,0E0],"parents":[2147483647,0,0,1,1,2,2,3,3,4,4,5,5,6,6,7,7,8,8,9,9,10,10,13,13,14,14,16,16,20,20,21,21,22,22],"right_children":[2,4,6,8,10,12,14,16,18,20,22,-1,-1,24,26,-1,28,-1,-1,-1,30,32,34,-1,-1,-1,-1,-1,-1,-1,-1,-1,-1,-1,-1],"split_conditions":[2.145E3,1E-45,1E-45,8.9E2,8.9E2,3.02E3,3.02E3,5.6E2,1.09E3,5.6E2,1.09E3,6.522873E2,1.0714945E3,1E-45,1E-45,-1.7901474E2,6.8E2,9.731324E1,1.6589046E2,-2.4012463E2,6.8E2,1E-45,1E-45,2.5203877E2,2.1087161E2,4.9830246E2,4.3192975E2,-6.431574E1,3.3422139E0,-1.7442238E2,-1.3508482E2,-6.602853E1,-8.858609E1,-2.9282862E1,-5.373548E1],"split_indices":[0,7,7,0,0,0,0,0,0,0,0,0,0,7,7,0,0,0,0,0,0,7,7,0,0,0,0,0,0,0,0,0,0,0,0],"split_type":[0,1,1,0,0,0,0,0,0,0,0,0,0,1,1,0,0,0,0,0,0,1,1,0,0,0,0,0,0,0,0,0,0,0,0],"sum_hessian":[5.967E3,4.783E3,1.184E3,9.93E2,3.79E3,2.34E2,9.5E2,7.44E2,2.49E2,2.843E3,9.47E2,1.2E2,1.14E2,4.62E2,4.88E2,1.22E2,6.22E2,1.29E2,1.2E2,4.94E2,2.349E3,4.86E2,4.61E2,2.2E2,2.42E2,2.25E2,2.63E2,2.24E2,3.98E2,9.29E2,1.42E3,1.32E2,3.54E2,2.27E2,2.34E2],"tree_param":{"num_deleted":"0","num_feature":"8","num_nodes":"35","size_leaf_vector":"1"}},{"base_weights":[3.816956E1,-2.1064404E3,8.630982E3,-4.1191395E1,-2.6608955E3,6.6719263E3,1.6246266E4,-8.965504E2,2.4849514E3,-3.1385469E3,-1.1862006E3,4.39785E3,8.875397E3,6.176011E2,1.0133423E3,-1.7025993E2,-4.0844266E2,1.8279481E3,1.5902544E2,-2.2756407E2,-2.856583E3,-1.5626176E3,-7.947342E2,3.7355208E3,4.7653765E3,8.23154E3,9.5833955E3,-6.1256172E1,4.440126E0,7.3629166E1,9.7173195E1,-1.6496939E2,-1.2867754E2,-8.2024445E1,-5.3113747E1,-4.8111298E1,-2.099739E1,2.076202E2,1.681117E2,2.2823201E2,2.784636E2,3.2570123E2,4.1935992E2,5.0883737E2,4.43473E2],"categories":[0,1,2,3,0,2,4,0,2,4],"categories_nodes":[1,23,26],"categories_segments":[0,4,7],"categories_sizes":[4,3,3],"default_left":[0,1,0,0,0,0,0,0,0,0,0,0,0,0,0,0,0,0,0,0,0,0,0,1,0,0,1,0,0,0,0,0,0,0,0,0,0,0,0,0,0,0,0,0,0],"id":11,"left_children":[1,3,5,7,9,11,13,15,17,19,21,23,25,-1,-1,-1,27,29,-1,-1,31,33,35,37,39,41,43,-1,-1,-1,-1,-1,-1,-1,-1,-1,-1,-1,-1,-1,-1,-1,-1,-1,-1],"loss_changes":[1.098873E11,5.4642524E9,1.7659863E10,2.1867553E9,2.646192E9,4.7162737E9,3.554349E9,9.243241E8,1.1117402E8,1.1186831E9,1.3461926E8,9.636454E7,1.4037811E8,0E0,0E0,0E0,2.575702E8,2.638848E6,0E0,0E0,2.886615E8,1.6530688E7,2.8095136E7,1.2804864E7,2.266624E7,1.4606336E7,4.202496E6,0E0,0E0,0E0,0E0,0E0,0E0,0E0,0E0,0E0,0E0,0E0,0E0,0E0,0E0,0E0,0E0,0E0,0E0],"parents":[2147483647,0,0,1,1,2,2,3,3,4,4,5,5,6,6,7,7,8,8,9,9,10,10,11,11,12,12,16,16,17,17,20,20,21,21,22,22,23,23,24,24,25,25,26,26],"right_children":[2,4,6,8,10,12,14,16,18,20,22,24,26,-1,-1,-1,28,30,-1,-1,32,34,36,38,40,42,44,-1,-1,-1,-1,-1,-1,-1,-1,-1,-1,-1,-1,-1,-1,-1,-1,-1,-1],"split_conditions":[2.145E3,1E-45,1.509E2,8.9E2,8.9E2,3.02E3,3.02E3,5.6E2,1.09E3,5.6E2,1.09E3,1.2E0,8.5E0,6.176011E2,1.0133423E3,-1.7025993E2,6.8E2,-1.4E0,1.5902544E2,-2.2756407E2,6.8E2,2.54E1,1.86E1,1E-45,2.96E1,-2.38E1,1E-45,-6.1256172E1,4.440126E0,7.3629166E1,9.7173195E1,-1.6496939E2,-1.2867754E2,-8.2024445E1,-5.3113747E1,-4.8111298E1,-2.099739E1,2.076202E2,1.681117E2,2.2823201E2,2.784636E2,3.2570123E2,4.1935992E2,5.0883737E2,4.43473E2],"split_indices":[0,7,1,0,0,0,0,0,0,0,0,2,2,0,0,0,0,2,0,0,0,2,2,7,2,2,7,0,0,0,0,0,0,0,0,0,0,0,0,0,0,0,0,0,0],"split_type":[0,1,0,0,0,0,0,0,0,0,0,0,0,0,0,0,0,0,0,0,0,0,0,1,0,0,1,0,0,0,0,0,0,0,0,0,0,0,0,0,0,0,0,0,0],"sum_hessian":[5.961E3,4.771E3,1.19E3,1.01E3,3.761E3,9.48E2,2.42E2,7.55E2,2.55E2,2.84E3,9.21E2,4.68E2,4.8E2,1.25E2,1.17E2,1.22E2,6.33E2,1.33E2,1.22E2,4.7E2,2.37E3,4.68E2,4.53E2,1.71E2,2.97E2,2.58E2,2.22E2,2.39E2,3.94E2,3.6E1,9.7E1,9.2E2,1.45E3,4.03E2,6.5E1,3.12E2,1.41E2,7.6E1,9.5E1,2.43E2,5.4E1,2.5E1,2.33E2,1.14E2,1.08E2],"tree_param":{"num_deleted":"0","num_feature":"8","num_nodes":"45","size_leaf_vector":"1"}},{"base_weights":[4.3693764E1,-2.01682E3,8.1504863E3,-3.222231E3,-1.298595E3,5.688037E3,1.0428603E4,-2.0560371E2,-2.7712417E3,-1.886557E3,-3.9549695E2,5.2037793E3,6.3401206E3,8.559905E3,1.09333E4,-1.4571605E2,-2.5951284E3,-2.0740994E3,-1.591531E3,-8.061166E2,3.8540203E1,3.7908591E3,5.312507E3,7.4489087E3,6.1271597E3,2.981078E2,4.3903043E2,5.261563E2,6.5253973E2,-4.135104E1,-1.300068E2,-1.1602001E2,-9.6926216E1,-8.463529E1,-6.038226E1,-6.935021E1,-3.3345306E1,-4.141709E1,7.6911426E0,1.22420975E2,2.148944E2,2.698159E2,2.1288667E2,1.1919057E2,3.8418237E2,1.8460464E2,3.0900806E2],"categories":[],"categories_nodes":[],"categories_segments":[],"categories_sizes":[],"default_left":[0,0,0,0,0,0,0,0,0,0,0,0,0,0,0,0,0,0,0,0,0,0,0,0,0,0,0,0,0,0,0,0,0,0,0,0,0,0,0,0,0,0,0,0,0,0,0],"id":12,"left_children":[1,3,5,7,9,11,13,-1,15,17,19,21,23,25,27,-1,29,31,33,35,37,39,41,43,45,-1,-1,-1,-1,-1,-1,-1,-1,-1,-1,-1,-1,-1,-1,-1,-1,-1,-1,-1,-1,-1,-1],"loss_changes":[1.0047524E11,4.1479823E9,6.778962E9,7.069491E8,1.5959327E9,1.5268454E8,5.024727E8,0E0,2.2447104E7,9.745562E7,2.1158314E8,3.255296E7,1.244672E7,2.7341824E7,2.917212E8,0E0,2.657792E6,3.2566784E7,2.56096E7,4.840304E7,5.789069E7,8.535296E6,4.959232E6,2.329792E7,4.543488E6,0E0,0E0,0E0,0E0,0E0,0E0,0E0,0E0,0E0,0E0,0E0,0E0,0E0,0E0,0E0,0E0,0E0,0E0,0E0,0E0,0E0,0E0],"parents":[2147483647,0,0,1,1,2,2,3,3,4,4,5,5,6,6,8,8,9,9,10,10,11,11,12,12,13,13,14,14,16,16,17,17,18,18,19,19,20,20,21,21,22,22,23,23,24,24],"right_children":[2,4,6,8,10,12,14,-1,16,18,20,22,24,26,28,-1,30,32,34,36,38,40,42,44,46,-1,-1,-1,-1,-1,-1,-1,-1,-1,-1,-1,-1,-1,-1,-1,-1,-1,-1,-1,-1,-1,-1],"split_conditions":[2.145E3,6.8E2,3.02E3,5.6E2,8.9E2,1.13E1,-8.3E0,-2.0560371E2,9.7E0,1.29E1,1.09E3,-2.31E1,1.41E1,-3.23E1,3.06E1,-1.4571605E2,9.8E0,7.2E2,3.22E1,-7.1E0,-1.25E1,5E0,9.6E0,2E0,1.48E1,2.981078E2,4.3903043E2,5.261563E2,6.5253973E2,-4.135104E1,-1.300068E2,-1.1602001E2,-9.6926216E1,-8.463529E1,-6.038226E1,-6.935021E1,-3.3345306E1,-4.141709E1,7.6911426E0,1.22420975E2,2.148944E2,2.698159E2,2.1288667E2,1.1919057E2,3.8418237E2,1.8460464E2,3.0900806E2],"split_indices":[0,0,0,0,0,2,2,0,2,2,0,2,2,2,2,0,2,0,2,2,2,3,2,3,2,0,0,0,0,0,0,0,0,0,0,0,0,0,0,0,0,0,0,0,0,0,0],"split_type":[0,0,0,0,0,0,0,0,0,0,0,0,0,0,0,0,0,0,0,0,0,0,0,0,0,0,0,0,0,0,0,0,0,0,0,0,0,0,0,0,0,0,0,0,0,0,0],"sum_hessian":[6.013E3,4.795E3,1.218E3,1.789E3,3.006E3,5.87E2,6.31E2,5.99E2,1.19E3,1.82E3,1.186E3,3.42E2,2.45E2,1.38E2,4.93E2,6.48E2,5.42E2,1.109E3,7.11E2,6.09E2,5.77E2,2.7E1,3.15E2,3.4E1,2.11E2,1.3E1,1.25E2,4.18E2,7.5E1,2E0,5.4E2,3.88E2,7.21E2,5.6E2,1.51E2,1.16E2,4.93E2,6.7E1,5.1E2,9E0,1.8E1,2.88E2,2.7E1,2E0,3.2E1,6E0,2.05E2],"tree_param":{"num_deleted":"0","num_feature":"8","num_nodes":"47","size_leaf_vector":"1"}},{"base_weights":[6.390563E1,-1.9105787E3,7.884841E3,-2.4366318E3,3.428438E1,5.9724946E3,1.5028861E4,-2.865693E3,-1.0838456E3,-7.4388153E2,2.390177E3,3.9030173E3,7.9281885E3,5.737837E2,9.330716E2,-2.0611656E2,-2.6105134E3,-1.4302351E3,-7.4413605E2,-1.5149814E2,-2.93351E2,1.7511885E3,3.0203384E3,3.2482349E3,4.1984736E3,7.5379873E3,4.5139948E2,-1.5019957E2,-1.1730434E2,-7.79196E1,-5.3946968E1,-4.2712917E1,-1.2051913E1,-5.3478218E1,8.232464E0,7.254112E1,9.974409E1,1.250938E2,1.5851103E2,2.7422876E1,1.6313855E2,2.0096843E2,2.4892923E2,3.3159933E2,3.8797827E2],"categories":[],"categories_nodes":[],"categories_segments":[],"categories_sizes":[],"default_left":[0,0,0,0,0,0,0,0,0,0,0,0,0,0,0,0,0,0,0,0,0,0,0,0,0,0,0,0,0,0,0,0,0,0,0,0,0,0,0,0,0,0,0,0,0],"id":13,"left_children":[1,3,5,7,9,11,13,15,17,19,21,23,25,-1,-1,-1,27,29,31,-1,33,35,37,39,41,43,-1,-1,-1,-1,-1,-1,-1,-1,-1,-1,-1,-1,-1,-1,-1,-1,-1,-1,-1],"loss_changes":[9.2391E10,4.8874394E9,1.6386425E10,2.1793034E9,1.8680525E9,3.8261023E9,3.064275E9,9.044255E8,1.0566406E8,7.880523E8,9.658522E7,7.632077E7,1.4179738E8,0E0,0E0,0E0,2.4006246E8,1.8487936E7,2.527912E7,0E0,2.2805541E8,6.47504E6,1.85984E6,4.057728E6,2.4281088E7,2.221056E7,0E0,0E0,0E0,0E0,0E0,0E0,0E0,0E0,0E0,0E0,0E0,0E0,0E0,0E0,0E0,0E0,0E0,0E0,0E0],"parents":[2147483647,0,0,1,1,2,2,3,3,4,4,5,5,6,6,7,7,8,8,9,9,10,10,11,11,12,12,16,16,17,17,18,18,20,20,21,21,22,22,23,23,24,24,25,25],"right_children":[2,4,6,8,10,12,14,16,18,20,22,24,26,-1,-1,-1,28,30,32,-1,34,36,38,40,42,44,-1,-1,-1,-1,-1,-1,-1,-1,-1,-1,-1,-1,-1,-1,-1,-1,-1,-1,-1],"split_conditions":[2.145E3,1.509E2,1.509E2,8.9E2,8.9E2,3.02E3,3.02E3,5.6E2,1.09E3,5.6E2,1.09E3,-1.7E0,1.98E1,5.737837E2,9.330716E2,-2.0611656E2,6.8E2,1.84E1,2.56E1,-1.5149814E2,6.8E2,4.5E0,-1.6E0,-4.15E1,2.96E1,-1.18E1,4.5139948E2,-1.5019957E2,-1.1730434E2,-7.79196E1,-5.3946968E1,-4.2712917E1,-1.2051913E1,-5.3478218E1,8.232464E0,7.254112E1,9.974409E1,1.250938E2,1.5851103E2,2.7422876E1,1.6313855E2,2.0096843E2,2.4892923E2,3.3159933E2,3.8797827E2],"split_indices":[0,1,1,0,0,0,0,0,0,0,0,2,2,0,0,0,0,2,2,0,0,2,2,2,2,2,0,0,0,0,0,0,0,0,0,0,0,0,0,0,0,0,0,0,0],"split_type":[0,0,0,0,0,0,0,0,0,0,0,0,0,0,0,0,0,0,0,0,0,0,0,0,0,0,0,0,0,0,0,0,0,0,0,0,0,0,0,0,0,0,0,0,0],"sum_hessian":[5.981E3,4.776E3,1.205E3,3.759E3,1.017E3,9.52E2,2.53E2,2.853E3,9.06E2,7.65E2,2.52E2,4.64E2,4.88E2,1.3E2,1.23E2,4.79E2,2.374E3,4.47E2,4.59E2,1.25E2,6.4E2,1.27E2,1.25E2,1.48E2,3.16E2,3.66E2,1.22E2,9.5E2,1.424E3,3.25E2,1.22E2,3.76E2,8.3E1,2.37E2,4.03E2,6E1,6.7E1,3.2E1,9.3E1,1E0,1.47E2,2.62E2,5.4E1,7.8E1,2.88E2],"tree_param":{"num_deleted":"0","num_feature":"8","num_nodes":"45","size_leaf_vector":"1"}},{"base_weights":[1.27157955E1,-1.8357089E3,7.473842E3,-2.3192595E3,2.1630216E0,5.6866377E3,1.4149952E4,-2.7218906E3,-1.0395717E3,-6.930244E2,2.2499268E3,3.7169722E3,7.5015664E3,5.441279E2,8.8257227E2,-1.9608423E2,-2.481211E3,-1.363964E3,-7.1503625E2,-1.435023E2,-2.7060077E2,1.68107E3,2.8743845E3,2.8232637E3,3.8953398E3,6.985533E3,4.1431616E2,-1.4268004E2,-1.1168975E2,-7.3906975E1,-5.190979E1,-5.101666E1,-2.650152E1,-4.9803795E1,7.772892E0,7.642096E1,9.688787E1,1.2193817E2,1.5442874E2,5.5378418E1,1.4265282E2,1.8671696E2,2.353999E2,2.7939883E2,3.5505832E2],"categories":[],"categories_nodes":[],"categories_segments":[],"categories_sizes":[],"default_left":[0,0,0,0,0,0,0,0,0,0,0,0,0,0,0,0,0,0,0,0,0,0,0,0,0,0,0,0,0,0,0,0,0,0,0,0,0,0,0,0,0,0,0,0,0],"id":14,"left_children":[1,3,5,7,9,11,13,15,17,19,21,23,25,-1,-1,-1,27,29,31,-1,33,35,37,39,41,43,-1,-1,-1,-1,-1,-1,-1,-1,-1,-1,-1,-1,-1,-1,-1,-1,-1,-1,-1],"loss_changes":[8.376846E10,4.3262167E9,1.4309016E10,1.9829146E9,1.5876155E9,3.378903E9,2.713858E9,8.366428E8,9.630054E7,7.128526E8,8.042253E7,6.2170624E7,1.4257357E8,0E0,0E0,0E0,2.1880422E8,1.561216E7,2.566672E7,0E0,2.0137562E8,2.053792E6,3.011264E6,9.2928E5,3.2137216E7,9.608192E6,0E0,0E0,0E0,0E0,0E0,0E0,0E0,0E0,0E0,0E0,0E0,0E0,0E0,0E0,0E0,0E0,0E0,0E0,0E0],"parents":[2147483647,0,0,1,1,2,2,3,3,4,4,5,5,6,6,7,7,8,8,9,9,10,10,11,11,12,12,16,16,17,17,18,18,20,20,21,21,22,22,23,23,24,24,25,25],"right_children":[2,4,6,8,10,12,14,16,18,20,22,24,26,-1,-1,-1,28,30,32,-1,34,36,38,40,42,44,-1,-1,-1,-1,-1,-1,-1,-1,-1,-1,-1,-1,-1,-1,-1,-1,-1,-1,-1],"split_conditions":[2.145E3,1.509E2,1.509E2,8.9E2,8.9E2,3.02E3,3.02E3,5.6E2,1.09E3,5.6E2,1.09E3,-7.9E0,1.22E1,5.441279E2,8.8257227E2,-1.9608423E2,6.8E2,1.82E1,3.7E0,-1.435023E2,6.8E2,1.41E1,4.3E0,-4.15E1,2.96E1,-2.38E1,4.1431616E2,-1.4268004E2,-1.1168975E2,-7.3906975E1,-5.190979E1,-5.101666E1,-2.650152E1,-4.9803795E1,7.772892E0,7.642096E1,9.688787E1,1.2193817E2,1.5442874E2,5.5378418E1,1.4265282E2,1.8671696E2,2.353999E2,2.7939883E2,3.5505832E2],"split_indices":[0,1,1,0,0,0,0,0,0,0,0,2,2,0,0,0,0,2,2,0,0,2,2,2,2,2,0,0,0,0,0,0,0,0,0,0,0,0,0,0,0,0,0,0,0],"split_type":[0,0,0,0,0,0,0,0,0,0,0,0,0,0,0,0,0,0,0,0,0,0,0,0,0,0,0,0,0,0,0,0,0,0,0,0,0,0,0,0,0,0,0,0,0],"sum_hessian":[6.072E3,4.867E3,1.205E3,3.853E3,1.014E3,9.52E2,2.53E2,2.93E3,9.23E2,7.75E2,2.39E2,4.58E2,4.94E2,1.33E2,1.2E2,4.87E2,2.443E3,4.6E2,4.63E2,1.25E2,6.5E2,1.27E2,1.12E2,7.9E1,3.79E2,3.04E2,1.9E2,9.71E2,1.472E3,3.38E2,1.22E2,1.73E2,2.9E2,2.4E2,4.1E2,8.4E1,4.3E1,4.1E1,7.1E1,2E0,7.7E1,3.21E2,5.8E1,2.7E1,2.77E2],"tree_param":{"num_deleted":"0","num_feature":"8","num_nodes":"45","size_leaf_vector":"1"}},{"base_weights":[3.5183304E1,7.062289E3,-1.7219678E3,1.3588978E4,5.375208E3,7.212919E1,-2.1902588E3,8.4078906E2,5.125848E2,7.1286807E3,3.507872E3,2.1450857E3,-6.301437E2,-1.0007132E3,-2.574665E3,7.7525693E3,6.542306E3,3.1066545E3,3.9257444E3,2.7348733E3,1.5839454E3,-2.443071E2,-1.3750511E2,-6.672518E2,-1.3159596E3,-2.3465806E3,-1.8618144E2,3.6207977E2,4.2323605E2,2.9364166E2,3.5304617E2,1.7361401E2,1.3892155E2,2.1491362E2,1.7659256E2,1.2215923E2,1.4823157E2,6.958007E1,9.437743E1,7.822564E0,-4.645173E1,-2.088149E1,-4.5917294E1,-8.208535E1,-6.0077282E1,-1.0589263E2,-1.3503029E2],"categories":[0,1,4,5,6,7,0,1,2,3,0,1,2,3,0,1,2,4,5,6,7,0,1,2,4,5,6,7,0,1,2,4,5,7,0,1,2,4,5,7,0,2,4,0,1,2,4,5,6,7,4,6,4,0,2,4,0,2,4,0,2,0,2,0,2],"categories_nodes":[0,1,2,3,4,5,6,9,11,12,13,14,17,18,21,23,25],"categories_segments":[0,6,10,14,21,28,34,40,43,50,51,52,53,56,59,61,63],"categories_sizes":[6,4,4,7,7,6,6,3,7,1,1,1,3,3,2,2,2],"default_left":[1,1,1,1,1,1,1,0,0,1,0,1,1,1,1,0,0,1,1,0,0,1,0,1,0,1,0,0,0,0,0,0,0,0,0,0,0,0,0,0,0,0,0,0,0,0,0],"id":15,"left_children":[1,3,5,7,9,11,13,-1,-1,15,17,19,21,23,25,27,29,31,33,35,37,39,-1,41,43,45,-1,-1,-1,-1,-1,-1,-1,-1,-1,-1,-1,-1,-1,-1,-1,-1,-1,-1,-1,-1,-1],"loss_changes":[7.382663E10,1.3096178E10,4.018641E9,2.4659558E9,3.0921482E9,1.4440307E9,1.7318441E9,0E0,0E0,1.2853862E8,6.5430016E7,7.873754E7,6.054346E8,9.667558E7,7.423304E8,2.3123968E7,4.845773E7,1.9273984E7,1.7541376E7,8.66112E5,5.023168E6,1.7247499E8,0E0,2.8009888E7,1.5768064E7,1.8813542E8,0E0,0E0,0E0,0E0,0E0,0E0,0E0,0E0,0E0,0E0,0E0,0E0,0E0,0E0,0E0,0E0,0E0,0E0,0E0,0E0,0E0],"parents":[2147483647,0,0,1,1,2,2,3,3,4,4,5,5,6,6,9,9,10,10,11,11,12,12,13,13,14,14,15,15,16,16,17,17,18,18,19,19,20,20,21,21,23,23,24,24,25,25],"right_children":[2,4,6,8,10,12,14,-1,-1,16,18,20,22,24,26,28,30,32,34,36,38,40,-1,42,44,46,-1,-1,-1,-1,-1,-1,-1,-1,-1,-1,-1,-1,-1,-1,-1,-1,-1,-1,-1,-1,-1],"split_conditions":[1E-45,1E-45,1E-45,1E-45,1E-45,1E-45,1E-45,8.4078906E2,5.125848E2,1E-45,8.6E0,1E-45,1E-45,1E-45,1E-45,1.22E1,3E0,1E-45,1E-45,7.8E0,1.41E1,1E-45,-1.3750511E2,1E-45,-4.6E0,1E-45,-1.8618144E2,3.6207977E2,4.2323605E2,2.9364166E2,3.5304617E2,1.7361401E2,1.3892155E2,2.1491362E2,1.7659256E2,1.2215923E2,1.4823157E2,6.958007E1,9.437743E1,7.822564E0,-4.645173E1,-2.088149E1,-4.5917294E1,-8.208535E1,-6.0077282E1,-1.0589263E2,-1.3503029E2],"split_indices":[6,7,7,6,6,5,5,0,0,7,2,5,5,5,5,2,2,7,7,2,2,5,0,7,2,5,0,0,0,0,0,0,0,0,0,0,0,0,0,0,0,0,0,0,0,0,0],"split_type":[1,1,1,1,1,1,1,0,0,1,0,1,1,1,1,0,0,1,1,0,0,1,0,1,0,1,0,0,0,0,0,0,0,0,0,0,0,0,0,0,0,0,0,0,0,0,0],"sum_hessian":[5.977E3,1.195E3,4.782E3,2.44E2,9.51E2,9.9E2,3.792E3,1.22E2,1.22E2,4.89E2,4.62E2,2.5E2,7.4E2,9.27E2,2.865E3,2.31E2,2.58E2,2.4E2,2.22E2,1.2E2,1.3E2,6.27E2,1.13E2,4.52E2,4.75E2,2.393E3,4.72E2,1.41E2,9E1,1.18E2,1.4E2,1.09E2,1.31E2,1.09E2,1.13E2,5.8E1,6.2E1,8.3E1,4.7E1,3.96E2,2.31E2,2.28E2,2.24E2,1.2E2,3.55E2,1.458E3,9.35E2],"tree_param":{"num_deleted":"0","num_feature":"8","num_nodes":"47","size_leaf_vector":"1"}},{"base_weights":[-1.076117E0,-1.6414548E3,6.756617E3,3.2265274E1,-2.089711E3,5.11117E3,1.2976499E4,-6.577494E2,2.0392195E3,-2.7459177E3,-1.4432911E3,3.3193284E3,6.7560786E3,4.8960336E2,1.6185274E4,-1.295036E2,-2.5070885E2,1.5443142E3,2.5732402E3,-1.7677841E2,-2.4667185E3,-1.9095048E3,-9.492556E2,2.4811968E3,3.5283674E3,6.4962417E3,4.142036E2,2.3460416E2,8.1209753E2,-4.4461864E1,6.5554824E0,6.939598E1,8.823944E1,1.1026123E2,1.3543178E2,-1.2888745E2,-1.11551476E2,-1.06086754E2,-8.569726E1,-6.2634197E1,-3.209312E1,1.3424193E2,9.696001E1,1.6899571E2,2.117697E2,3.5184882E2,2.9911334E2],"categories":[0,1,2,3,0,4,0,2,4],"categories_nodes":[1,23,25],"categories_segments":[0,4,6],"categories_sizes":[4,2,3],"default_left":[0,1,0,0,0,0,0,0,0,0,0,0,0,0,0,0,0,0,0,0,0,0,0,1,0,1,0,0,0,0,0,0,0,0,0,0,0,0,0,0,0,0,0,0,0,0,0],"id":16,"left_children":[1,3,5,7,9,11,13,15,17,19,21,23,25,-1,27,-1,29,31,33,-1,35,37,39,41,43,45,-1,-1,-1,-1,-1,-1,-1,-1,-1,-1,-1,-1,-1,-1,-1,-1,-1,-1,-1,-1,-1],"loss_changes":[6.6910126E10,3.6440566E9,1.2000133E10,1.4235593E9,1.6210903E9,2.7304591E9,2.3551713E9,6.010489E8,6.5534336E7,4.101714E8,4.4317696E8,6.991155E7,1.3913907E8,0E0,2.609152E6,0E0,1.5444322E8,2.343456E6,2.55296E5,0E0,3.1069184E7,3.7576704E7,8.687149E7,5.058304E6,2.31552E7,7.463117E7,0E0,0E0,0E0,0E0,0E0,0E0,0E0,0E0,0E0,0E0,0E0,0E0,0E0,0E0,0E0,0E0,0E0,0E0,0E0,0E0,0E0],"parents":[2147483647,0,0,1,1,2,2,3,3,4,4,5,5,6,6,7,7,8,8,9,9,10,10,11,11,12,12,14,14,16,16,17,17,18,18,20,20,21,21,22,22,23,23,24,24,25,25],"right_children":[2,4,6,8,10,12,14,16,18,20,22,24,26,-1,28,-1,30,32,34,-1,36,38,40,42,44,46,-1,-1,-1,-1,-1,-1,-1,-1,-1,-1,-1,-1,-1,-1,-1,-1,-1,-1,-1,-1,-1],"split_conditions":[2.145E3,1E-45,1.509E2,8.9E2,7.2E2,3.02E3,3.02E3,5.6E2,1.09E3,5.6E2,8.9E2,-7.1E0,2.77E1,4.8960336E2,-3.01E1,-1.295036E2,6.8E2,1.41E1,1.2E0,-1.7677841E2,6.8E2,5.8E0,1.09E3,1E-45,2.96E1,1E-45,4.142036E2,2.3460416E2,8.1209753E2,-4.4461864E1,6.5554824E0,6.939598E1,8.823944E1,1.1026123E2,1.3543178E2,-1.2888745E2,-1.11551476E2,-1.06086754E2,-8.569726E1,-6.2634197E1,-3.209312E1,1.3424193E2,9.696001E1,1.6899571E2,2.117697E2,3.5184882E2,2.9911334E2],"split_indices":[0,7,1,0,0,0,0,0,0,0,0,2,2,0,2,0,0,2,2,0,0,2,0,7,2,7,0,0,0,0,0,0,0,0,0,0,0,0,0,0,0,0,0,0,0,0,0],"split_type":[0,1,0,0,0,0,0,0,0,0,0,0,0,0,0,0,0,0,0,0,0,0,0,1,0,1,0,0,0,0,0,0,0,0,0,0,0,0,0,0,0,0,0,0,0,0,0],"sum_hessian":[6.034E3,4.856E3,1.178E3,1.026E3,3.83E3,9.33E2,2.45E2,7.64E2,2.62E2,1.899E3,1.931E3,4.48E2,4.85E2,1.25E2,1.2E2,1.32E2,6.32E2,1.38E2,1.24E2,4.93E2,1.406E3,9.92E2,9.39E2,9.2E1,3.56E2,4.19E2,6.6E1,1E0,1.19E2,2.36E2,3.96E2,8.5E1,5.3E1,3.8E1,8.6E1,9.49E2,4.57E2,4.71E2,5.21E2,4.71E2,4.68E2,6.4E1,2.8E1,2.99E2,5.7E1,1.98E2,2.21E2],"tree_param":{"num_deleted":"0","num_feature":"8","num_nodes":"47","size_leaf_vector":"1"}},{"base_weights":[-8.027065E0,4.261714E3,-1.7802944E3,3.0458308E3,9.004994E3,-2.655553E2,-2.1735085E3,2.9152092E3,4.1104253E3,8.564156E3,1.0508269E4,4.731366E2,-1.3930514E3,-1.7256606E3,-2.7560923E3,3.4081506E3,2.7653826E3,4.474665E3,3.024058E3,1.3731761E2,8.595791E3,1.0013654E4,7.34613E2,1.4951415E3,1.3384392E2,-8.4892303E2,-1.22772484E2,-1.1819363E3,-1.9075974E3,-2.450582E3,-1.6816678E2,1.7386996E2,8.378912E1,1.154179E2,1.4655348E2,2.5019652E2,1.640447E2,2.1746118E2,9.520908E1,4.3181882E2,1.8130872E2,5.390894E2,4.0140738E2,6.6360054E1,8.191299E1,1.5581354E1,-1.0806461E1,-2.9187132E1,-5.326369E1,-7.421721E1,-5.298274E1,-9.976508E1,-7.584837E1,-1.2796581E2,-1.1237948E2],"categories":[0,1,2,4,5,6,7,0,1,2,3,0,2,4,0,2,4,0,2,3,4,0,4,0,1,2,3,4,5,7,4,1,5,7,4,7,2],"categories_nodes":[0,2,5,6,7,8,11,12,13,14,24,25],"categories_segments":[0,7,11,14,17,21,23,30,31,34,35,36],"categories_sizes":[7,4,3,3,4,2,7,1,3,1,1,1],"default_left":[1,0,1,0,0,1,1,1,1,0,0,1,1,1,1,0,0,0,0,0,0,0,0,0,1,1,0,0,0,0,0,0,0,0,0,0,0,0,0,0,0,0,0,0,0,0,0,0,0,0,0,0,0,0,0],"id":17,"left_children":[1,3,5,7,9,11,13,15,17,19,21,23,25,27,29,31,33,35,37,-1,39,41,-1,43,45,47,-1,49,51,53,-1,-1,-1,-1,-1,-1,-1,-1,-1,-1,-1,-1,-1,-1,-1,-1,-1,-1,-1,-1,-1,-1,-1,-1,-1],"loss_changes":[4.5455725E10,1.0134508E10,2.5278157E9,1.8325504E8,1.479168E8,7.3025517E8,8.7450726E8,8.318976E7,4.621875E7,2.8479488E7,1.2225024E7,1.8358205E8,1.985097E8,1.8649088E8,2.631721E8,2.8722176E7,6.6458624E7,5.3714944E7,5.25632E7,0E0,2.5356288E7,2.3251968E7,0E0,9.98368E5,2.489286E7,1.2631088E7,0E0,1.6214016E7,4.5896704E7,1.5812096E7,0E0,0E0,0E0,0E0,0E0,0E0,0E0,0E0,0E0,0E0,0E0,0E0,0E0,0E0,0E0,0E0,0E0,0E0,0E0,0E0,0E0,0E0,0E0,0E0,0E0],"parents":[2147483647,0,0,1,1,2,2,3,3,4,4,5,5,6,6,7,7,8,8,9,9,10,10,11,11,12,12,13,13,14,14,15,15,16,16,17,17,18,18,20,20,21,21,23,23,24,24,25,25,27,27,28,28,29,29],"right_children":[2,4,6,8,10,12,14,16,18,20,22,24,26,28,30,32,34,36,38,-1,40,42,-1,44,46,48,-1,50,52,54,-1,-1,-1,-1,-1,-1,-1,-1,-1,-1,-1,-1,-1,-1,-1,-1,-1,-1,-1,-1,-1,-1,-1,-1,-1],"split_conditions":[1E-45,1.509E2,1E-45,3.02E1,2.28E1,1E-45,1E-45,1E-45,1E-45,-3.42E1,1.2E1,1E-45,1E-45,1E-45,1E-45,2.74E1,-5.5E0,1.331E2,6E0,1.3731761E2,2.23E1,3.285E2,7.34613E2,6.9E0,1E-45,1E-45,-1.22772484E2,-3.1E0,2.31E1,1.44E1,-1.6816678E2,1.7386996E2,8.378912E1,1.154179E2,1.4655348E2,2.5019652E2,1.640447E2,2.1746118E2,9.520908E1,4.3181882E2,1.8130872E2,5.390894E2,4.0140738E2,6.6360054E1,8.191299E1,1.5581354E1,-1.0806461E1,-2.9187132E1,-5.326369E1,-7.421721E1,-5.298274E1,-9.976508E1,-7.584837E1,-1.2796581E2,-1.1237948E2],"split_indices":[5,1,7,2,2,5,5,7,7,2,3,5,5,5,5,2,2,1,3,0,2,1,0,2,5,5,0,2,2,2,0,0,0,0,0,0,0,0,0,0,0,0,0,0,0,0,0,0,0,0,0,0,0,0,0],"split_type":[1,0,1,0,0,1,1,1,1,0,0,1,1,1,1,0,0,0,0,0,0,0,0,0,1,1,0,0,0,0,0,0,0,0,0,0,0,0,0,0,0,0,0,0,0,0,0,0,0,0,0,0,0,0,0],"sum_hessian":[6.005E3,1.761E3,4.244E3,1.403E3,3.58E2,8.75E2,3.369E3,1.253E3,1.5E2,2.82E2,7.6E1,5.29E2,3.46E2,1.907E3,1.462E3,2.87E2,9.66E2,1.1E2,4E1,2E0,2.8E2,7.1E1,5E0,1.31E2,3.98E2,2.3E2,1.16E2,4.8E2,1.427E3,9.76E2,4.86E2,2.75E2,1.2E1,2.61E2,7.05E2,7.4E1,3.6E1,1.7E1,2.3E1,2.77E2,3E0,4.8E1,2.3E1,6.5E1,6.6E1,2.64E2,1.34E2,1.05E2,1.25E2,1.35E2,3.45E2,1.162E3,2.65E2,6.28E2,3.48E2],"tree_param":{"num_deleted":"0","num_feature":"8","num_nodes":"55","size_leaf_vector":"1"}},{"base_weights":[1.944923E1,-1.5080968E3,6.1397334E3,-1.9080988E3,-2.5752418E0,4.747091E3,1.1707942E4,-2.477714E3,-1.3293798E3,-1.0279989E3,9.9111884E2,3.0372354E3,6.2894062E3,8.961469E3,7.369843E2,-1.5970135E2,-2.227701E3,-1.7162954E3,-9.252436E2,-1.1702953E2,-5.85407E2,2.9446945E2,1.6839415E3,2.7470945E3,1.7634515E2,6.0302803E3,3.683256E2,3.7928998E2,4.7161362E2,-1.1646017E2,-1.0041894E2,-9.4566246E1,-7.6086205E1,-5.24493E1,-3.1000391E1,-5.0619705E1,-1.8436527E1,-1.6853424E0,2.2334818E1,6.955654E1,9.957543E1,9.6175354E1,1.4184288E2,2.6124435E2,3.1064575E2],"categories":[],"categories_nodes":[],"categories_segments":[],"categories_sizes":[],"default_left":[0,0,0,0,0,0,0,0,0,0,0,0,0,0,0,0,0,0,0,0,0,0,0,0,0,0,0,0,0,0,0,0,0,0,0,0,0,0,0,0,0,0,0,0,0],"id":18,"left_children":[1,3,5,7,9,11,13,15,17,19,21,23,25,27,-1,-1,29,31,33,-1,35,37,39,41,-1,43,-1,-1,-1,-1,-1,-1,-1,-1,-1,-1,-1,-1,-1,-1,-1,-1,-1,-1,-1],"loss_changes":[5.6542757E10,2.9146993E9,9.311887E9,1.2572774E9,1.03729856E9,2.5336443E9,1.8746204E9,3.3780736E8,2.9535206E8,2.8968195E8,2.4903651E8,5.580723E7,9.736397E7,1.1998208E7,0E0,0E0,2.7178496E7,3.0121984E7,3.451405E7,0E0,3.441348E7,1.2953988E7,2.0554816E7,1.6278016E7,0E0,2.8581888E7,0E0,0E0,0E0,0E0,0E0,0E0,0E0,0E0,0E0,0E0,0E0,0E0,0E0,0E0,0E0,0E0,0E0,0E0,0E0],"parents":[2147483647,0,0,1,1,2,2,3,3,4,4,5,5,6,6,7,7,8,8,9,9,10,10,11,11,12,12,13,13,16,16,17,17,18,18,20,20,21,21,22,22,23,23,25,25],"right_children":[2,4,6,8,10,12,14,16,18,20,22,24,26,28,-1,-1,30,32,34,-1,36,38,40,42,-1,44,-1,-1,-1,-1,-1,-1,-1,-1,-1,-1,-1,-1,-1,-1,-1,-1,-1,-1,-1],"split_conditions":[2.145E3,1.509E2,1.509E2,7.2E2,7.2E2,3.02E3,3.02E3,5.6E2,8.9E2,5.6E2,8.9E2,1.34E1,2.37E1,-5.2E0,7.369843E2,-1.5970135E2,6.8E2,8.1E0,1.82E1,-1.1702953E2,5.95E2,1.7E0,1.09E3,-1.89E1,1.7634515E2,-1.18E1,3.683256E2,3.7928998E2,4.7161362E2,-1.1646017E2,-1.0041894E2,-9.4566246E1,-7.6086205E1,-5.24493E1,-3.1000391E1,-5.0619705E1,-1.8436527E1,-1.6853424E0,2.2334818E1,6.955654E1,9.957543E1,9.6175354E1,1.4184288E2,2.6124435E2,3.1064575E2],"split_indices":[0,1,1,0,0,0,0,0,0,0,0,2,2,2,0,0,0,2,2,0,0,2,0,2,0,2,0,0,0,0,0,0,0,0,0,0,0,0,0,0,0,0,0,0,0],"split_type":[0,0,0,0,0,0,0,0,0,0,0,0,0,0,0,0,0,0,0,0,0,0,0,0,0,0,0,0,0,0,0,0,0,0,0,0,0,0,0,0,0,0,0,0,0],"sum_hessian":[6.046E3,4.839E3,1.207E3,3.823E3,1.016E3,9.67E2,2.4E2,1.925E3,1.898E3,5E2,5.16E2,4.6E2,5.07E2,1.28E2,1.12E2,4.95E2,1.43E3,9.68E2,9.3E2,1.25E2,3.75E2,2.58E2,2.58E2,2.93E2,1.67E2,4.14E2,9.3E1,3.7E1,9.1E1,9.71E2,4.59E2,5.05E2,4.63E2,6.6E2,2.7E2,1.25E2,2.5E2,8.2E1,1.76E2,1.35E2,1.23E2,3.1E1,2.62E2,8.2E1,3.32E2],"tree_param":{"num_deleted":"0","num_feature":"8","num_nodes":"45","size_leaf_vector":"1"}},{"base_weights":[9.245966E0,-1.4335063E3,5.8105825E3,5.9678535E0,-1.8075056E3,4.4569116E3,1.1286946E4,-9.9123676E2,9.3304486E2,-2.3483718E3,-1.2713617E3,2.8779094E3,5.949479E3,8.454897E3,7.059676E2,-1.1140713E2,-5.443953E2,2.8094943E2,1.5994946E3,-1.5187761E2,-2.111924E3,-1.626505E3,-8.8659216E2,2.534652E3,3.2312153E3,6.5058823E3,5.4197207E3,3.4364438E2,4.420144E2,-4.6967705E1,-1.7397814E1,3.405993E0,2.5691303E1,6.483604E1,9.6744965E1,-9.222995E1,-1.09976944E2,-6.513194E1,-8.6556114E1,-3.4727226E1,-5.477348E1,1.3489616E2,1.0351839E2,1.9313383E2,1.5149379E2,3.051251E2,3.617203E2,2.4242703E2,2.9240756E2],"categories":[0,1,2,3,0,2,4,0,2,3,0,2,3,0,2,0,4,0,2,3,4],"categories_nodes":[1,12,20,21,22,23,24],"categories_segments":[0,4,7,10,13,15,17],"categories_sizes":[4,3,3,3,2,2,4],"default_left":[0,1,0,0,0,0,0,0,0,0,0,0,1,0,0,0,0,0,0,0,1,1,1,1,1,0,0,0,0,0,0,0,0,0,0,0,0,0,0,0,0,0,0,0,0,0,0,0,0],"id":19,"left_children":[1,3,5,7,9,11,13,15,17,19,21,23,25,27,-1,-1,29,31,33,-1,35,37,39,41,43,45,47,-1,-1,-1,-1,-1,-1,-1,-1,-1,-1,-1,-1,-1,-1,-1,-1,-1,-1,-1,-1,-1,-1],"loss_changes":[4.996821E10,2.5739213E9,8.76399E9,9.1339206E8,1.0974966E9,2.2335918E9,1.765677E9,2.618726E8,2.2206016E8,3.012434E8,2.5928294E8,4.832384E7,1.0917274E8,1.2403712E7,0E0,0E0,2.6905592E7,1.2851386E7,2.3183552E7,0E0,2.8943872E7,3.1322112E7,3.606419E7,1.2683264E7,1.7029888E7,2.4617984E7,3.4535936E7,0E0,0E0,0E0,0E0,0E0,0E0,0E0,0E0,0E0,0E0,0E0,0E0,0E0,0E0,0E0,0E0,0E0,0E0,0E0,0E0,0E0,0E0],"parents":[2147483647,0,0,1,1,2,2,3,3,4,4,5,5,6,6,7,7,8,8,9,9,10,10,11,11,12,12,13,13,16,16,17,17,18,18,20,20,21,21,22,22,23,23,24,24,25,25,26,26],"right_children":[2,4,6,8,10,12,14,16,18,20,22,24,26,28,-1,-1,30,32,34,-1,36,38,40,42,44,46,48,-1,-1,-1,-1,-1,-1,-1,-1,-1,-1,-1,-1,-1,-1,-1,-1,-1,-1,-1,-1,-1,-1],"split_conditions":[2.145E3,1E-45,1.509E2,7.2E2,7.2E2,3.02E3,3.02E3,5.6E2,8.9E2,5.6E2,8.9E2,8.3E0,1E-45,-8.6E0,7.059676E2,-1.1140713E2,5.95E2,8.9E0,1.09E3,-1.5187761E2,1E-45,1E-45,1E-45,1E-45,1E-45,1.71E1,2.4E0,3.4364438E2,4.420144E2,-4.6967705E1,-1.7397814E1,3.405993E0,2.5691303E1,6.483604E1,9.6744965E1,-9.222995E1,-1.09976944E2,-6.513194E1,-8.6556114E1,-3.4727226E1,-5.477348E1,1.3489616E2,1.0351839E2,1.9313383E2,1.5149379E2,3.051251E2,3.617203E2,2.4242703E2,2.9240756E2],"split_indices":[0,7,1,0,0,0,0,0,0,0,0,2,7,2,0,0,0,2,0,0,7,7,7,7,7,2,2,0,0,0,0,0,0,0,0,0,0,0,0,0,0,0,0,0,0,0,0,0,0],"split_type":[0,1,0,0,0,0,0,0,0,0,0,0,1,0,0,0,0,0,0,0,1,1,1,1,1,0,0,0,0,0,0,0,0,0,0,0,0,0,0,0,0,0,0,0,0,0,0,0,0],"sum_hessian":[5.968E3,4.78E3,1.188E3,9.86E2,3.794E3,9.54E2,2.34E2,4.75E2,5.11E2,1.887E3,1.907E3,4.65E2,4.89E2,1.19E2,1.15E2,1.25E2,3.5E2,2.59E2,2.52E2,4.79E2,1.408E3,9.9E2,9.17E2,2.4E2,2.25E2,2.33E2,2.56E2,2.7E1,9.2E1,1.15E2,2.35E2,1.36E2,1.23E2,1.35E2,1.17E2,3.53E2,1.055E3,2.45E2,7.45E2,4.8E2,4.37E2,1.74E2,6.6E1,5E1,1.75E2,1.56E2,7.7E1,1.15E2,1.41E2],"tree_param":{"num_deleted":"0","num_feature":"8","num_nodes":"49","size_leaf_vector":"1"}},{"base_weights":[2.260643E1,-1.3664666E3,5.6096685E3,-1.2654635E1,-1.716836E3,4.2493022E3,1.0771681E4,-9.3805426E2,9.2041907E2,-2.2366438E3,-1.2040995E3,2.7498071E3,5.643322E3,4.0333923E2,1.3410456E4,-1.0636382E2,-5.2709045E2,2.8566916E2,1.518333E3,-1.4404512E2,-2.0104663E3,-1.534422E3,-8.5229156E2,2.4063828E3,3.1139854E3,6.187359E3,5.145066E3,4.4510675E2,6.866751E2,-3.6827282E1,-8.104061E0,-4.7310463E-1,2.1998003E1,6.216978E1,9.0411804E1,-1.0678298E2,-9.235207E1,-6.1272675E1,-8.206441E1,-2.5347776E1,-4.8225216E1,1.3512798E2,1.0654519E2,1.7198283E2,1.3632312E2,1.3568558E2,3.1189755E2,2.3267764E2,2.7551755E2],"categories":[0,1,2,3,0,2,4,0,2,3,0,2,3,0,2,4,0,2,4],"categories_nodes":[1,12,21,22,23,24],"categories_segments":[0,4,7,10,13,16],"categories_sizes":[4,3,3,3,3,3],"default_left":[0,1,0,0,0,0,0,0,0,0,0,0,1,0,0,0,0,0,0,0,0,1,1,1,1,0,0,0,0,0,0,0,0,0,0,0,0,0,0,0,0,0,0,0,0,0,0,0,0],"id":20,"left_children":[1,3,5,7,9,11,13,15,17,19,21,23,25,-1,27,-1,29,31,33,-1,35,37,39,41,43,45,47,-1,-1,-1,-1,-1,-1,-1,-1,-1,-1,-1,-1,-1,-1,-1,-1,-1,-1,-1,-1,-1,-1],"loss_changes":[4.5718995E10,2.2378885E9,8.1912996E9,8.3928896E8,9.962404E8,1.9284838E9,1.6333988E9,2.3737766E8,1.8325674E8,2.6524058E8,2.1821312E8,4.8786944E7,9.854976E7,0E0,5.5422976E7,0E0,2.7709544E7,1.0750676E7,1.7598208E7,0E0,2.4289792E7,3.0115584E7,3.5045824E7,1.349632E7,1.7756032E7,2.2614016E7,2.0499968E7,0E0,0E0,0E0,0E0,0E0,0E0,0E0,0E0,0E0,0E0,0E0,0E0,0E0,0E0,0E0,0E0,0E0,0E0,0E0,0E0,0E0,0E0],"parents":[2147483647,0,0,1,1,2,2,3,3,4,4,5,5,6,6,7,7,8,8,9,9,10,10,11,11,12,12,14,14,16,16,17,17,18,18,20,20,21,21,22,22,23,23,24,24,25,25,26,26],"right_children":[2,4,6,8,10,12,14,16,18,20,22,24,26,-1,28,-1,30,32,34,-1,36,38,40,42,44,46,48,-1,-1,-1,-1,-1,-1,-1,-1,-1,-1,-1,-1,-1,-1,-1,-1,-1,-1,-1,-1,-1,-1],"split_conditions":[2.145E3,1E-45,1.509E2,7.2E2,7.2E2,3.02E3,3.02E3,5.6E2,8.9E2,5.6E2,8.9E2,8.6E0,1E-45,4.0333923E2,-1.72E1,-1.0636382E2,6.8E2,1.9E0,1.09E3,-1.4404512E2,1.04E1,1E-45,1E-45,1E-45,1E-45,-3.61E1,3E0,4.4510675E2,6.866751E2,-3.6827282E1,-8.104061E0,-4.7310463E-1,2.1998003E1,6.216978E1,9.0411804E1,-1.0678298E2,-9.235207E1,-6.1272675E1,-8.206441E1,-2.5347776E1,-4.8225216E1,1.3512798E2,1.0654519E2,1.7198283E2,1.3632312E2,1.3568558E2,3.1189755E2,2.3267764E2,2.7551755E2],"split_indices":[0,7,1,0,0,0,0,0,0,0,0,2,7,0,2,0,0,2,0,0,2,7,7,7,7,2,2,0,0,0,0,0,0,0,0,0,0,0,0,0,0,0,0,0,0,0,0,0,0],"split_type":[0,1,0,0,0,0,0,0,0,0,0,0,1,0,0,0,0,0,0,0,0,1,1,1,1,0,0,0,0,0,0,0,0,0,0,0,0,0,0,0,0,0,0,0,0,0,0,0,0],"sum_hessian":[5.889E3,4.717E3,1.172E3,9.7E2,3.747E3,9.29E2,2.43E2,4.87E2,4.83E2,1.859E3,1.888E3,4.49E2,4.8E2,1.22E2,1.21E2,1.24E2,3.63E2,2.35E2,2.48E2,4.8E2,1.379E3,9.72E2,9.16E2,2.35E2,2.14E2,2.24E2,2.56E2,1E1,1.11E2,2.3E2,1.33E2,8.1E1,1.54E2,1.3E2,1.18E2,7.74E2,6.05E2,2.53E2,7.19E2,2.26E2,6.9E2,1.09E2,1.26E2,1.12E2,1.02E2,4E0,2.2E2,1.15E2,1.41E2],"tree_param":{"num_deleted":"0","num_feature":"8","num_nodes":"49","size_leaf_vector":"1"}},{"base_weights":[-1.6296587E1,-1.2970863E3,5.2794805E3,1.1649048E1,-1.643863E3,4.0288552E3,1.0133686E4,-8.8920844E2,8.6224396E2,-2.1330942E3,-1.1514491E3,2.6424944E3,5.351145E3,3.839037E2,6.262388E2,-1.00315315E2,-5.0220422E2,2.5198082E2,1.4622284E3,-1.3670969E2,-1.9137708E3,-1.4738638E3,-8.142916E2,3.0120327E3,2.2988994E3,6.2317554E3,5.0898657E3,-4.5052715E1,-1.5199022E1,-6.849296E0,1.7517702E1,5.8502064E1,8.818041E1,-8.8503136E1,-1.0268699E2,-8.56238E1,-6.732189E1,-4.899158E1,-2.874386E1,1.3153587E2,1.631761E2,1.0217752E2,1.4115135E2,1.703906E2,3.1553177E2,2.4557336E2,3.1851913E2],"categories":[0,1,2,3,0,2,0,2,3,4,0,2],"categories_nodes":[1,11,12,20],"categories_segments":[0,4,6,10],"categories_sizes":[4,2,4,2],"default_left":[0,1,0,0,0,0,0,0,0,0,0,1,1,0,0,0,0,0,0,0,1,0,0,0,0,0,0,0,0,0,0,0,0,0,0,0,0,0,0,0,0,0,0,0,0,0,0],"id":21,"left_children":[1,3,5,7,9,11,13,15,17,19,21,23,25,-1,-1,-1,27,29,31,-1,33,35,37,39,41,43,45,-1,-1,-1,-1,-1,-1,-1,-1,-1,-1,-1,-1,-1,-1,-1,-1,-1,-1,-1,-1],"loss_changes":[4.0574636E10,2.1861612E9,7.031644E9,7.7469414E8,9.1490714E8,1.6870431E9,1.3012746E9,2.112623E8,1.9002874E8,2.4644096E8,2.0533837E8,5.0848E7,7.73417E7,0E0,0E0,0E0,2.8662632E7,9.958345E6,2.1008E7,0E0,2.456576E7,2.7187712E7,3.633472E7,1.2128256E7,2.6351616E7,1.660672E6,5.3464064E7,0E0,0E0,0E0,0E0,0E0,0E0,0E0,0E0,0E0,0E0,0E0,0E0,0E0,0E0,0E0,0E0,0E0,0E0,0E0,0E0],"parents":[2147483647,0,0,1,1,2,2,3,3,4,4,5,5,6,6,7,7,8,8,9,9,10,10,11,11,12,12,16,16,17,17,18,18,20,20,21,21,22,22,23,23,24,24,25,25,26,26],"right_children":[2,4,6,8,10,12,14,16,18,20,22,24,26,-1,-1,-1,28,30,32,-1,34,36,38,40,42,44,46,-1,-1,-1,-1,-1,-1,-1,-1,-1,-1,-1,-1,-1,-1,-1,-1,-1,-1,-1,-1],"split_conditions":[2.145E3,1E-45,2.999E2,7.2E2,7.2E2,3.02E3,3.02E3,5.6E2,8.9E2,5.6E2,8.9E2,1E-45,1E-45,3.839037E2,6.262388E2,-1.00315315E2,5.95E2,-6.3E0,1.09E3,-1.3670969E2,1E-45,-2E-1,1.2E1,4.3E0,1.64E1,-3.42E1,3.06E1,-4.5052715E1,-1.5199022E1,-6.849296E0,1.7517702E1,5.8502064E1,8.818041E1,-8.8503136E1,-1.0268699E2,-8.56238E1,-6.732189E1,-4.899158E1,-2.874386E1,1.3153587E2,1.631761E2,1.0217752E2,1.4115135E2,1.703906E2,3.1553177E2,2.4557336E2,3.1851913E2],"split_indices":[0,7,1,0,0,0,0,0,0,0,0,7,7,0,0,0,0,2,0,0,7,2,2,2,2,2,2,0,0,0,0,0,0,0,0,0,0,0,0,0,0,0,0,0,0,0,0],"split_type":[0,1,0,0,0,0,0,0,0,0,0,1,1,0,0,0,0,0,0,0,1,0,0,0,0,0,0,0,0,0,0,0,0,0,0,0,0,0,0,0,0,0,0,0,0,0,0],"sum_hessian":[5.98E3,4.816E3,1.164E3,1.009E3,3.807E3,9.27E2,2.37E2,4.9E2,5.19E2,1.908E3,1.899E3,4.54E2,4.73E2,1.19E2,1.18E2,1.25E2,3.65E2,2.58E2,2.61E2,5.07E2,1.401E3,9.69E2,9.3E2,2.15E2,2.39E2,1.03E2,3.7E2,1.2E2,2.45E2,5.2E1,2.06E2,1.35E2,1.26E2,6.98E2,7.03E2,3.33E2,6.36E2,5.48E2,3.82E2,9E1,1.25E2,1.64E2,7.5E1,4E0,9.9E1,3.29E2,4.1E1],"tree_param":{"num_deleted":"0","num_feature":"8","num_nodes":"47","size_leaf_vector":"1"}},{"base_weights":[1.2673713E0,-1.2453116E3,5.0421465E3,-2.5585457E1,-1.5586935E3,3.8305293E3,9.666182E3,-8.460513E2,7.916038E2,-2.0218103E3,-1.0906205E3,2.481925E3,5.077532E3,3.657235E2,6.057263E2,-9.612289E1,-4.8495633E2,2.4339713E2,1.3731984E3,-1.3036835E2,-1.818238E3,-1.4016525E3,-7.6778986E2,2.8059175E3,2.1639412E3,3.0083102E2,4.785851E3,-4.0640583E1,-1.5372652E1,1.0431806E1,2.5354946E1,5.633633E1,8.1028656E1,-9.559646E1,-8.091001E1,-5.520104E1,-7.4698555E1,-4.723204E1,-2.9331272E1,1.5296776E2,1.2865526E2,1.1550173E2,1.0078564E2,2.484962E2,2.227895E2],"categories":[0,1,2,3,0,2,4,0,2,3,4,0,2,3,0,2,3,4,0,1,3,4,0,1,4],"categories_nodes":[1,11,12,21,23,24,26],"categories_segments":[0,4,7,11,14,18,22],"categories_sizes":[4,3,4,3,4,4,3],"default_left":[0,1,0,0,0,0,0,0,0,0,0,1,1,0,0,0,0,0,0,0,0,1,0,1,1,0,1,0,0,0,0,0,0,0,0,0,0,0,0,0,0,0,0,0,0],"id":22,"left_children":[1,3,5,7,9,11,13,15,17,19,21,23,25,-1,-1,-1,27,29,31,-1,33,35,37,39,41,-1,43,-1,-1,-1,-1,-1,-1,-1,-1,-1,-1,-1,-1,-1,-1,-1,-1,-1,-1],"loss_changes":[3.765285E10,1.8362419E9,6.6188186E9,6.597476E8,8.262984E8,1.5732541E9,1.3278065E9,1.8991197E8,1.5685094E8,2.2412902E8,1.900055E8,4.0804096E7,1.0514842E8,0E0,0E0,0E0,2.12242E7,2.231667E6,1.2746112E7,0E0,2.3669248E7,2.4948352E7,2.9434432E7,5.226752E6,4.1088E5,0E0,8.21248E5,0E0,0E0,0E0,0E0,0E0,0E0,0E0,0E0,0E0,0E0,0E0,0E0,0E0,0E0,0E0,0E0,0E0,0E0],"parents":[2147483647,0,0,1,1,2,2,3,3,4,4,5,5,6,6,7,7,8,8,9,9,10,10,11,11,12,12,16,16,17,17,18,18,20,20,21,21,22,22,23,23,24,24,26,26],"right_children":[2,4,6,8,10,12,14,16,18,20,22,24,26,-1,-1,-1,28,30,32,-1,34,36,38,40,42,-1,44,-1,-1,-1,-1,-1,-1,-1,-1,-1,-1,-1,-1,-1,-1,-1,-1,-1,-1],"split_conditions":[2.145E3,1E-45,1.509E2,7.2E2,7.2E2,3.02E3,3.02E3,5.6E2,8.9E2,5.6E2,8.9E2,1E-45,1E-45,3.657235E2,6.057263E2,-9.612289E1,5.95E2,3.402E2,1.09E3,-1.3036835E2,6.8E2,1E-45,1.09E3,1E-45,1E-45,3.0083102E2,1E-45,-4.0640583E1,-1.5372652E1,1.0431806E1,2.5354946E1,5.633633E1,8.1028656E1,-9.559646E1,-8.091001E1,-5.520104E1,-7.4698555E1,-4.723204E1,-2.9331272E1,1.5296776E2,1.2865526E2,1.1550173E2,1.0078564E2,2.484962E2,2.227895E2],"split_indices":[0,7,1,0,0,0,0,0,0,0,0,7,7,0,0,0,0,1,0,0,0,7,0,7,7,0,7,0,0,0,0,0,0,0,0,0,0,0,0,0,0,0,0,0,0],"split_type":[0,1,0,0,0,0,0,0,0,0,0,1,1,0,0,0,0,0,0,0,0,1,0,1,1,0,1,0,0,0,0,0,0,0,0,0,0,0,0,0,0,0,0,0,0],"sum_hessian":[5.99E3,4.803E3,1.187E3,9.82E2,3.821E3,9.42E2,2.45E2,4.9E2,4.92E2,1.919E3,1.902E3,4.54E2,4.88E2,1.27E2,1.18E2,1.22E2,3.68E2,2.54E2,2.38E2,4.92E2,1.427E3,9.67E2,9.35E2,2.21E2,2.33E2,1.11E2,3.77E2,1.28E2,2.4E2,2.26E2,2.8E1,1.22E2,1.16E2,9.66E2,4.61E2,2.32E2,7.35E2,4.71E2,4.64E2,1E2,1.21E2,1.1E2,1.23E2,2.33E2,1.44E2],"tree_param":{"num_deleted":"0","num_feature":"8","num_nodes":"45","size_leaf_vector":"1"}},{"base_weights":[3.5613592E0,-1.1781759E3,4.78825E3,-1.473108E3,-1.2022554E0,3.6863193E3,9.143666E3,-1.9123468E3,-1.0353843E3,-7.8486334E2,7.5219794E2,2.3709006E3,4.8829194E3,6.936781E3,1.1502646E4,-1.2367277E2,-1.7163496E3,-1.3315271E3,-7.332021E2,-9.15736E1,-4.5508038E2,2.1097552E2,1.324241E3,1.922395E3,2.6155193E3,4.41237E3,5.362495E3,2.8293686E2,3.622097E2,1.3994307E2,5.777451E2,-9.34894E1,-7.966469E1,-7.450899E1,-5.7730915E1,-4.9939526E1,-2.9805143E1,-3.1742512E1,-6.730391E0,-9.362693E0,1.6357489E1,5.2227974E1,8.058975E1,6.9020096E1,1.014299E2,1.2474696E2,1.5437769E2,1.686953E2,2.2650871E2,2.3209837E2,2.8094382E2],"categories":[],"categories_nodes":[],"categories_segments":[],"categories_sizes":[],"default_left":[0,0,0,0,0,0,0,0,0,0,0,0,0,0,0,0,0,0,0,0,0,0,0,0,0,0,0,0,0,0,0,0,0,0,0,0,0,0,0,0,0,0,0,0,0,0,0,0,0,0,0],"id":23,"left_children":[1,3,5,7,9,11,13,15,17,19,21,23,25,27,29,-1,31,33,35,-1,37,39,41,43,45,47,49,-1,-1,-1,-1,-1,-1,-1,-1,-1,-1,-1,-1,-1,-1,-1,-1,-1,-1,-1,-1,-1,-1,-1,-1],"loss_changes":[3.3885878E10,1.6682926E9,5.663144E9,7.368955E8,5.6974605E8,1.4821765E9,1.1644416E9,2.0657766E8,1.7146918E8,1.624242E8,1.5204502E8,4.478131E7,8.82688E7,8.510976E6,1.9509248E7,0E0,2.3908352E7,2.5560576E7,3.4214496E7,0E0,2.0712216E7,1.1812317E7,1.75376E7,6.639744E6,8.859904E6,1.6033792E7,1.843712E7,0E0,0E0,0E0,0E0,0E0,0E0,0E0,0E0,0E0,0E0,0E0,0E0,0E0,0E0,0E0,0E0,0E0,0E0,0E0,0E0,0E0,0E0,0E0,0E0],"parents":[2147483647,0,0,1,1,2,2,3,3,4,4,5,5,6,6,7,7,8,8,9,9,10,10,11,11,12,12,13,13,14,14,16,16,17,17,18,18,20,20,21,21,22,22,23,23,24,24,25,25,26,26],"right_children":[2,4,6,8,10,12,14,16,18,20,22,24,26,28,30,-1,32,34,36,-1,38,40,42,44,46,48,50,-1,-1,-1,-1,-1,-1,-1,-1,-1,-1,-1,-1,-1,-1,-1,-1,-1,-1,-1,-1,-1,-1,-1,-1],"split_conditions":[2.145E3,1.509E2,1.509E2,7.2E2,7.2E2,3.02E3,3.02E3,5.6E2,8.9E2,5.6E2,8.9E2,1.2E0,7.2E0,-8.6E0,-3.01E1,-1.2367277E2,5E0,8.1E0,8E-1,-9.15736E1,6.8E2,-5.2E0,1.09E3,-2.06E1,2.96E1,-2.38E1,1.223E2,2.8293686E2,3.622097E2,1.3994307E2,5.777451E2,-9.34894E1,-7.966469E1,-7.450899E1,-5.7730915E1,-4.9939526E1,-2.9805143E1,-3.1742512E1,-6.730391E0,-9.362693E0,1.6357489E1,5.2227974E1,8.058975E1,6.9020096E1,1.014299E2,1.2474696E2,1.5437769E2,1.686953E2,2.2650871E2,2.3209837E2,2.8094382E2],"split_indices":[0,1,1,0,0,0,0,0,0,0,0,2,2,2,2,0,2,2,2,0,0,2,0,2,2,2,1,0,0,0,0,0,0,0,0,0,0,0,0,0,0,0,0,0,0,0,0,0,0,0,0],"split_type":[0,0,0,0,0,0,0,0,0,0,0,0,0,0,0,0,0,0,0,0,0,0,0,0,0,0,0,0,0,0,0,0,0,0,0,0,0,0,0,0,0,0,0,0,0,0,0,0,0,0,0],"sum_hessian":[5.991E3,4.805E3,1.186E3,3.842E3,9.63E2,9.48E2,2.38E2,1.916E3,1.926E3,4.72E2,4.91E2,4.53E2,4.95E2,1.25E2,1.13E2,4.93E2,1.423E3,9.71E2,9.55E2,1.12E2,3.6E2,2.53E2,2.38E2,1.63E2,2.9E2,2.55E2,2.4E2,2.8E1,9.7E1,1E0,1.12E2,6.27E2,7.96E2,5.08E2,4.63E2,3.23E2,6.32E2,2.3E2,1.3E2,5.7E1,1.96E2,1.23E2,1.15E2,2.9E1,1.34E2,2.36E2,5.4E1,2.9E1,2.26E2,6.8E1,1.72E2],"tree_param":{"num_deleted":"0","num_feature":"8","num_nodes":"51","size_leaf_vector":"1"}},{"base_weights":[2.2181597E1,-1.1197839E3,4.5393965E3,-1.4021488E3,-2.933054E1,3.4812227E3,8.664186E3,-1.8233478E3,-9.7534357E2,-1.02338916E3,5.509801E2,2.2432517E3,4.633344E3,6.5673345E3,1.0846099E4,-1.1750939E2,-1.6437825E3,-1.2627887E3,-6.819933E2,-8.634014E1,-6.332324E2,9.5140564E1,1.2518866E3,2.0020853E3,2.6383489E3,4.374688E3,2.6852438E2,9.201045E1,3.2949442E2,1.3644453E2,5.44569E2,-9.043331E1,-7.694142E1,-6.766658E1,-4.9043278E1,-3.7918056E1,-1.379567E1,-3.640124E1,-1.6406572E1,-1.0243096E1,1.0425822E1,4.9820614E1,7.5698006E1,7.36696E1,1.051777E2,1.2258903E2,1.5471422E2,1.8350822E2,2.2745708E2],"categories":[],"categories_nodes":[],"categories_segments":[],"categories_sizes":[],"default_left":[0,0,0,0,0,0,0,0,0,0,0,0,0,0,0,0,0,0,0,0,0,0,0,0,0,0,0,0,0,0,0,0,0,0,0,0,0,0,0,0,0,0,0,0,0,0,0,0,0],"id":24,"left_children":[1,3,5,7,9,11,13,15,17,19,21,23,25,27,29,-1,31,33,35,-1,37,39,41,43,45,47,-1,-1,-1,-1,-1,-1,-1,-1,-1,-1,-1,-1,-1,-1,-1,-1,-1,-1,-1,-1,-1,-1,-1],"loss_changes":[3.1136653E10,1.4834488E9,5.286095E9,6.8620134E8,5.728118E8,1.3745377E9,1.0634076E9,1.7824563E8,1.5960371E8,9.935213E7,2.0020794E8,3.950157E7,7.221965E7,1.626624E6,1.4385152E7,0E0,2.2118912E7,2.31776E7,2.9065568E7,0E0,6.615448E6,1.3001688E7,1.5028896E7,1.2779904E7,7.299584E6,2.9639168E7,0E0,0E0,0E0,0E0,0E0,0E0,0E0,0E0,0E0,0E0,0E0,0E0,0E0,0E0,0E0,0E0,0E0,0E0,0E0,0E0,0E0,0E0,0E0],"parents":[2147483647,0,0,1,1,2,2,3,3,4,4,5,5,6,6,7,7,8,8,9,9,10,10,11,11,12,12,13,13,14,14,16,16,17,17,18,18,20,20,21,21,22,22,23,23,24,24,25,25],"right_children":[2,4,6,8,10,12,14,16,18,20,22,24,26,28,30,-1,32,34,36,-1,38,40,42,44,46,48,-1,-1,-1,-1,-1,-1,-1,-1,-1,-1,-1,-1,-1,-1,-1,-1,-1,-1,-1,-1,-1,-1,-1],"split_conditions":[2.145E3,1.509E2,1.509E2,7.2E2,6.8E2,3.02E3,3.02E3,5.6E2,8.9E2,5.6E2,8.9E2,1.34E1,1.98E1,-4.15E1,-3.01E1,-1.1750939E2,2.4E0,2.05E1,2.56E1,-8.634014E1,1.82E1,-1.4E0,1.09E3,-1.48E1,3.09E1,-1.18E1,2.6852438E2,9.201045E1,3.2949442E2,1.3644453E2,5.44569E2,-9.043331E1,-7.694142E1,-6.766658E1,-4.9043278E1,-3.7918056E1,-1.379567E1,-3.640124E1,-1.6406572E1,-1.0243096E1,1.0425822E1,4.9820614E1,7.5698006E1,7.36696E1,1.051777E2,1.2258903E2,1.5471422E2,1.8350822E2,2.2745708E2],"split_indices":[0,1,1,0,0,0,0,0,0,0,0,2,2,2,2,0,2,2,2,0,2,2,0,2,2,2,0,0,0,0,0,0,0,0,0,0,0,0,0,0,0,0,0,0,0,0,0,0,0],"split_type":[0,0,0,0,0,0,0,0,0,0,0,0,0,0,0,0,0,0,0,0,0,0,0,0,0,0,0,0,0,0,0,0,0,0,0,0,0,0,0,0,0,0,0,0,0,0,0,0,0],"sum_hessian":[6.034E3,4.817E3,1.217E3,3.826E3,9.91E2,9.7E2,2.47E2,1.924E3,1.902E3,3.65E2,6.26E2,4.69E2,5.01E2,1.28E2,1.19E2,4.86E2,1.438E3,9.59E2,9.43E2,1.29E2,2.36E2,3.8E2,2.46E2,2.95E2,1.74E2,3.76E2,1.25E2,1E0,1.27E2,1E0,1.18E2,5.53E2,8.85E2,7.23E2,2.36E2,7.93E2,1.5E2,1.79E2,5.7E1,1.04E2,2.76E2,1.27E2,1.19E2,5E1,2.45E2,1.28E2,4.6E1,7.9E1,2.97E2],"tree_param":{"num_deleted":"0","num_feature":"8","num_nodes":"49","size_leaf_vector":"1"}},{"base_weights":[-1.1800096E1,-1.0556239E3,4.298221E3,-1.6673853E3,-6.891893E2,2.9809695E3,5.5749043E3,-2.1328723E3,-1.4305438E3,-9.5771356E2,-2.7591278E2,2.460453E3,3.2197358E3,5.1765947E3,6.7921274E3,-1.1279067E2,-1.0108794E2,-1.5022915E3,-1.1933373E3,-1.2074001E3,-8.493726E2,-8.561345E2,-1.9788315E2,6.655019E1,2.537631E3,3.3129666E3,1.2795715E2,4.3108506E3,5.398568E3,6.1936313E3,3.7370682E2,-8.291803E1,-7.281456E1,-6.5894394E1,-5.297529E1,-5.4049557E1,-6.3891506E1,-4.648308E1,-3.1741623E1,-4.9178772E1,-3.6017147E1,-1.9457958E1,3.8569644E-1,1.4755577E2,1.1976327E2,1.5091327E2,1.7740099E2,1.3251338E2,2.246217E2,2.764747E2,2.3823344E2,3.1257388E2,1.2932663E2],"categories":[1,7],"categories_nodes":[19],"categories_segments":[0],"categories_sizes":[2],"default_left":[0,0,0,0,0,0,0,0,0,0,0,0,0,0,0,0,0,0,0,1,0,0,0,0,0,0,0,0,0,0,0,0,0,0,0,0,0,0,0,0,0,0,0,0,0,0,0,0,0,0,0,0,0],"id":25,"left_children":[1,3,5,7,9,11,13,15,17,19,21,23,25,27,29,-1,-1,31,33,35,37,39,41,-1,43,45,-1,47,49,51,-1,-1,-1,-1,-1,-1,-1,-1,-1,-1,-1,-1,-1,-1,-1,-1,-1,-1,-1,-1,-1,-1,-1],"loss_changes":[2.6997955E10,1.0818191E9,1.9509862E9,1.9638477E8,3.3521254E8,6.391296E7,2.5234432E8,3.744768E6,1.8664192E7,4.853235E7,5.379779E7,1.2835968E7,1.5725568E7,6.3396864E7,1.2077568E7,0E0,0E0,4.182656E6,3.3376E6,3.53312E6,2.1475392E7,1.731544E6,4.1373732E7,0E0,3.115008E6,1.2912384E7,0E0,1.7342592E7,3.116032E6,9.40032E5,0E0,0E0,0E0,0E0,0E0,0E0,0E0,0E0,0E0,0E0,0E0,0E0,0E0,0E0,0E0,0E0,0E0,0E0,0E0,0E0,0E0,0E0,0E0],"parents":[2147483647,0,0,1,1,2,2,3,3,4,4,5,5,6,6,7,7,8,8,9,9,10,10,11,11,12,12,13,13,14,14,17,17,18,18,19,19,20,20,21,21,22,22,24,24,25,25,27,27,28,28,29,29],"right_children":[2,4,6,8,10,12,14,16,18,20,22,24,26,28,30,-1,-1,32,34,36,38,40,42,-1,44,46,-1,48,50,52,-1,-1,-1,-1,-1,-1,-1,-1,-1,-1,-1,-1,-1,-1,-1,-1,-1,-1,-1,-1,-1,-1,-1],"split_conditions":[2.145E3,6.8E2,3.02E3,5.6E2,8.9E2,-1.7E0,2E1,5.8E0,2.07E1,-1.6E0,-1.21E1,-3.01E1,1.1E1,-1.1E1,3.06E1,-1.1279067E2,-1.0108794E2,-9.5E0,5.95E2,1E-45,2.31E1,1.09E3,1.09E3,6.655019E1,4E0,1.24E1,1.2795715E2,-3.01E1,1.34E1,3.02E1,3.7370682E2,-8.291803E1,-7.281456E1,-6.5894394E1,-5.297529E1,-5.4049557E1,-6.3891506E1,-4.648308E1,-3.1741623E1,-4.9178772E1,-3.6017147E1,-1.9457958E1,3.8569644E-1,1.4755577E2,1.1976327E2,1.5091327E2,1.7740099E2,1.3251338E2,2.246217E2,2.764747E2,2.3823344E2,3.1257388E2,1.2932663E2],"split_indices":[0,0,0,0,0,2,2,2,2,2,2,2,3,2,2,0,0,2,0,5,2,0,0,0,3,2,0,2,2,2,0,0,0,0,0,0,0,0,0,0,0,0,0,0,0,0,0,0,0,0,0,0,0],"split_type":[0,0,0,0,0,0,0,0,0,0,0,0,0,0,0,0,0,0,0,1,0,0,0,0,0,0,0,0,0,0,0,0,0,0,0,0,0,0,0,0,0,0,0,0,0,0,0,0,0,0,0,0,0],"sum_hessian":[5.999E3,4.83E3,1.169E3,1.808E3,3.022E3,5.77E2,5.92E2,6.07E2,1.201E3,1.831E3,1.191E3,1.85E2,3.92E2,4.5E2,1.42E2,2.79E2,3.28E2,9.18E2,2.83E2,5.51E2,1.28E3,1.4E2,1.051E3,1.3E1,1.72E2,3.4E2,5.2E1,9.6E1,3.54E2,8.1E1,6.1E1,2.01E2,7.17E2,1.42E2,1.41E2,2.03E2,3.48E2,9.29E2,3.51E2,6.9E1,7.1E1,5.44E2,5.07E2,3.9E1,1.33E2,1.57E2,1.83E2,1.1E1,8.5E1,2.87E2,6.7E1,7.9E1,2E0],"tree_param":{"num_deleted":"0","num_feature":"8","num_nodes":"53","size_leaf_vector":"1"}},{"base_weights":[2.4880789E1,-1.0100199E3,4.09312E3,3.9771915E1,-1.2785365E3,3.115631E3,8.0892803E3,-6.506996E2,7.301611E2,-1.6506979E3,-9.03318E2,1.9760171E3,4.1501987E3,3.0602914E2,1.0039317E4,-7.625063E1,-3.7019455E2,2.5630154E2,1.1932599E3,-2.1241968E3,-1.4894651E3,-1.1445638E3,-6.4844434E2,2.2619165E3,1.6914362E3,4.9803794E3,3.879909E3,1.976519E2,5.055396E2,-3.3327217E1,-1.0718351E1,-8.493786E-1,1.9152567E1,4.9436016E1,7.0891685E1,-1.1022479E2,-9.997544E1,-6.755846E1,-8.1964935E1,-4.2402462E1,-6.186913E1,-1.6632109E1,-3.7722775E1,8.347192E1,1.20738846E2,8.0134056E1,1.3702672E2,2.1822061E2,2.662806E2,1.6579297E2,2.0811015E2],"categories":[0,1,2,3,0,2,4,0,2,3,4,0,2,0,2,3,0,2,3],"categories_nodes":[1,11,12,20,21,22],"categories_segments":[0,4,7,11,13,16],"categories_sizes":[4,3,4,2,3,3],"default_left":[0,1,0,0,0,0,0,0,0,0,0,1,1,0,0,0,0,0,0,0,1,1,1,0,0,0,0,0,0,0,0,0,0,0,0,0,0,0,0,0,0,0,0,0,0,0,0,0,0,0,0],"id":26,"left_children":[1,3,5,7,9,11,13,15,17,19,21,23,25,-1,27,-1,29,31,33,35,37,39,41,43,45,47,49,-1,-1,-1,-1,-1,-1,-1,-1,-1,-1,-1,-1,-1,-1,-1,-1,-1,-1,-1,-1,-1,-1,-1,-1],"loss_changes":[2.4996022E10,1.3342193E9,4.6778675E9,4.6048483E8,5.2481894E8,1.1342572E9,8.445645E8,1.1789083E8,1.0568552E8,1.4120243E8,1.1479219E8,3.384461E7,9.444147E7,0E0,1.0929152E7,0E0,1.6804976E7,8.319947E6,9.806112E6,3.78112E5,2.7085056E7,2.5481984E7,3.041536E7,1.6617856E7,1.75824E7,2.487552E6,4.782029E7,0E0,0E0,0E0,0E0,0E0,0E0,0E0,0E0,0E0,0E0,0E0,0E0,0E0,0E0,0E0,0E0,0E0,0E0,0E0,0E0,0E0,0E0,0E0,0E0],"parents":[2147483647,0,0,1,1,2,2,3,3,4,4,5,5,6,6,7,7,8,8,9,9,10,10,11,11,12,12,14,14,16,16,17,17,18,18,19,19,20,20,21,21,22,22,23,23,24,24,25,25,26,26],"right_children":[2,4,6,8,10,12,14,16,18,20,22,24,26,-1,28,-1,30,32,34,36,38,40,42,44,46,48,50,-1,-1,-1,-1,-1,-1,-1,-1,-1,-1,-1,-1,-1,-1,-1,-1,-1,-1,-1,-1,-1,-1,-1,-1],"split_conditions":[2.145E3,1E-45,1.509E2,7.2E2,7.2E2,3.02E3,3.02E3,5.6E2,8.9E2,5.6E2,8.9E2,1E-45,1E-45,3.0602914E2,-2.8E1,-7.625063E1,5.95E2,1.9E0,1.09E3,1.34E1,1E-45,1E-45,1E-45,-5.9E0,3.18E1,-9E-1,1E-1,1.976519E2,5.055396E2,-3.3327217E1,-1.0718351E1,-8.493786E-1,1.9152567E1,4.9436016E1,7.0891685E1,-1.1022479E2,-9.997544E1,-6.755846E1,-8.1964935E1,-4.2402462E1,-6.186913E1,-1.6632109E1,-3.7722775E1,8.347192E1,1.20738846E2,8.0134056E1,1.3702672E2,2.1822061E2,2.662806E2,1.6579297E2,2.0811015E2],"split_indices":[0,7,1,0,0,0,0,0,0,0,0,7,7,0,2,0,0,2,0,2,7,7,7,2,2,2,2,0,0,0,0,0,0,0,0,0,0,0,0,0,0,0,0,0,0,0,0,0,0,0,0],"split_type":[0,1,0,0,0,0,0,0,0,0,0,1,1,0,0,0,0,0,0,0,1,1,1,0,0,0,0,0,0,0,0,0,0,0,0,0,0,0,0,0,0,0,0,0,0,0,0,0,0,0,0],"sum_hessian":[5.935E3,4.732E3,1.203E3,9.64E2,3.768E3,9.68E2,2.35E2,4.82E2,4.82E2,1.89E3,1.878E3,4.62E2,5.06E2,1.19E2,1.16E2,1.16E2,3.66E2,2.39E2,2.43E2,4.77E2,1.413E3,9.63E2,9.15E2,2.27E2,2.35E2,1.2E2,3.86E2,2E0,1.14E2,1.25E2,2.41E2,7.6E1,1.63E2,1.3E2,1.13E2,2.8E2,1.97E2,7.4E2,6.73E2,2.32E2,7.31E2,2.31E2,6.84E2,4.9E1,1.78E2,2.19E2,1.6E1,4.8E1,7.2E1,1.33E2,2.53E2],"tree_param":{"num_deleted":"0","num_feature":"8","num_nodes":"51","size_leaf_vector":"1"}},{"base_weights":[3.2939987E1,-9.488355E2,3.9754949E3,-1.2155155E3,6.2110813E1,2.9596316E3,7.729771E3,-1.672822E3,-9.400882E2,-5.9970544E2,7.032049E2,1.8708687E3,3.944069E3,5.849908E3,9.506793E3,-1.0114618E2,-1.4996638E3,-1.1470165E3,-6.1810443E2,-7.413519E1,-3.3370404E2,2.3000037E2,1.1610239E3,1.29169E3,1.9935078E3,3.7692114E3,4.994357E3,2.4343774E2,3.0781287E2,2.0706807E2,4.800463E2,-7.8756546E1,-6.330502E1,-6.344515E1,-4.962056E1,-3.3902702E1,-8.03417E0,-2.462469E1,-3.5740914E0,-5.403349E0,1.6198957E1,4.7593952E1,6.871007E1,1.8757986E1,6.795556E1,9.52373E1,1.3059491E2,1.6296E2,1.9755357E2,1.9106192E2,2.6271365E2],"categories":[],"categories_nodes":[],"categories_segments":[],"categories_sizes":[],"default_left":[0,0,0,0,0,0,0,0,0,0,0,0,0,0,0,0,0,0,0,0,0,0,0,0,0,0,0,0,0,0,0,0,0,0,0,0,0,0,0,0,0,0,0,0,0,0,0,0,0,0,0],"id":27,"left_children":[1,3,5,7,9,11,13,15,17,19,21,23,25,27,29,-1,31,33,35,-1,37,39,41,43,45,47,49,-1,-1,-1,-1,-1,-1,-1,-1,-1,-1,-1,-1,-1,-1,-1,-1,-1,-1,-1,-1,-1,-1,-1,-1],"loss_changes":[2.3394435E10,1.3046661E9,4.5727887E9,4.807081E8,4.2937533E8,1.0108488E9,7.995689E8,8.414234E7,1.5866406E8,1.1647485E8,1.1108696E8,2.9601664E7,7.263386E7,8.19968E6,2.5897984E7,0E0,1.5032832E7,2.6159232E7,2.5613056E7,0E0,1.595386E7,8.104883E6,1.0328608E7,4.5572E6,1.544384E7,2.7098112E7,6.56256E5,0E0,0E0,0E0,0E0,0E0,0E0,0E0,0E0,0E0,0E0,0E0,0E0,0E0,0E0,0E0,0E0,0E0,0E0,0E0,0E0,0E0,0E0,0E0,0E0],"parents":[2147483647,0,0,1,1,2,2,3,3,4,4,5,5,6,6,7,7,8,8,9,9,10,10,11,11,12,12,13,13,14,14,16,16,17,17,18,18,20,20,21,21,22,22,23,23,24,24,25,25,26,26],"right_children":[2,4,6,8,10,12,14,16,18,20,22,24,26,28,30,-1,32,34,36,-1,38,40,42,44,46,48,50,-1,-1,-1,-1,-1,-1,-1,-1,-1,-1,-1,-1,-1,-1,-1,-1,-1,-1,-1,-1,-1,-1,-1,-1],"split_conditions":[2.145E3,1.509E2,1.509E2,6.8E2,7.2E2,3.02E3,3.02E3,5.6E2,8.9E2,5.6E2,8.9E2,-7.9E0,2.77E1,-6.3E0,-2.8E1,-1.0114618E2,1.93E1,9.4E0,2.84E1,-7.413519E1,6.8E2,-6.3E0,1.09E3,-3.23E1,3.18E1,1.222E2,1.212E2,2.4343774E2,3.0781287E2,2.0706807E2,4.800463E2,-7.8756546E1,-6.330502E1,-6.344515E1,-4.962056E1,-3.3902702E1,-8.03417E0,-2.462469E1,-3.5740914E0,-5.403349E0,1.6198957E1,4.7593952E1,6.871007E1,1.8757986E1,6.795556E1,9.52373E1,1.3059491E2,1.6296E2,1.9755357E2,1.9106192E2,2.6271365E2],"split_indices":[0,1,1,0,0,0,0,0,0,0,0,2,2,2,2,0,2,2,2,0,0,2,0,2,2,1,1,0,0,0,0,0,0,0,0,0,0,0,0,0,0,0,0,0,0,0,0,0,0,0,0],"split_type":[0,0,0,0,0,0,0,0,0,0,0,0,0,0,0,0,0,0,0,0,0,0,0,0,0,0,0,0,0,0,0,0,0,0,0,0,0,0,0,0,0,0,0,0,0,0,0,0,0,0,0],"sum_hessian":[6.042E3,4.838E3,1.204E3,3.828E3,1.01E3,9.49E2,2.55E2,1.437E3,2.391E3,4.97E2,5.13E2,4.52E2,4.97E2,1.26E2,1.29E2,4.72E2,9.65E2,1.454E3,9.37E2,1.14E2,3.83E2,2.53E2,2.6E2,8.1E1,3.71E2,4.3E2,6.7E1,3.4E1,9.2E1,3E0,1.26E2,7.25E2,2.4E2,8.09E2,6.45E2,8.28E2,1.09E2,2.38E2,1.45E2,5.5E1,1.98E2,1.34E2,1.26E2,6E0,7.5E1,3.28E2,4.3E1,1.18E2,3.12E2,1.5E1,5.2E1],"tree_param":{"num_deleted":"0","num_feature":"8","num_nodes":"51","size_leaf_vector":"1"}},{"base_weights":[2.2321032E1,-9.0866943E2,3.7098916E3,5.9782837E1,-1.1546211E3,2.7865715E3,7.3461084E3,-7.707186E2,5.2241364E2,-1.4945745E3,-8.11364E2,1.7947987E3,3.7166147E3,2.7904532E2,9.051097E3,-6.997862E1,-4.433149E2,1.4982669E2,1.0897725E3,-9.586617E1,-1.3499393E3,-1.035461E3,-5.845054E2,2.302133E3,1.6502876E3,2.2229097E2,3.4867588E3,4.5427243E2,1.2236426E2,-2.9416666E1,-1.3913203E1,-1.4657202E0,1.269108E1,4.4328743E1,6.461803E1,-5.579787E1,-7.1041374E1,-4.3626842E1,-5.9412544E1,-2.0674475E1,-3.8273434E1,6.980962E1,1.1723268E2,9.314028E1,7.71689E1,1.8325679E2,1.5749176E2],"categories":[0,1,2,3,0,2,3,4,0,2,3,4,0,2,3,0,2,0,2,0,1,2,4,0,1,4],"categories_nodes":[1,11,12,20,21,22,24,26],"categories_segments":[0,4,8,12,15,17,19,23],"categories_sizes":[4,4,4,3,2,2,4,3],"default_left":[0,1,0,0,0,0,0,0,0,0,0,1,1,0,0,0,0,0,0,0,1,1,1,0,1,0,1,0,0,0,0,0,0,0,0,0,0,0,0,0,0,0,0,0,0,0,0],"id":28,"left_children":[1,3,5,7,9,11,13,15,17,19,21,23,25,-1,27,-1,29,31,33,-1,35,37,39,41,43,-1,45,-1,-1,-1,-1,-1,-1,-1,-1,-1,-1,-1,-1,-1,-1,-1,-1,-1,-1,-1,-1],"loss_changes":[2.0488638E10,1.1350559E9,4.01847E9,3.7155488E8,4.422149E8,8.797476E8,6.80831E8,7.061717E7,1.3111022E8,1.1407514E8,9.563174E7,3.0439168E7,6.746675E7,0E0,5.441536E6,0E0,5.317496E6,7.01223E6,8.980896E6,0E0,2.2050304E7,2.2636544E7,2.8867104E7,6.17024E5,5.463232E6,0E0,1.1353088E7,0E0,0E0,0E0,0E0,0E0,0E0,0E0,0E0,0E0,0E0,0E0,0E0,0E0,0E0,0E0,0E0,0E0,0E0,0E0,0E0],"parents":[2147483647,0,0,1,1,2,2,3,3,4,4,5,5,6,6,7,7,8,8,9,9,10,10,11,11,12,12,14,14,16,16,17,17,18,18,20,20,21,21,22,22,23,23,24,24,26,26],"right_children":[2,4,6,8,10,12,14,16,18,20,22,24,26,-1,28,-1,30,32,34,-1,36,38,40,42,44,-1,46,-1,-1,-1,-1,-1,-1,-1,-1,-1,-1,-1,-1,-1,-1,-1,-1,-1,-1,-1,-1],"split_conditions":[2.145E3,1E-45,1.509E2,6.8E2,7.2E2,3.02E3,3.02E3,5.6E2,8.9E2,5.6E2,8.9E2,1E-45,1E-45,2.7904532E2,3.509E2,-6.997862E1,5.95E2,7.2E2,1.09E3,-9.586617E1,1E-45,1E-45,1E-45,2E0,1E-45,2.2229097E2,1E-45,4.5427243E2,1.2236426E2,-2.9416666E1,-1.3913203E1,-1.4657202E0,1.269108E1,4.4328743E1,6.461803E1,-5.579787E1,-7.1041374E1,-4.3626842E1,-5.9412544E1,-2.0674475E1,-3.8273434E1,6.980962E1,1.1723268E2,9.314028E1,7.71689E1,1.8325679E2,1.5749176E2],"split_indices":[0,7,1,0,0,0,0,0,0,0,0,7,7,0,1,0,0,0,0,0,7,7,7,3,7,0,7,0,0,0,0,0,0,0,0,0,0,0,0,0,0,0,0,0,0,0,0],"split_type":[0,1,0,0,0,0,0,0,0,0,0,1,1,0,0,0,0,0,0,0,1,1,1,0,1,0,1,0,0,0,0,0,0,0,0,0,0,0,0,0,0,0,0,0,0,0,0],"sum_hessian":[5.966E3,4.764E3,1.202E3,9.65E2,3.799E3,9.6E2,2.42E2,3.45E2,6.2E2,1.907E3,1.892E3,4.66E2,4.94E2,1.21E2,1.21E2,1.17E2,2.28E2,3.75E2,2.45E2,4.83E2,1.424E3,9.5E2,9.42E2,1E2,3.66E2,1.14E2,3.8E2,1.2E2,1E0,1.2E2,1.08E2,1.38E2,2.37E2,1.25E2,1.2E2,3.35E2,1.089E3,4.63E2,4.87E2,4.86E2,4.56E2,6E0,9.4E1,1.17E2,2.49E2,2.42E2,1.38E2],"tree_param":{"num_deleted":"0","num_feature":"8","num_nodes":"47","size_leaf_vector":"1"}},{"base_weights":[2.3024643E1,-8.5953125E2,3.542123E3,2.7225094E1,-1.0928334E3,7.1345073E3,2.605197E3,-5.627258E2,6.1474713E2,-1.5133827E3,-8.3586334E2,2.679589E2,4.3515732E2,1.6595576E3,3.525656E3,-6.603382E1,-3.0033435E2,2.2457568E2,1.03162E3,-9.10816E1,-1.3560359E3,-1.026486E3,-5.4460645E2,1.0566265E2,1.5432361E3,2.1264058E2,3.278888E3,-2.899153E1,-7.6512117E0,1.778669E1,9.834475E0,4.176773E1,6.1208218E1,-6.196571E1,-7.348286E1,-3.8921078E1,-5.557926E1,-1.8448017E1,-3.6538773E1,8.623506E1,7.2263535E1,1.7318059E2,1.476974E2],"categories":[0,1,2,3,0,1,2,3,0,2,3,4,0,2,3,4,0,2,0,2,3,0,2,0,1,2,4,0,1,4],"categories_nodes":[1,2,13,14,20,21,22,24,26],"categories_segments":[0,4,8,12,16,18,21,23,27],"categories_sizes":[4,4,4,4,2,3,2,4,3],"default_left":[0,1,1,0,0,0,0,0,0,0,0,0,0,1,1,0,0,0,0,0,1,1,1,0,1,0,1,0,0,0,0,0,0,0,0,0,0,0,0,0,0,0,0],"id":29,"left_children":[1,3,5,7,9,11,13,15,17,19,21,-1,-1,23,25,-1,27,29,31,-1,33,35,37,-1,39,-1,41,-1,-1,-1,-1,-1,-1,-1,-1,-1,-1,-1,-1,-1,-1,-1,-1],"loss_changes":[1.8463924E10,9.833408E8,3.9934464E9,3.4383562E8,4.05397E8,6.384312E8,8.1843866E8,9.804885E7,8.060632E7,6.669363E7,1.292471E8,0E0,0E0,2.1490048E7,7.200666E7,0E0,1.5103966E7,8.73667E5,8.046928E6,0E0,1.0750976E7,2.8942208E7,3.0043136E7,0E0,4.209472E6,0E0,1.1497728E7,0E0,0E0,0E0,0E0,0E0,0E0,0E0,0E0,0E0,0E0,0E0,0E0,0E0,0E0,0E0,0E0],"parents":[2147483647,0,0,1,1,2,2,3,3,4,4,5,5,6,6,7,7,8,8,9,9,10,10,13,13,14,14,16,16,17,17,18,18,20,20,21,21,22,22,24,24,26,26],"right_children":[2,4,6,8,10,12,14,16,18,20,22,-1,-1,24,26,-1,28,30,32,-1,34,36,38,-1,40,-1,42,-1,-1,-1,-1,-1,-1,-1,-1,-1,-1,-1,-1,-1,-1,-1,-1],"split_conditions":[2.145E3,1E-45,1E-45,7.2E2,6.8E2,3.02E3,3.02E3,5.6E2,8.9E2,5.6E2,8.9E2,2.679589E2,4.3515732E2,1E-45,1E-45,-6.603382E1,5.95E2,1E0,1.09E3,-9.10816E1,1E-45,1E-45,1E-45,1.0566265E2,1E-45,2.1264058E2,1E-45,-2.899153E1,-7.6512117E0,1.778669E1,9.834475E0,4.176773E1,6.1208218E1,-6.196571E1,-7.348286E1,-3.8921078E1,-5.557926E1,-1.8448017E1,-3.6538773E1,8.623506E1,7.2263535E1,1.7318059E2,1.476974E2],"split_indices":[0,7,7,0,0,0,0,0,0,0,0,0,0,7,7,0,0,4,0,0,7,7,7,0,7,0,7,0,0,0,0,0,0,0,0,0,0,0,0,0,0,0,0],"split_type":[0,1,1,0,0,0,0,0,0,0,0,0,0,1,1,0,0,0,0,0,1,1,1,0,1,0,1,0,0,0,0,0,0,0,0,0,0,0,0,0,0,0,0],"sum_hessian":[5.943E3,4.752E3,1.191E3,9.9E2,3.762E3,2.45E2,9.46E2,4.94E2,4.96E2,1.425E3,2.337E3,1.17E2,1.28E2,4.68E2,4.78E2,1.26E2,3.68E2,2.57E2,2.39E2,4.78E2,9.47E2,1.411E3,9.26E2,9.2E1,3.76E2,1.17E2,3.61E2,1.26E2,2.42E2,4.3E1,2.14E2,1.21E2,1.18E2,4.73E2,4.74E2,3.63E2,1.048E3,4.78E2,4.48E2,1.26E2,2.5E2,2.24E2,1.37E2],"tree_param":{"num_deleted":"0","num_feature":"8","num_nodes":"43","size_leaf_vector":"1"}},{"base_weights":[-3.0670145E0,3.3093342E3,-8.142948E2,2.5267644E3,6.4894395E3,-1.0403427E3,4.149703E1,3.3804573E3,1.5883434E3,8.1361797E3,4.88468E3,-8.03902E2,-1.4289738E3,5.800072E2,-5.200359E2,3.1341082E3,3.988847E3,1.483602E3,2.4216472E3,2.5832053E2,4.171751E2,1.9721005E2,2.6053174E2,-5.325198E2,-9.831166E2,-1.2844852E3,-1.731433E3,9.7654877E2,1.9784566E2,-2.8989853E2,-6.2447388E1,1.3084613E2,1.6442885E2,1.8396767E2,2.1847667E2,5.029091E1,7.990578E1,1.230641E2,4.967422E1,-3.89741E1,-2.0439095E1,-6.0995716E1,-4.525888E1,-6.9256744E1,-5.7095795E1,-8.958543E1,-8.014626E1,4.2279E1,6.627792E1,-5.020258E0,1.413593E1,-3.0458457E0,-2.1120672E1],"categories":[0,1,4,5,6,7,0,1,2,4,5,6,7,0,1,2,4,5,6,7,0,2,4,0,2,4,7,1,5,7,4,0,1,2,4,5,7,4,0,2],"categories_nodes":[0,3,4,5,6,11,12,13,14,29],"categories_segments":[0,6,13,20,23,27,30,31,37,38],"categories_sizes":[6,7,7,3,4,3,1,6,1,2],"default_left":[1,0,0,1,1,1,1,0,0,0,0,1,1,1,1,0,0,0,0,0,0,0,0,0,0,0,0,0,0,1,0,0,0,0,0,0,0,0,0,0,0,0,0,0,0,0,0,0,0,0,0,0,0],"id":30,"left_children":[1,3,5,7,9,11,13,15,17,19,21,23,25,27,29,31,33,35,37,-1,-1,-1,-1,39,41,43,45,47,49,51,-1,-1,-1,-1,-1,-1,-1,-1,-1,-1,-1,-1,-1,-1,-1,-1,-1,-1,-1,-1,-1,-1,-1],"loss_changes":[1.6090435E10,2.9152369E9,9.305375E8,7.5329434E8,5.733458E8,3.4848563E8,3.0450717E8,6.1687296E7,3.59456E7,2.646784E7,1.6234752E7,1.1464576E8,6.0619264E7,7.769986E7,8.233857E7,1.9913984E7,3.00032E5,2.0551232E7,3.28384E5,0E0,0E0,0E0,0E0,2.8528656E7,2.5195264E7,1.243776E7,7.06688E5,1.0397888E7,6.685817E6,1.1383418E7,0E0,0E0,0E0,0E0,0E0,0E0,0E0,0E0,0E0,0E0,0E0,0E0,0E0,0E0,0E0,0E0,0E0,0E0,0E0,0E0,0E0,0E0,0E0],"parents":[2147483647,0,0,1,1,2,2,3,3,4,4,5,5,6,6,7,7,8,8,9,9,10,10,11,11,12,12,13,13,14,14,15,15,16,16,17,17,18,18,23,23,24,24,25,25,26,26,27,27,28,28,29,29],"right_children":[2,4,6,8,10,12,14,16,18,20,22,24,26,28,30,32,34,36,38,-1,-1,-1,-1,40,42,44,46,48,50,52,-1,-1,-1,-1,-1,-1,-1,-1,-1,-1,-1,-1,-1,-1,-1,-1,-1,-1,-1,-1,-1,-1,-1],"split_conditions":[1E-45,1.509E2,1.509E2,1E-45,1E-45,1E-45,1E-45,1.75E1,2.96E1,-1.72E1,-5.2E0,1E-45,1E-45,1E-45,1E-45,-1.07E1,3.06E1,-9.1E0,1.375E2,2.5832053E2,4.171751E2,1.9721005E2,2.6053174E2,1E-1,-4.6E0,1.18E1,1.53E1,2.02E1,-6.3E0,1E-45,-6.2447388E1,1.3084613E2,1.6442885E2,1.8396767E2,2.1847667E2,5.029091E1,7.990578E1,1.230641E2,4.967422E1,-3.89741E1,-2.0439095E1,-6.0995716E1,-4.525888E1,-6.9256744E1,-5.7095795E1,-8.958543E1,-8.014626E1,4.2279E1,6.627792E1,-5.020258E0,1.413593E1,-3.0458457E0,-2.1120672E1],"split_indices":[6,1,1,6,6,5,5,2,2,2,2,5,5,5,5,2,2,2,1,0,0,0,0,2,2,2,2,2,2,5,0,0,0,0,0,0,0,0,0,0,0,0,0,0,0,0,0,0,0,0,0,0,0],"split_type":[1,0,0,1,1,1,1,0,0,0,0,1,1,1,1,0,0,0,0,0,0,0,0,0,0,0,0,0,0,1,0,0,0,0,0,0,0,0,0,0,0,0,0,0,0,0,0,0,0,0,0,0,0],"sum_hessian":[5.986E3,1.177E3,4.809E3,9.46E2,2.31E2,3.804E3,1.005E3,4.94E2,4.52E2,1.12E2,1.19E2,2.367E3,1.437E3,5.13E2,4.92E2,3.56E2,1.38E2,4.04E2,4.8E1,9E0,1.03E2,3.4E1,8.5E1,9.43E2,1.424E3,9.76E2,4.61E2,2.51E2,2.62E2,3.75E2,1.17E2,8.6E1,2.7E2,8.2E1,5.6E1,8E1,3.24E2,4.6E1,2E0,3.13E2,6.3E2,3.49E2,1.075E3,5.67E2,4.09E2,3.05E2,1.56E2,1.85E2,6.6E1,5.8E1,2.04E2,1.38E2,2.37E2],"tree_param":{"num_deleted":"0","num_feature":"8","num_nodes":"53","size_leaf_vector":"1"}},{"base_weights":[1.4398122E1,-7.6569E2,3.1734475E3,7.3920105E1,-9.838498E2,2.3766587E3,6.2496313E3,-4.8453732E2,5.8185657E2,-1.3638077E3,-7.538358E2,1.5375994E3,3.2019114E3,2.3391594E2,7.8878267E3,-5.9960102E1,-2.4962025E2,2.3197423E2,9.295096E2,-1.6397091E3,-1.2275834E3,-9.2361163E2,-4.9632034E2,1.7726289E3,1.3191147E3,1.9430824E2,2.9782012E3,3.981364E2,1.881226E2,-2.5096228E1,-6.330348E0,2.3966518E1,1.1010487E1,3.7220165E1,5.6556885E1,-7.509597E1,-8.432388E1,-5.567116E1,-6.676585E1,-3.4130077E1,-5.0199303E1,-3.2878586E1,-1.6802734E1,9.733593E1,8.134264E1,7.532196E1,6.3623688E1,1.5570499E2,1.3505727E2],"categories":[0,1,2,3,0,2,4,0,2,3,4,0,2,3,0,2,0,2,3,0,2,3,4,0,1,4],"categories_nodes":[1,11,12,19,20,21,23,26],"categories_segments":[0,4,7,11,14,16,19,23],"categories_sizes":[4,3,4,3,2,3,4,3],"default_left":[0,1,0,0,0,0,0,0,0,0,0,1,1,0,0,0,0,0,0,1,1,1,0,1,0,0,1,0,0,0,0,0,0,0,0,0,0,0,0,0,0,0,0,0,0,0,0,0,0],"id":31,"left_children":[1,3,5,7,9,11,13,15,17,19,21,23,25,-1,27,-1,29,31,33,35,37,39,41,43,45,-1,47,-1,-1,-1,-1,-1,-1,-1,-1,-1,-1,-1,-1,-1,-1,-1,-1,-1,-1,-1,-1,-1,-1],"loss_changes":[1.4795845E10,8.820321E8,2.8994673E9,2.8224086E8,3.3299814E8,6.501207E8,5.911839E8,7.9279064E7,6.3157584E7,5.2108544E7,1.0372621E8,2.184768E7,6.1289984E7,0E0,6.501888E6,0E0,1.1047622E7,6.53962E5,8.8992E6,5.15072E5,1.041856E7,2.7112064E7,2.430408E7,2.517632E6,2.49888E5,0E0,5.25568E6,0E0,0E0,0E0,0E0,0E0,0E0,0E0,0E0,0E0,0E0,0E0,0E0,0E0,0E0,0E0,0E0,0E0,0E0,0E0,0E0,0E0,0E0],"parents":[2147483647,0,0,1,1,2,2,3,3,4,4,5,5,6,6,7,7,8,8,9,9,10,10,11,11,12,12,14,14,16,16,17,17,18,18,19,19,20,20,21,21,22,22,23,23,24,24,26,26],"right_children":[2,4,6,8,10,12,14,16,18,20,22,24,26,-1,28,-1,30,32,34,36,38,40,42,44,46,-1,48,-1,-1,-1,-1,-1,-1,-1,-1,-1,-1,-1,-1,-1,-1,-1,-1,-1,-1,-1,-1,-1,-1],"split_conditions":[2.145E3,1E-45,1.509E2,7.2E2,6.8E2,3.02E3,3.02E3,5.6E2,8.9E2,5.6E2,8.9E2,1E-45,1E-45,2.3391594E2,3.431E2,-5.9960102E1,5.95E2,3.018E2,1.09E3,1E-45,1E-45,1E-45,1.09E3,1E-45,3E0,1.9430824E2,1E-45,3.981364E2,1.881226E2,-2.5096228E1,-6.330348E0,2.3966518E1,1.1010487E1,3.7220165E1,5.6556885E1,-7.509597E1,-8.432388E1,-5.567116E1,-6.676585E1,-3.4130077E1,-5.0199303E1,-3.2878586E1,-1.6802734E1,9.733593E1,8.134264E1,7.532196E1,6.3623688E1,1.5570499E2,1.3505727E2],"split_indices":[0,7,1,0,0,0,0,0,0,0,0,7,7,0,1,0,0,1,0,7,7,7,0,7,3,0,7,0,0,0,0,0,0,0,0,0,0,0,0,0,0,0,0,0,0,0,0,0,0],"split_type":[0,1,0,0,0,0,0,0,0,0,0,1,1,0,0,0,0,0,0,1,1,1,0,1,0,0,1,0,0,0,0,0,0,0,0,0,0,0,0,0,0,0,0,0,0,0,0,0,0],"sum_hessian":[6.002E3,4.814E3,1.188E3,9.93E2,3.821E3,9.45E2,2.43E2,4.73E2,5.2E2,1.439E3,2.382E3,4.7E2,4.75E2,1.26E2,1.17E2,1.16E2,3.57E2,2.6E2,2.6E2,4.72E2,9.67E2,1.434E3,9.48E2,2.23E2,2.47E2,1.13E2,3.62E2,1.14E2,3E0,1.16E2,2.41E2,1E1,2.5E2,1.38E2,1.22E2,1.28E2,3.44E2,4.75E2,4.92E2,3.61E2,1.073E3,4.71E2,4.77E2,9.6E1,1.27E2,4.3E1,2.04E2,2.36E2,1.26E2],"tree_param":{"num_deleted":"0","num_feature":"8","num_nodes":"49","size_leaf_vector":"1"}},{"base_weights":[1.2242833E1,-7.3786084E2,3.054602E3,-9.3560504E2,3.5029633E1,2.2635107E3,6.0184473E3,-1.3026345E3,-7.096434E2,-4.667202E2,5.315987E2,1.4287302E3,3.0283628E3,4.454239E3,7.571877E3,-1.575072E3,-1.1646461E3,-8.735942E2,-4.5910556E2,-1.1160854E3,-2.5546703E2,1.926099E2,8.6569037E2,1.147519E3,1.6591384E3,2.7027014E3,3.3591094E3,1.6567503E2,2.358848E2,3.3806604E2,4.225543E2,-8.206236E1,-7.313744E1,-6.2512447E1,-5.0776676E1,-4.8862545E1,-3.5360573E1,-2.6753021E1,-4.645354E0,-5.886037E1,-4.6432835E1,-2.3635576E1,-6.8816843E0,-5.5590167E0,1.3169573E1,3.2846073E1,5.242646E1,4.44499E1,6.496478E1,7.787164E1,9.901594E1,5.6302834E1,1.3684282E2,1.5890942E2,1.9941966E2],"categories":[],"categories_nodes":[],"categories_segments":[],"categories_sizes":[],"default_left":[0,0,0,0,0,0,0,0,0,0,0,0,0,0,0,0,0,0,0,0,0,0,0,0,0,0,0,0,0,0,0,0,0,0,0,0,0,0,0,0,0,0,0,0,0,0,0,0,0,0,0,0,0,0,0],"id":32,"left_children":[1,3,5,7,9,11,13,15,17,19,21,23,25,27,29,31,33,35,37,39,41,43,45,47,49,51,53,-1,-1,-1,-1,-1,-1,-1,-1,-1,-1,-1,-1,-1,-1,-1,-1,-1,-1,-1,-1,-1,-1,-1,-1,-1,-1,-1,-1],"loss_changes":[1.361489E10,7.31499E8,2.7530906E9,3.1513933E8,2.4342186E8,5.913784E8,5.6888525E8,5.271373E7,9.657907E7,6.6384584E7,5.5440656E7,2.712352E7,4.326912E7,2.2235392E7,3.0515712E7,1.204096E6,1.1073408E7,2.3902592E7,2.598472E7,2.70048E5,9.35524E6,5.297457E6,8.739456E6,6.888608E6,4.886272E6,1.03808E7,1.430656E7,0E0,0E0,0E0,0E0,0E0,0E0,0E0,0E0,0E0,0E0,0E0,0E0,0E0,0E0,0E0,0E0,0E0,0E0,0E0,0E0,0E0,0E0,0E0,0E0,0E0,0E0,0E0,0E0],"parents":[2147483647,0,0,1,1,2,2,3,3,4,4,5,5,6,6,7,7,8,8,9,9,10,10,11,11,12,12,13,13,14,14,15,15,16,16,17,17,18,18,19,19,20,20,21,21,22,22,23,23,24,24,25,25,26,26],"right_children":[2,4,6,8,10,12,14,16,18,20,22,24,26,28,30,32,34,36,38,40,42,44,46,48,50,52,54,-1,-1,-1,-1,-1,-1,-1,-1,-1,-1,-1,-1,-1,-1,-1,-1,-1,-1,-1,-1,-1,-1,-1,-1,-1,-1,-1,-1],"split_conditions":[2.145E3,2.999E2,1.509E2,6.8E2,7.2E2,3.02E3,3.02E3,5.6E2,8.9E2,5.6E2,8.9E2,5.6E0,7.2E0,-8.6E0,1.22E1,1.34E1,1.37E1,1.25E1,2.48E1,2.28E1,5.95E2,-6.6E0,7.2E0,-9.1E0,2.96E1,-3.61E1,3.06E1,1.6567503E2,2.358848E2,3.3806604E2,4.225543E2,-8.206236E1,-7.313744E1,-6.2512447E1,-5.0776676E1,-4.8862545E1,-3.5360573E1,-2.6753021E1,-4.645354E0,-5.886037E1,-4.6432835E1,-2.3635576E1,-6.8816843E0,-5.5590167E0,1.3169573E1,3.2846073E1,5.242646E1,4.44499E1,6.496478E1,7.787164E1,9.901594E1,5.6302834E1,1.3684282E2,1.5890942E2,1.9941966E2],"split_indices":[0,1,1,0,0,0,0,0,0,0,0,2,2,2,2,2,2,2,2,2,0,2,2,2,2,2,2,0,0,0,0,0,0,0,0,0,0,0,0,0,0,0,0,0,0,0,0,0,0,0,0,0,0,0,0],"split_type":[0,0,0,0,0,0,0,0,0,0,0,0,0,0,0,0,0,0,0,0,0,0,0,0,0,0,0,0,0,0,0,0,0,0,0,0,0,0,0,0,0,0,0,0,0,0,0,0,0,0,0,0,0,0,0],"sum_hessian":[5.964E3,4.785E3,1.179E3,3.81E3,9.75E2,9.32E2,2.47E2,1.45E3,2.36E3,4.85E2,4.9E2,4.47E2,4.85E2,1.25E2,1.22E2,4.84E2,9.66E2,1.425E3,9.35E2,1.18E2,3.67E2,2.44E2,2.46E2,2.04E2,2.43E2,2.49E2,2.36E2,2.6E1,9.9E1,6.8E1,5.4E1,2.96E2,1.88E2,6.09E2,3.57E2,8.75E2,5.5E2,7.74E2,1.61E2,8.5E1,3.3E1,1.28E2,2.39E2,4.6E1,1.98E2,1.17E2,1.29E2,7.8E1,1.26E2,1.89E2,5.4E1,6E0,2.43E2,1.88E2,4.8E1],"tree_param":{"num_deleted":"0","num_feature":"8","num_nodes":"55","size_leaf_vector":"1"}},{"base_weights":[-7.6459665E0,-7.001208E2,2.8525825E3,-8.9285767E2,2.2620409E1,2.1440525E3,5.6125117E3,-1.1606201E3,-6.268607E2,-6.1871967E2,3.8193216E2,1.3746315E3,2.876795E3,4.2600093E3,6.940581E3,-7.427539E1,-1.0476837E3,-7.334998E2,-2.8363727E2,-5.420892E1,-3.7086917E2,1.13132866E2,8.141305E2,1.0528129E3,1.4548462E3,2.4368286E3,3.0223696E3,2.1907397E2,1.5945091E2,3.484647E2,8.8813576E1,-5.962793E1,-4.858621E1,-3.955967E1,-2.824504E1,-1.8587698E1,-2.0669286E0,-2.4138712E1,-1.2203108E1,-1.8359829E0,9.753138E0,3.3104763E1,4.886054E1,6.503625E1,4.8686E1,7.1463005E1,9.77432E1,1.2538253E2,8.506257E1,1.4651213E2,1.7570319E2],"categories":[],"categories_nodes":[],"categories_segments":[],"categories_sizes":[],"default_left":[0,0,0,0,0,0,0,0,0,0,0,0,0,0,0,0,0,0,0,0,0,0,0,0,0,0,0,0,0,0,0,0,0,0,0,0,0,0,0,0,0,0,0,0,0,0,0,0,0,0,0],"id":33,"left_children":[1,3,5,7,9,11,13,15,17,19,21,23,25,27,29,-1,31,33,35,-1,37,39,41,43,45,47,49,-1,-1,-1,-1,-1,-1,-1,-1,-1,-1,-1,-1,-1,-1,-1,-1,-1,-1,-1,-1,-1,-1,-1,-1],"loss_changes":[1.1919485E10,6.7492326E8,2.2817587E9,2.7170458E8,2.3551659E8,5.231867E8,3.9972915E8,6.834099E7,7.010253E7,4.1936576E7,7.600227E7,1.0291328E7,2.324992E7,1.768704E6,5.26592E6,0E0,1.443456E7,1.3803264E7,9.74184E6,0E0,3.302046E6,4.97951E6,5.576272E6,5.96224E5,1.862848E6,2.193728E6,5.783808E6,0E0,0E0,0E0,0E0,0E0,0E0,0E0,0E0,0E0,0E0,0E0,0E0,0E0,0E0,0E0,0E0,0E0,0E0,0E0,0E0,0E0,0E0,0E0,0E0],"parents":[2147483647,0,0,1,1,2,2,3,3,4,4,5,5,6,6,7,7,8,8,9,9,10,10,11,11,12,12,13,13,14,14,16,16,17,17,18,18,20,20,21,21,22,22,23,23,24,24,25,25,26,26],"right_children":[2,4,6,8,10,12,14,16,18,20,22,24,26,28,30,-1,32,34,36,-1,38,40,42,44,46,48,50,-1,-1,-1,-1,-1,-1,-1,-1,-1,-1,-1,-1,-1,-1,-1,-1,-1,-1,-1,-1,-1,-1,-1,-1],"split_conditions":[2.145E3,1.509E2,1.509E2,7.2E2,6.8E2,3.02E3,3.02E3,5.6E2,1.09E3,5.6E2,8.9E2,1.213E2,1.222E2,1.1E1,3.509E2,-7.427539E1,5.95E2,1.331E2,1.331E2,-5.420892E1,5.95E2,7.2E2,1.09E3,3E0,1.433E2,1.215E2,1.378E2,2.1907397E2,1.5945091E2,3.484647E2,8.8813576E1,-5.962793E1,-4.858621E1,-3.955967E1,-2.824504E1,-1.8587698E1,-2.0669286E0,-2.4138712E1,-1.2203108E1,-1.8359829E0,9.753138E0,3.3104763E1,4.886054E1,6.503625E1,4.8686E1,7.1463005E1,9.77432E1,1.2538253E2,8.506257E1,1.4651213E2,1.7570319E2],"split_indices":[0,1,1,0,0,0,0,0,0,0,0,1,1,3,1,0,0,1,1,0,0,0,0,3,1,1,1,0,0,0,0,0,0,0,0,0,0,0,0,0,0,0,0,0,0,0,0,0,0,0,0],"split_type":[0,0,0,0,0,0,0,0,0,0,0,0,0,0,0,0,0,0,0,0,0,0,0,0,0,0,0,0,0,0,0,0,0,0,0,0,0,0,0,0,0,0,0,0,0,0,0,0,0,0,0],"sum_hessian":[6.016E3,4.844E3,1.172E3,3.824E3,1.02E3,9.34E2,2.38E2,1.904E3,1.92E3,3.66E2,6.54E2,4.57E2,4.77E2,1.2E2,1.18E2,4.88E2,1.416E3,1.464E3,4.56E2,1.26E2,2.4E2,4.04E2,2.5E2,9.4E1,3.63E2,1.23E2,3.54E2,1.05E2,1.5E1,1.17E2,1E0,4.82E2,9.34E2,1.088E3,3.76E2,3.34E2,1.22E2,1.26E2,1.14E2,1.43E2,2.61E2,1.32E2,1.18E2,1.9E1,7.5E1,3.49E2,1.4E1,1.1E2,1.3E1,3.04E2,5E1],"tree_param":{"num_deleted":"0","num_feature":"8","num_nodes":"51","size_leaf_vector":"1"}},{"base_weights":[1.8943363E1,2.7397302E3,-6.633772E2,2.0439539E3,5.5201294E3,4.1832E1,-8.5255896E2,2.72472E3,1.3212687E3,6.7285024E3,4.1819517E3,1.803156E2,-1.0171005E3,-7.678025E2,-1.4134423E3,3.3867844E3,2.5142573E3,1.7797269E3,1.186502E3,4.4510977E3,3.4654803E2,3.2117126E3,2.2325964E2,5.210732E1,3.8910956E2,-5.6199898E1,-4.414912E1,-6.287585E2,-9.058773E2,-7.4093765E1,-6.517591E1,7.54077E1,1.728593E2,1.0293902E2,1.3836835E2,3.071131E1,9.479729E1,5.0200893E1,7.393027E1,6.3792187E1,2.304691E2,3.9503857E1,1.6339867E2,-1.1449977E1,5.5747356E0,1.828502E1,6.61827E1,-4.1021103E1,-2.5522064E1,-5.629911E1,-4.1805096E1],"categories":[0,1,4,5,6,7,0,1,2,3,0,1,2,4,5,6,7,0,1,2,4,5,6,7,7,7,0,2,3,4,0,2,3,4,0,2],"categories_nodes":[0,2,3,4,5,6,7,8,13],"categories_segments":[0,6,10,17,24,25,26,30,34],"categories_sizes":[6,4,7,7,1,1,4,4,2],"default_left":[1,0,1,1,1,1,1,1,1,0,0,0,0,1,0,0,0,0,0,0,0,0,0,0,0,0,0,0,0,0,0,0,0,0,0,0,0,0,0,0,0,0,0,0,0,0,0,0,0,0,0],"id":34,"left_children":[1,3,5,7,9,11,13,15,17,19,21,23,25,27,29,31,33,35,37,39,-1,41,-1,43,45,-1,-1,47,49,-1,-1,-1,-1,-1,-1,-1,-1,-1,-1,-1,-1,-1,-1,-1,-1,-1,-1,-1,-1,-1,-1],"loss_changes":[1.1175783E10,2.3237028E9,6.421509E8,4.7214387E8,3.6156314E8,1.4961443E8,1.7932365E8,6.073677E7,2.6989056E7,2.6784256E7,1.7812224E7,2.4125468E7,6.99288E5,6.276621E7,1.806976E6,1.026048E7,3.8226176E7,1.3058048E7,1.8078144E7,6.52848E5,0E0,1.505344E6,0E0,9.374286E6,7.0197E6,0E0,0E0,3.693037E7,2.4445184E7,0E0,0E0,0E0,0E0,0E0,0E0,0E0,0E0,0E0,0E0,0E0,0E0,0E0,0E0,0E0,0E0,0E0,0E0,0E0,0E0,0E0,0E0],"parents":[2147483647,0,0,1,1,2,2,3,3,4,4,5,5,6,6,7,7,8,8,9,9,10,10,11,11,12,12,13,13,14,14,15,15,16,16,17,17,18,18,19,19,21,21,23,23,24,24,27,27,28,28],"right_children":[2,4,6,8,10,12,14,16,18,20,22,24,26,28,30,32,34,36,38,40,-1,42,-1,44,46,-1,-1,48,50,-1,-1,-1,-1,-1,-1,-1,-1,-1,-1,-1,-1,-1,-1,-1,-1,-1,-1,-1,-1,-1,-1],"split_conditions":[1E-45,1.509E2,1E-45,1E-45,1E-45,1E-45,1E-45,1E-45,1E-45,-1.72E1,-5.2E0,1.3E1,1.2E1,1E-45,1.34E1,-2.8E1,1E-1,-2.38E1,1.34E1,-3.01E1,3.4654803E2,2.999E2,2.2325964E2,-1.51E1,5.14E1,-5.6199898E1,-4.414912E1,2.4E0,-4.4E0,-7.4093765E1,-6.517591E1,7.54077E1,1.728593E2,1.0293902E2,1.3836835E2,3.071131E1,9.479729E1,5.0200893E1,7.393027E1,6.3792187E1,2.304691E2,3.9503857E1,1.6339867E2,-1.1449977E1,5.5747356E0,1.828502E1,6.61827E1,-4.1021103E1,-2.5522064E1,-5.629911E1,-4.1805096E1],"split_indices":[6,1,7,6,6,6,6,7,7,2,2,2,2,7,2,2,2,2,2,2,0,1,0,2,2,0,0,2,2,0,0,0,0,0,0,0,0,0,0,0,0,0,0,0,0,0,0,0,0,0,0],"split_type":[1,0,1,1,1,1,1,1,1,0,0,0,0,1,0,0,0,0,0,0,0,0,0,0,0,0,0,0,0,0,0,0,0,0,0,0,0,0,0,0,0,0,0,0,0,0,0,0,0,0,0],"sum_hessian":[6.018E3,1.206E3,4.812E3,9.66E2,2.4E2,1.018E3,3.794E3,4.96E2,4.7E2,1.24E2,1.16E2,9.01E2,1.17E2,3.298E3,4.96E2,1.16E2,3.8E2,1.04E2,3.66E2,1.2E1,1.12E2,2.9E1,8.7E1,5.59E2,3.42E2,6.1E1,5.6E1,1.646E3,1.652E3,2.98E2,1.98E2,5E0,1.11E2,1.39E2,2.41E2,1E1,9.4E1,2.28E2,1.38E2,1E0,1.1E1,1E0,2.8E1,9.7E1,4.62E2,3.35E2,7E0,6.26E2,1.02E3,3.94E2,1.258E3],"tree_param":{"num_deleted":"0","num_feature":"8","num_nodes":"51","size_leaf_vector":"1"}},{"base_weights":[1.8382751E1,-6.29469E2,2.600089E3,4.2573524E1,-8.02865E2,1.9546993E3,5.131316E3,-5.7681537E2,3.699674E2,-1.0549547E3,-5.4889526E2,1.2457708E3,2.6085654E3,3.8855488E3,6.4724595E3,-9.7536554E2,-3.6154956E2,8.880375E1,7.9963416E2,-1.3428917E3,-9.575697E2,-6.4732117E2,-2.3983022E2,1.6868235E3,1.12118E3,2.9928125E3,2.2438428E3,3.0402148E3,2.0962373E2,6.2197365E1,6.507108E3,-5.1321285E1,-4.0223507E1,-2.420742E1,-7.645697E0,-2.137868E0,1.2741655E1,2.8085297E1,4.7989265E1,-6.0555878E1,-6.938717E1,-4.215179E1,-5.357026E1,-2.0612398E1,-3.631571E1,-2.9051585E0,-2.0947844E1,3.1148184E1,8.925973E1,3.032053E1,6.1242657E1,1.2299048E2,1.6453383E2,9.5447655E1,1.2845634E2,3.6152782E1,1.5416493E2,2.8848508E2,3.5120895E2],"categories":[0,1,2,3,0,2,3,4,0,2,4,0,2,3,0,2,0,2,3,0,2],"categories_nodes":[1,11,12,19,20,21,22],"categories_segments":[0,4,8,11,14,16,19],"categories_sizes":[4,4,3,3,2,3,2],"default_left":[0,1,0,0,0,0,0,0,0,0,0,1,1,0,0,0,0,0,0,1,1,1,1,0,0,0,0,0,0,0,0,0,0,0,0,0,0,0,0,0,0,0,0,0,0,0,0,0,0,0,0,0,0,0,0,0,0,0,0],"id":35,"left_children":[1,3,5,7,9,11,13,15,17,19,21,23,25,27,29,31,33,35,37,39,41,43,45,47,49,51,53,55,-1,-1,57,-1,-1,-1,-1,-1,-1,-1,-1,-1,-1,-1,-1,-1,-1,-1,-1,-1,-1,-1,-1,-1,-1,-1,-1,-1,-1,-1,-1],"loss_changes":[1.0038688E10,5.5914266E8,1.9568573E9,1.9995579E8,2.4360525E8,4.4221645E8,3.825147E8,2.89032E7,7.78493E7,5.2356096E7,5.770355E7,2.3551104E7,6.321613E7,2.0723712E7,1.292032E7,2.12664E5,5.62997E6,8.551511E6,9.17752E6,1.162048E6,1.7780224E7,2.6477248E7,1.4982202E7,9.353184E6,1.8683136E7,3.0008832E7,2.3418624E7,1.564224E6,0E0,0E0,3.320832E6,0E0,0E0,0E0,0E0,